
#ifndef _WEIGHTS_ 
#define _WEIGHTS_
#define NUM_OF_INPUTS 784
#define NUM_OF_OUTPUTS 10 
#define NUM_OF_HIDDEN_LAYERS 2

int input_layer_neurons = 784;
double layer_1_weights[] = {0.0008601322770118713, 0.04753551632165909, 0.07313717156648636, 0.08386813849210739, -0.042806074023246765, -0.08517716079950333, -0.0318218432366848, -0.0783960372209549, 0.04640454798936844, -0.06118467450141907, 0.04366012662649155, 0.027495823800563812, 0.061306215822696686, -0.04683712497353554, -0.06672103703022003, -0.03370193392038345, -0.002471908926963806, -0.004511997103691101, 0.02262137085199356, -0.0020152926445007324, -0.04883129522204399, -0.043687447905540466, -0.02556779235601425, 0.03831251710653305, 0.05606267601251602, 0.0794171616435051, 0.08205821365118027, 0.012628823518753052, -0.057738661766052246, -0.027365226298570633, -0.011967554688453674, -0.007779560983181, 0.07419433444738388, -0.031035948544740677, -0.08416954427957535, -0.0007750168442726135, 0.020103663206100464, 0.01537458598613739, 0.08391693979501724, -0.0617029145359993, 0.022968553006649017, -0.038738228380680084, 0.03236592561006546, -0.0384238138794899, -0.04945983365178108, -0.07649752497673035, 0.03676323592662811, 0.060569606721401215, 0.04661888629198074, 0.04885072261095047, 0.018014609813690186, -0.08162037283182144, -0.010276906192302704, -0.057685114443302155, -0.03885563835501671, -0.05202960968017578, -0.03790377452969551, -0.033428922295570374, 0.01393803209066391, 0.031547874212265015, 0.04949336498975754, 0.032492294907569885, -0.02012503147125244, -0.023958198726177216, 0.0599823072552681, -0.06430491805076599, -0.060613956302404404, -0.0713811069726944, -0.05354323983192444, 0.0559367910027504, -0.033202484250068665, 0.05129576474428177, -0.04848165810108185, 0.07273123413324356, -0.010708294808864594, 0.04219641536474228, 0.04940665513277054, -0.014139227569103241, -0.08184916526079178, -0.02504114806652069, 0.023333951830863953, -0.029981639236211777, -0.00838015228509903, 0.015540920197963715, -0.06217213347554207, 0.038868293166160583, -0.0068225860595703125, 0.02443712204694748, 0.028260953724384308, -0.0679716095328331, 0.01144571602344513, -0.05993369221687317, 0.04436928778886795, 0.07264899462461472, 0.010349087417125702, 0.05332348495721817, -0.05557525157928467, -0.052169203758239746, 0.06139097362756729, 0.007828786969184875, 0.05687478929758072, -0.014141984283924103, -0.042972225695848465, 0.013372689485549927, 0.025755003094673157, 0.04407014697790146, -0.06663956493139267, -0.021550990641117096, 0.05742038041353226, -0.008826285600662231, 0.03355005383491516, -0.01337260752916336, 0.08383169025182724, 0.000173225998878479, 0.08458016067743301, 0.01703823357820511, -0.0597233846783638, 0.05205937474966049, 0.0718141421675682, -0.02704339474439621, -0.06011535972356796, -0.011531747877597809, -0.033374909311532974, -0.07478887587785721, -0.07749409973621368, 0.022430583834648132, -0.04128279536962509, 0.03715163469314575, 0.06704912334680557, -0.07592308521270752, -0.06618431210517883, 0.05667882412672043, -0.07673050463199615, -0.046978190541267395, 0.03195137530565262, -0.06545813381671906, 0.023437462747097015, -0.01151169091463089, 0.009602062404155731, 0.06488525122404099, 0.03936370462179184, -0.04111913964152336, 0.05435638874769211, -0.04912465065717697, -0.004168294370174408, 0.07395095378160477, -0.06239059939980507, -0.024182245135307312, -0.0798230841755867, 0.006208382546901703, -0.07114119827747345, -0.012432396411895752, 0.04900912195444107, -0.05567634850740433, 0.03894506394863129, -0.07309067994356155, -0.042048290371894836, -0.005895152688026428, -0.029171820729970932, -0.02309330552816391, 0.051050059497356415, -0.07656106352806091, 0.0026158615946769714, 0.07971537858247757, 0.03918661177158356, -0.06826134026050568, 0.02481875568628311, -0.06599955260753632, 0.024258561432361603, -0.009119674563407898, 0.04084382206201553, -0.009282171726226807, 0.010689221322536469, -0.002368830144405365, -0.05693301558494568, -0.023531895130872726, -0.003170691430568695, -0.08246441185474396, -0.012269355356693268, 0.016688190400600433, 0.016101792454719543, 0.07933204621076584, 0.021578386425971985, -0.01767899841070175, -0.051324162632226944, -0.028637226670980453, 0.03343658894300461, 0.02552289515733719, 0.01301342248916626, -0.02060532569885254, -0.0794438049197197, -0.0672096461057663, -0.009423069655895233, 0.00165461003780365, 0.021025002002716064, 0.06472290307283401, -0.015945598483085632, -0.08232972770929337, -0.0022454336285591125, 0.04404713958501816, -0.06262638419866562, -0.011190004646778107, 0.0401112362742424, -0.02624151110649109, -0.06331277638673782, 0.06127440184354782, -0.08176370710134506, 0.006944186985492706, -0.07519905269145966, -0.07175834476947784, -0.06371808052062988, -0.06277427822351456, -0.01705058664083481, 0.06219198554754257, 0.06939839571714401, 0.01192358136177063, -0.03078380972146988, -0.022107549011707306, 0.07266680151224136, 0.01219293475151062, -0.04977675899863243, -8.351355791091919e-05, 0.04469455033540726, -0.07676440477371216, 0.054456375539302826, -0.037121906876564026, -0.005684882402420044, -0.05334632098674774, 0.027838900685310364, -0.029095441102981567, 0.055665649473667145, -0.010783098638057709, 0.04415128380060196, -0.0736403837800026, -0.08550379425287247, -0.07600919157266617, -0.04340552166104317, 0.07726480811834335, 0.08275923877954483, -0.033690016716718674, 0.03133786469697952, 0.014890164136886597, -0.04983289912343025, -0.06224019080400467, -0.035372208803892136, 0.023198716342449188, -0.03132146969437599, 0.06033305078744888, 0.04360329359769821, -0.009050123393535614, 0.05720371752977371, -0.02126479148864746, -0.05141638591885567, 0.05674625188112259, -0.06188094615936279, 0.07603489607572556, 0.027793757617473602, -0.06326407939195633, 0.07411827892065048, -0.03509461507201195, 0.08000517636537552, 0.023061782121658325, -0.01007438451051712, 0.07736548036336899, -0.03678547590970993, -0.022129341959953308, 0.008098527789115906, 0.07080366462469101, 0.016954392194747925, -0.01957753300666809, -0.06810788810253143, 0.05497049540281296, 0.06158987432718277, 0.03840899467468262, 0.0737413540482521, -0.05905747413635254, -0.04031987488269806, -0.08178771287202835, -0.03730304166674614, -0.07591038942337036, 0.00011698156595230103, -0.05084963142871857, -0.022783882915973663, 0.03518643230199814, -0.0833844244480133, -0.08208658546209335, 0.06794849783182144, -0.06929972767829895, -0.007898010313510895, 0.013722226023674011, 0.08090392500162125, -0.06412950158119202, -0.08037372678518295, -0.05572093650698662, 0.02923382818698883, -0.051310036331415176, -0.04081026837229729, -0.05897970497608185, -0.056211721152067184, 0.01892761141061783, -0.03704795986413956, -0.016017474234104156, 0.048202283680438995, 0.00399373471736908, 0.04110065847635269, 0.07884756475687027, -0.010767214000225067, -0.040960535407066345, 0.005569636821746826, -0.07789856195449829, -0.07661918550729752, 0.049980439245700836, -0.04694141075015068, -0.0276043638586998, 0.012453742325305939, 0.02744964510202408, 0.0007566586136817932, 0.0626562312245369, -0.06765936315059662, -0.04148705676198006, 0.055490024387836456, 0.07789649814367294, 0.03913640230894089, 0.014841713011264801, -0.08515264838933945, -0.042895376682281494, 0.05684908479452133, 0.016862086951732635, -0.015277869999408722, 0.08441942185163498, 0.020292162895202637, 0.08392145484685898, -0.013239659368991852, -0.06947357952594757, -0.07365107536315918, -0.04601628705859184, 0.03205353766679764, 0.05947347730398178, -0.030553627759218216, -0.05018178001046181, 0.044063277542591095, -0.020713068544864655, -0.0750766471028328, -0.07567143440246582, -0.06843975931406021, 0.0642370656132698, -0.004301548004150391, 0.05324303358793259, 0.05030275136232376, 0.024568110704421997, -0.047585200518369675, -0.03175899758934975, 0.04573064297437668, -0.06504906713962555, -0.014641009271144867, 0.04223104566335678, 0.01779438555240631, 0.06069033592939377, -0.015445813536643982, -0.08071021735668182, 0.019992448389530182, 0.08143893629312515, -0.08037029206752777, 0.03322838246822357, -0.0214218869805336, 0.031409524381160736, -0.033014293760061264, 0.08173488825559616, 0.04173748940229416, -0.0304882675409317, -0.011040925979614258, -0.02242964506149292, -0.028173696249723434, 0.05646688491106033, -0.03274843841791153, -0.07791662216186523, -0.0526759959757328, 0.06412508338689804, 0.010586880147457123, -0.0011654198169708252, -0.05977817624807358, -0.07116702198982239, -0.04676146060228348, -0.03384091705083847, 0.06488563865423203, 0.04615449160337448, 0.048429690301418304, -0.039957351982593536, 0.08543423563241959, -0.03010626509785652, -0.08410561829805374, 0.05202322080731392, -0.06274630129337311, 0.026353569701313972, 0.057154931128025055, -0.02797669544816017, -0.02050253376364708, -0.03110494837164879, -0.012507818639278412, -0.07643872499465942, 0.03384220972657204, 0.039820052683353424, 0.02880871295928955, 0.030522778630256653, -0.07514040172100067, -0.016518183052539825, 0.045959390699863434, -0.06838147342205048, 0.07267389446496964, 0.04075179249048233, 0.010205762460827827, -0.04695805907249451, -0.03628813102841377, -0.04640544578433037, -0.044157110154628754, 0.07053091377019882, -0.06573598831892014, -0.045988403260707855, -0.0482846163213253, -0.024563701823353767, 0.024182666093111038, -0.08156329393386841, -0.07773317396640778, -0.00901782140135765, 0.03866240009665489, -0.008757324889302254, 0.014041848480701447, -0.003501094877719879, -0.021834326907992363, -0.05028602480888367, 0.04463454335927963, 0.04644753783941269, -0.09803606569766998, -0.03138308972120285, -0.030950959771871567, -0.05234839767217636, -0.04324281960725784, 0.007292780093848705, -0.05234719067811966, -0.07726937532424927, 0.09740863740444183, 0.009617410600185394, -0.0379873551428318, 0.008094585500657558, 0.051702745258808136, -0.0010867714881896973, -0.07297958433628082, -0.07271779328584671, 0.08024705201387405, 0.04734324663877487, -0.0728568360209465, -0.037372615188360214, -0.04402583837509155, 0.059286125004291534, 0.04217597097158432, -0.07710938155651093, 0.007920071482658386, 0.0009617805480957031, 0.034897349774837494, -0.06318571418523788, 0.08445457369089127, 0.00792328268289566, -0.0384615957736969, 0.059337370097637177, 0.02337554097175598, -0.037016477435827255, 0.022119097411632538, 0.0734732523560524, 0.03790400177240372, 0.06454239040613174, -0.05421718209981918, 0.0031378790736198425, 0.03108646720647812, -0.03883464261889458, 0.06267067044973373, -0.0032754316926002502, -0.05539366602897644, -0.04315483197569847, -0.07749707996845245, -0.03284376859664917, -0.03268420323729515, 0.07797998934984207, 0.010626539587974548, -0.010446913540363312, -0.04688197746872902, -0.05268801748752594, 0.037911176681518555, 0.017497681081295013, 0.0559714213013649, -0.08046141266822815, 0.038532108068466187, -0.0501897931098938, -0.04970419406890869, 0.06512481719255447, -0.006247997283935547, -0.06959845870733261, 0.06955442577600479, -0.006547816097736359, -0.07332850247621536, -0.06822822242975235, -0.017227165400981903, 0.06929140537977219, 0.07471742480993271, 0.05627783387899399, 0.049872469156980515, -0.0699857696890831, 0.02768908441066742, 0.00694410502910614, 0.028728164732456207, 0.026357248425483704, 0.03102930635213852, -0.06193549185991287, -0.01449538767337799, -0.007685534656047821, -0.004864536225795746, 0.07695306092500687, 0.004706628620624542, -0.044705118983983994, -0.0267571359872818, 0.04193917661905289, -0.013945452868938446, -0.07558059692382812, -0.027080461382865906, -0.05870548635721207, 0.06730058044195175, 0.06156256049871445, -0.06921768188476562, 0.07048352807760239, 0.04639039188623428, 0.007655009627342224, 0.06815282255411148, -0.03719840943813324, 0.06430687755346298, 0.005965463817119598, -0.022854208946228027, 0.015923433005809784, 0.03035840392112732, -0.08389823138713837, -0.019912980496883392, -0.04700147733092308, 0.02441515028476715, 0.0685662254691124, -0.07653998583555222, 0.07093008607625961, -0.0358133539557457, -0.05761466547846794, -0.061086032539606094, -0.05684467405080795, 0.01856636255979538, 0.01035291701555252, -0.02359801158308983, 0.007170483469963074, 0.02004542201757431, 0.07160172611474991, 0.033536478877067566, 0.08177914470434189, 0.02849215269088745, 0.004942573606967926, -0.033409543335437775, 0.07055952399969101, -0.005011901259422302, 0.02327100932598114, -0.057651158422231674, -0.016115158796310425, -0.058533795177936554, 0.019639231264591217, -0.053652409464120865, 0.06076326221227646, 0.03872847557067871, -0.06649073213338852, -0.06480661779642105, 0.012914247810840607, -0.02047104388475418, 0.07094129174947739, 0.05900611728429794, 0.02417556196451187, 0.06354431062936783, 0.043300338089466095, -0.010317914187908173, -0.0210467129945755, -0.027518436312675476, 0.010012514889240265, 0.05748320370912552, -0.02548491209745407, 0.07606559246778488, 0.047756485641002655, 0.0494365319609642, 0.020901523530483246, 0.008508354425430298, 0.017727330327033997, 0.03305651247501373, -0.07198963314294815, 0.0217306986451149, 0.08431731909513474, -0.041168514639139175, -0.012472778558731079, 0.06237078458070755, -0.05525650829076767, -0.014967910945415497, 0.04059756547212601, -0.030587483197450638, 0.031321898102760315, -0.04647301137447357, -0.07282821834087372, -0.018543526530265808, -0.02840416133403778, 0.05571640282869339, 0.06542503088712692, 0.002628616988658905, 0.03142138570547104, 0.06823558360338211, 0.017655164003372192, -0.045807961374521255, 0.06846921890974045, 0.015822067856788635, -0.07785483449697495, -0.008067600429058075, 0.046906761825084686, 0.036322370171546936, -0.012849032878875732, -0.01142200082540512, -0.016616247594356537, 0.02990591526031494, -0.05102052539587021, -0.009618274867534637, -0.03761301934719086, -0.027718298137187958, -0.06242378056049347, -0.059535011649131775, 0.009465798735618591, -0.042247459292411804, 0.0705704316496849, -0.006561592221260071, -0.008028894662857056, -0.011269919574260712, 0.05376046150922775, 0.0801677480340004, 0.03792785853147507, 0.0790279284119606, -0.02971167117357254, -0.031431421637535095, 0.07008985430002213, 0.08110830932855606, 0.05035451799631119, 0.04504156857728958, 0.039074838161468506, 0.06327112764120102, -0.04101133719086647, -0.029484190046787262, -0.06762798130512238, 0.046843789517879486, 0.04760383814573288, -0.025873739272356033, -0.06048396974802017, -0.027918633073568344, -0.027827493846416473, 0.05860533565282822, 0.08292410522699356, -0.08157005906105042, 0.06751710921525955, 0.05236988514661789, 0.00895635038614273, 0.0852416381239891, -0.00014803558588027954, 0.02039695531129837, 0.06841815263032913, -0.023126810789108276, 0.04189353436231613, 0.07424677163362503, 0.023474588990211487, -0.03788192197680473, -0.041008640080690384, 0.06859143823385239, -0.0749426782131195, 0.019970551133155823, 0.015379838645458221, 0.08523542433977127, -0.08515642583370209, -0.026942379772663116, -0.04434623941779137, 0.07247037440538406, 0.06561391800642014, -0.080621637403965, 0.058950670063495636, 0.06616295129060745, -0.04268433153629303, 0.08281835168600082, 0.009450651705265045, 0.025487713515758514, -0.022118769586086273, 0.01970236748456955, 0.06126704066991806, -0.02049686759710312, 0.06544201821088791, -0.07172465324401855, 0.026210643351078033, 0.05131845921278, -0.08121655881404877, -0.04455777630209923, -0.07860510051250458, 0.06470369547605515, 0.017237529158592224, 0.06783255189657211, -0.007890261709690094, 0.009899258613586426, -0.04137730970978737, -0.06752762198448181, 0.07137683779001236, -0.08510151505470276, -0.023754041641950607, -0.07853368669748306, 0.06396897882223129, -0.07960457354784012, 0.03607107698917389, -0.010177172720432281, 0.022630997002124786, -0.045261282473802567, 0.08029405027627945, -0.07279926538467407, 0.02873292565345764, 0.031602151691913605, -0.04033375531435013, -0.07520890235900879, -0.054714180529117584, -0.04828604683279991, -0.008255504071712494, -0.06893434375524521, 0.04334261268377304, 0.036522381007671356, 0.07506293803453445, 0.0677100196480751, -0.04585179314017296, 0.05303499847650528, 0.04946038872003555, 0.06829888373613358, 0.023459479212760925, -0.05007833242416382, -0.058924607932567596, -0.02125728875398636, -0.049052052199840546, 0.02620663493871689, 0.009895697236061096, 0.04209963232278824, -0.04165995121002197, 0.0031337514519691467, 0.07195093482732773, -0.015044555068016052, 0.0612938329577446, -0.06834426522254944, -0.0230415016412735, -0.051405612379312515, -0.012813970446586609, -0.025785401463508606, 0.048242129385471344, 0.0080442875623703, -0.05279538780450821, -0.07702813297510147, -0.0752822607755661, -0.010219231247901917, 0.0215817391872406, -0.02713913470506668, 0.06897472590208054, -0.04526524990797043, -0.03704667091369629, 0.0709906741976738, 0.0112786665558815, 0.04287681728601456, 0.05780387669801712, -0.049821265041828156, -0.013823933899402618, -0.027030065655708313, 0.01543176919221878, -0.011502943933010101, 0.03428059071302414, 0.05603138357400894, -0.0611473023891449, 0.07841036468744278, 0.03782457113265991, -0.0692678689956665, 0.0020320340991020203, 0.07566342502832413, 0.07918714731931686, 0.04305075854063034, 0.021148279309272766, -0.015135020017623901, 0.07170604914426804, -0.03722934052348137, 0.08202724903821945, -0.0602414608001709, 0.016492560505867004, 0.004747658967971802, -0.05002296715974808, -0.009360961616039276, -0.05458609759807587, 0.05315431207418442, -0.01642507314682007, -0.062150828540325165, 0.05490253120660782, 0.01868963986635208, 0.05560832470655441, -0.06452713906764984, 0.05869998782873154, 0.024921223521232605, 0.028173550963401794, 0.08146709948778152, -0.046302467584609985, 0.04903588443994522, 0.04258296638727188, -0.040854427963495255, 0.018950484693050385, -0.02470795065164566, -0.061238404363393784, -0.0034278854727745056, 0.037559859454631805, -0.006773620843887329, 0.009275563061237335, -0.07401026040315628, 0.04830137640237808, 0.04889640957117081, 0.035882845520973206, 0.0027406513690948486, -0.017315156757831573, -0.030247904360294342, -0.042096659541130066, -0.045377448201179504, 0.053354211151599884, 0.05702226608991623, -0.04062396287918091, -0.07938972860574722, 0.05777382105588913, -0.06787891685962677, 0.006619572639465332, 0.0817171111702919, 0.06601620465517044, -0.06258868426084518, 0.0028911232948303223, 0.08209296315908432, -0.035684023052453995, 0.03710953891277313, -0.07715731859207153, -0.06638848781585693, -0.03268953785300255, -0.006007246673107147, -0.02107544243335724, 0.013201221823692322, 0.008823193609714508, -0.015522278845310211, -0.017614252865314484, -0.026389487087726593, 0.01899593323469162, 0.03955552726984024, 0.0024100467562675476, 0.017240531742572784, -0.04163169860839844, -0.038830533623695374, 0.06961522251367569, 0.04589199274778366, 0.007609568536281586, -0.04929378256201744, -0.059925518929958344, -0.05535434931516647, 0.01628190279006958, 0.0007977336645126343, 0.05689714103937149, 0.0852380022406578, -0.057505737990140915, -0.04550641030073166, 0.02293138951063156, 0.009846001863479614, 0.012720949947834015, 0.03839690983295441, -0.08398808538913727, -0.0060056522488594055, -0.016497142612934113, -0.05662563443183899, -0.05141828581690788, 0.029084257781505585, -0.016483359038829803, 0.08026225119829178, -0.0047560036182403564, -0.017082497477531433, 0.03810259699821472, -0.05868813022971153, -0.060611542314291, 0.0028311386704444885, 0.003690771758556366, -0.00179193913936615, -0.030768167227506638, 0.06610535830259323, 0.01819302886724472, 0.08279863744974136, -0.053768862038850784, 0.02083233743906021, 0.029711179435253143, -0.08425821363925934, 0.053645454347133636, 0.03634992986917496, -0.04882076755166054, 0.01599646359682083, -0.0359325036406517, 0.06372212618589401, -0.010751880705356598, 0.009541012346744537, 0.025942429900169373, -0.019904576241970062, 0.062336765229701996, 0.040134184062480927, -0.0037856176495552063, 0.0029995962977409363, 0.07920093089342117, -0.03334309905767441, 0.0014097541570663452, 0.02001418173313141, -0.008936189115047455, -0.013236165046691895, 0.059263281524181366, 0.0060991644859313965, -0.061343833804130554, -0.08214873820543289, -0.07912150025367737, -0.07946659624576569, -0.06780457496643066, 0.04786745458841324, -0.08431772142648697, -0.032794129103422165, 0.01572711020708084, 0.046546973288059235, -0.05054071918129921, 0.016377314925193787, 0.0376940593123436, 0.028181500732898712, 0.010053940117359161, 0.03052261471748352, 0.05595792084932327, -0.07634292542934418, 0.005528733134269714, 0.08108603209257126, 0.06097465008497238, 0.04727175086736679, -0.08125665038824081, -0.04624268785119057, -0.08255582302808762, 0.06714338809251785, 0.03897558152675629, 0.04182649403810501, -0.005938515067100525, -0.07519258558750153, 0.05432359129190445, -0.057774618268013, -0.006946109235286713, -0.0017548277974128723, -0.08255396038293839, 0.05725691467523575, -0.08013740926980972, -0.002920188009738922, -0.07119453698396683, -0.04189612343907356, -0.02254730463027954, 0.022580541670322418, -0.08466257899999619, 0.007948383688926697, -0.04295353963971138, 0.04434017091989517, -0.08014806360006332, -0.06623059511184692, -0.03924097120761871, -0.025158662348985672, 0.06367944926023483, 0.03961563855409622, 0.017657756805419922, -0.07676799595355988, -0.04626327380537987, -0.03148524835705757, -0.03714337199926376, 0.043447621166706085, -0.04554012417793274, 0.07873066514730453, -0.033484164625406265, -0.0035473182797431946, 0.03943980485200882, -0.021850518882274628, 0.026764124631881714, 0.05110267549753189, 0.03963560611009598, -0.011934824287891388, 0.07462119311094284, 0.028949163854122162, -0.019115328788757324, 0.05061442404985428, 0.05545122176408768, 0.01773710548877716, -0.06608843058347702, -0.0029480159282684326, -0.04731146991252899, 0.06840530782938004, 0.07136610895395279, 0.015056990087032318, 0.03883006423711777, -0.04409363120794296, -0.01099412888288498, 0.06316982954740524, 0.07297006994485855, 0.0103364959359169, -0.03903710097074509, 0.06967119127511978, 0.04648596793413162, -0.04498246684670448, -0.038247015327215195, 0.013528920710086823, -0.024259015917778015, -0.076676145195961, 0.015124738216400146, 0.0755099281668663, -0.06843119114637375, 0.05130729824304581, -0.06331664323806763, 0.06951520591974258, 0.07817154377698898, -0.03378177061676979, 0.0601632222533226, 0.04283522814512253, 0.029507622122764587, -0.02068675309419632, -0.07853341847658157, 0.06401174515485764, 0.030616186559200287, -0.060161277651786804, 0.051669709384441376, 0.015601661056280136, 0.04670580476522446, 0.03233356028795242, -0.011511576361954212, -0.04146650806069374, 0.054903797805309296, 0.04746042937040329, -0.04646499827504158, -0.0444602370262146, 0.04219131916761398, -0.04518952593207359, 0.02441798895597458, -0.021148154512047768, 0.042883194983005524, 0.006437189877033234, -0.049660470336675644, -0.037532489746809006, 0.057923682034015656, 0.05151713639497757, -0.05879721790552139, 0.075411356985569, -0.06491648405790329, -0.06258584558963776, 0.05993729084730148, -0.074493907392025, 0.08296490460634232, 0.02989330142736435, -0.07349438965320587, -0.027918528765439987, -0.05937887728214264, 0.05745180696249008, 0.07612054795026779, -0.0647977814078331, 0.011315837502479553, 0.05907156318426132, 0.04575043171644211, 0.08843542635440826, -0.015931695699691772, 0.01864446885883808, 0.0019736438989639282, -0.04459315910935402, -0.04130569472908974, 0.06714513152837753, 0.025745391845703125, 0.03299083560705185, -0.03294723853468895, -0.07609188556671143, 0.012387648224830627, 0.03167601674795151, -0.07573238760232925, -0.04057928919792175, 0.07033943384885788, -0.061289604753255844, -0.05309818685054779, -0.06295722723007202, -0.025231506675481796, -0.07925412058830261, 0.08203773945569992, 0.015578359365463257, -0.07244304567575455, -0.01184554398059845, 0.0721486434340477, 0.004394441843032837, 0.02164730429649353, 0.05270299315452576, -0.023244798183441162, -0.032189592719078064, 0.06980535387992859, 0.02937016822397709, 0.06336922943592072, -0.034702032804489136, 0.011151004582643509, -0.22421716153621674, 0.017319567501544952, 0.021563731133937836, -0.03578456863760948, 0.05841553583741188, -0.07887007296085358, -0.05697149038314819, -0.0022458622697740793, 0.012118188664317131, -0.04260798916220665, 0.02884279191493988, -0.1109941378235817, 0.16407926380634308, 0.0760064497590065, -0.08662479370832443, -0.017212845385074615, -0.025605451315641403, -0.06152961403131485, 0.0005744621157646179, -0.07970923185348511, 0.02754814177751541, 0.06497722119092941, -0.0850207582116127, 0.001683662412688136, 0.019828828051686287, -0.03915109857916832, 0.01124224066734314, 0.06242459639906883, -0.09573673456907272, 0.016632718965411186, 0.035816557705402374, 0.01788436807692051, -0.149588942527771, -0.06188446283340454, -0.07328061759471893, 0.007022097706794739, 0.06299851834774017, 0.08106905966997147, -0.05363711714744568, -0.09234132617712021, -0.027938522398471832, -0.034621383994817734, -0.06082485616207123, 0.04754979535937309, 0.1515602171421051, 0.06409268826246262, -0.01518506184220314, 0.018155643716454506, 0.07390881329774857, -0.06074649468064308, 0.04808767884969711, -0.023101888597011566, 0.023182131350040436, -0.06363720446825027, 0.07734755426645279, -0.08962947130203247, 0.03769350424408913, -0.02603643387556076, -0.02175132744014263, 0.054665736854076385, -0.10478740185499191, 0.03520563989877701, 0.022427240386605263, 0.04935811087489128, -0.1290740817785263, -0.0025527700781822205, -0.06326977908611298, 0.060993216931819916, 0.06207720562815666, 0.08503224700689316, 0.0037360787391662598, -0.07264932990074158, 0.0543336383998394, -0.03606165573000908, -0.04349580407142639, 0.047225821763277054, 0.04402340203523636, -0.05073675885796547, 0.007047376595437527, 0.0790761411190033, -0.01489713042974472, 0.0698607787489891, -0.050959110260009766, -0.05876074731349945, 0.02094586007297039, 0.03479436784982681, -0.07208921760320663, -0.05718178302049637, 0.004094145260751247, 0.06953904032707214, 0.06273921579122543, 0.0803355872631073, 0.027978457510471344, -0.0021125762723386288, -0.02235492318868637, -0.03930254280567169, -0.07249759137630463, -0.027104150503873825, -0.00875778403133154, 0.08227678388357162, 0.07407954335212708, -0.08227929472923279, -0.07500098645687103, -0.056953251361846924, -0.009392404928803444, 0.016946805641055107, 0.02459358423948288, -0.05863508582115173, 6.39991242223914e-07, -0.01977727562189102, -0.056336935609579086, -0.004185153171420097, -0.006730809807777405, 0.062417007982730865, 0.08115767687559128, 0.06382676213979721, 0.06385073810815811, 0.005865065380930901, 0.004195258021354675, 0.0791800320148468, -0.02234639599919319, 0.07574359327554703, 0.06475263088941574, 0.008424057625234127, 0.01876881904900074, -0.06365785002708435, 0.011316105723381042, 0.005509587470442057, -0.12130439281463623, -0.02398058772087097, 0.009569823741912842, -0.03583970665931702, -0.04033660516142845, 0.050440602004528046, 0.04039614647626877, 0.029753051698207855, 0.012040016241371632, 0.03127416968345642, -0.02416650950908661, -0.10061005502939224, 0.10956814140081406, -0.026291925460100174, 0.06711268424987793, 0.08352595567703247, 0.07369368523359299, 0.0348224863409996, -0.008704064413905144, 0.001601293683052063, 0.029490791261196136, 0.05123919993638992, -0.07676002383232117, 0.05421454459428787, -0.03819005936384201, -0.06519275158643723, 0.003674531588330865, 0.170373797416687, -0.0680311843752861, -0.18631912767887115, 0.009560985490679741, 0.04079633206129074, -0.13824313879013062, 0.0344480499625206, -0.034765832126140594, -0.015277191996574402, -0.07797012478113174, 0.012067452073097229, 0.05825769156217575, -0.03995508700609207, -1.5861351130297408e-05, -0.05497807264328003, 0.07214433699846268, -0.1000245213508606, 0.07654216885566711, 0.07541201263666153, -0.051355622708797455, -0.0539574958384037, 0.012583054602146149, -0.02361179143190384, -0.06001003086566925, -0.010937027633190155, 0.06587488204240799, -0.03663928061723709, 0.07910483330488205, -0.0021367757581174374, -0.019557543098926544, 0.053758878260850906, 0.07575590908527374, 0.18548746407032013, -0.16609416902065277, -0.16443148255348206, -0.08217199146747589, -0.02688761055469513, -0.1203654557466507, -0.01849384605884552, -0.05625246837735176, -0.061387792229652405, -0.025350842624902725, 0.03987088054418564, 0.03193036466836929, -0.07421281933784485, -0.056380078196525574, 0.005612277425825596, 0.018015511333942413, -0.1407833695411682, 0.17586731910705566, -0.0035318059381097555, -0.11276937276124954, -0.0032640763092786074, 0.07318352907896042, 0.02071508765220642, 0.051139943301677704, -0.03187757357954979, -0.08058254420757294, -0.08387917280197144, 0.03482424467802048, 0.001773211406543851, -0.02815244160592556, -0.047504376620054245, 0.06893591582775116, 0.14283320307731628, 0.10438910126686096, -0.0649031400680542, -0.08944021165370941, 0.014281988143920898, -0.09075623750686646, -0.052424509078264236, 0.024593189358711243, -0.05495959520339966, -0.10602205991744995, -0.028854303061962128, -0.03426697105169296, 0.033445216715335846, -0.015026921406388283, -0.33696654438972473, 0.008447736501693726, -0.11853896826505661, 0.1149238795042038, -0.0830821692943573, -0.11891483515501022, 0.023069333285093307, -0.016977280378341675, -0.0348578505218029, -0.01821175217628479, -0.06694461405277252, -0.08265437185764313, 0.08311152458190918, 0.06556231528520584, 0.011566177010536194, 0.039395686239004135, -0.012449252419173717, 0.06321017444133759, 0.06605402380228043, -0.042287591844797134, -0.009155433624982834, -0.009015701711177826, -0.06962732970714569, 0.3211221992969513, -0.05955994874238968, -0.033423300832509995, 0.06234510987997055, -0.1252375692129135, -0.04076557978987694, -0.03481461852788925, 0.07102881371974945, 0.05635293945670128, -0.1175183579325676, 0.08863041549921036, 0.06292237341403961, -0.08632147312164307, 0.030170569196343422, 0.02932819165289402, -0.04722171649336815, -0.014654194004833698, 0.00722629576921463, -0.16239117085933685, -0.04033728316426277, 0.006179437506943941, -0.07798530906438828, -0.08549034595489502, -0.016524117439985275, -0.2588672339916229, -0.07409512996673584, 0.03538602218031883, -0.01892506144940853, -0.22842355072498322, 0.0020792055875062943, -0.019492506980895996, 0.05162682756781578, -0.32641685009002686, 0.04085695371031761, 0.05361102521419525, -0.06471385806798935, -0.036320339888334274, -0.0076916515827178955, 0.052167631685733795, 0.05127304047346115, 0.045274242758750916, 0.22427722811698914, 0.06612643599510193, -0.06370420008897781, 0.03601730614900589, -0.08402840793132782, -0.1493237018585205, 0.04101622849702835, 0.07903434336185455, 0.006800912320613861, -0.04129593446850777, -0.06177942082285881, -0.006466779857873917, -0.03697293996810913, -0.011378154158592224, -0.083275206387043, -0.1434112787246704, -0.0413648895919323, -0.0108493622392416, 0.028716254979372025, -0.018154742196202278, -0.11878553777933121, -0.08320387452840805, 0.002898186445236206, -0.3779008090496063, -0.02066192775964737, -0.053833916783332825, 0.06598495692014694, 0.03301354870200157, -0.06901521980762482, 0.013207249343395233, 0.08157344162464142, -0.028461692854762077, 0.15331824123859406, 0.028907427564263344, -0.23355203866958618, 0.20213373005390167, -0.044894028455019, -0.09256403148174286, 0.0074250102043151855, -0.015929657965898514, 0.004155121743679047, -0.013446154072880745, 0.015725567936897278, -0.08429525792598724, -0.0172489732503891, -0.06285112351179123, 0.057452790439128876, -0.24539323151111603, -0.01322299987077713, -0.027269873768091202, -0.05912109836935997, -0.024005183950066566, 0.017577961087226868, -0.0052187396213412285, -0.05845878645777702, -0.35088080167770386, 0.005620026960968971, 0.03439167141914368, 0.07123713940382004, -0.08303053677082062, -0.04571571946144104, 0.06810642033815384, -0.02452252060174942, 0.05805419385433197, 0.10427343845367432, 0.058896224945783615, -0.16416999697685242, 0.21138934791088104, -0.021504074335098267, -0.08788229525089264, -0.05555029958486557, -0.0024233534932136536, -0.003330916166305542, 0.0349566712975502, -0.008229861967265606, -0.0780821144580841, 0.060937173664569855, 0.04985257238149643, 0.06567304581403732, -0.061578169465065, -0.08121243119239807, 0.08385104686021805, -0.06480196118354797, 0.0017721859039738774, -0.025098595768213272, -0.046965304762125015, -0.01150503009557724, -0.14224885404109955, -0.05589168518781662, -0.10238658636808395, -0.023944396525621414, -0.08998443186283112, -0.021654993295669556, -0.007481828331947327, -0.06579149514436722, 0.01629001647233963, -0.04929636791348457, 0.054996125400066376, -0.006878495216369629, 0.2102309912443161, 0.01723983883857727, -0.008099752478301525, -0.11732206493616104, 0.04836670309305191, -0.018839947879314423, 0.08040587604045868, -0.05872321128845215, 0.08454491943120956, -0.011973485350608826, 0.06799464672803879, -0.047269150614738464, 0.038720130920410156, -0.020978674292564392, 0.0456961914896965, -0.05376911163330078, -0.07081784307956696, -0.04308178275823593, 0.059525735676288605, 0.01225455105304718, -0.29999369382858276, 0.03847318887710571, -0.040658820420503616, -0.018899090588092804, -0.020239366218447685, -0.011367522180080414, -0.011563070118427277, 0.03081545978784561, 0.07177267223596573, -0.0052569154649972916, 0.03717087209224701, -0.18297673761844635, 0.2064177542924881, -0.07364847511053085, -0.007045691832900047, -0.0696578398346901, -0.03683104366064072, 0.002028167247772217, 0.05527792125940323, -0.06250644475221634, 0.05116607993841171, -0.07773660868406296, -0.058881305158138275, -0.033712729811668396, -0.06613543629646301, 0.04256792739033699, 0.036015912890434265, 0.023961080238223076, 0.002589822979643941, 0.07837347686290741, -0.04481249302625656, 0.008849464356899261, -0.31004053354263306, -0.08280317485332489, -0.05319356173276901, -0.0761430636048317, -0.11527548730373383, 0.03672994673252106, -0.0028624385595321655, 0.02024759352207184, -0.009314797818660736, 0.017934182658791542, 0.00632176548242569, -0.2042803019285202, 0.4020315408706665, -0.04159211739897728, 0.018594130873680115, -0.002845160197466612, 0.013235639780759811, 0.004098102450370789, 0.05851585045456886, 0.01667182333767414, -0.032283660024404526, -0.06050688773393631, 0.05017290264368057, 0.0068897828459739685, -0.06588110327720642, -0.0518852137029171, -0.056974269449710846, -0.005227882880717516, -0.050749972462654114, -0.07764057070016861, 0.041992463171482086, -0.023187123239040375, -0.060922201722860336, -0.05859915912151337, 0.02408701926469803, -0.06070822477340698, -0.018479356542229652, -0.027694400399923325, -0.07502764463424683, -0.01903369277715683, -0.06963092088699341, -0.02778450772166252, 0.014758504927158356, -0.16767358779907227, 0.21806947886943817, -0.04684840887784958, 0.013317775912582874, -0.08776036649942398, -0.0053788754157722, 0.03509388118982315, -0.01538645476102829, -0.10500044375658035, 0.039439715445041656, -0.02090219408273697, -0.02623090147972107, 0.04616856202483177, 0.09078525006771088, 0.08242174237966537, -0.03546027094125748, -0.017855240032076836, -0.008537804707884789, 0.06432031840085983, 0.05631927400827408, -0.030384592711925507, -0.12925881147384644, 0.00861380249261856, 0.02683122083544731, -0.08153076469898224, -0.004104424733668566, 0.0763481929898262, -0.02539350464940071, 0.03904624283313751, -0.011486586183309555, 0.05747959762811661, -0.06239335983991623, -0.15199732780456543, 0.17627471685409546, 0.03169230744242668, 0.06310392916202545, 0.06033008545637131, -0.04018836095929146, -0.009160876274108887, -0.014482527039945126, -0.0048951879143714905, -0.03075169026851654, 0.04093357175588608, 0.08494219928979874, 0.028253834694623947, -0.07967431843280792, -0.023313388228416443, -0.006121241487562656, -0.038488954305648804, -0.08973003178834915, 0.07410642504692078, -0.07513377070426941, -0.022481024265289307, -0.14839261770248413, -0.06144973635673523, 0.073891781270504, 0.044646136462688446, -0.017927972599864006, -0.03957899659872055, 0.029333576560020447, -0.08060681074857712, -0.01969306543469429, 0.03131824731826782, -0.08204773813486099, -0.1940193921327591, 0.03690370172262192, 0.07680916041135788, 0.023137379437685013, -0.0004896399332210422, -0.02126205712556839, 0.07153601199388504, 0.07275797426700592, -0.06160601228475571, 0.07829905301332474, -0.04832419753074646, 0.03529775142669678, 0.026624761521816254, 0.058599911630153656, -0.036568522453308105, -0.07252645492553711, 0.05178896337747574, 0.0423102006316185, 0.049471430480480194, 0.03626745939254761, -0.022391721606254578, -0.011720143258571625, -0.07006730139255524, 0.004044562578201294, 0.025423943996429443, 0.014725297689437866, -0.013496048748493195, -0.030237436294555664, 0.012068472802639008, -0.0047330185770988464, -0.07222698628902435, 0.0004611387848854065, 0.006672792136669159, -0.0330173596739769, -0.07828675955533981, 0.04746054857969284, 0.07186862081289291, 0.0009652972221374512, -0.05051001161336899, -0.06293271481990814, 0.02730279415845871, -0.08098742365837097, 0.08558367937803268, 0.08247265964746475, -0.04545294865965843, 0.043083541095256805, 0.0062117502093315125, 0.0028773173689842224, -0.036403682082891464, 0.0568554624915123, -0.04133304953575134, 0.08481018990278244, 0.06630130857229233, -0.053314242511987686, -0.030575666576623917, -0.05766070634126663, 0.03990264981985092, -0.07204332202672958, 0.0562286451458931, -0.08465104550123215, 0.005584791302680969, -0.045636169612407684, 0.05102849751710892, -0.013791203498840332, -0.023471258580684662, -0.05953012406826019, -0.062185052782297134, -0.04596875607967377, 0.061051346361637115, 0.06493345648050308, -0.05745581537485123, -0.04686550050973892, -0.007809139788150787, 0.06959586590528488, -0.010895602405071259, 0.05238240212202072, -0.0540354959666729, 0.08563322573900223, -0.018258675932884216, 0.022717557847499847, -0.06669153273105621, 0.06236841529607773, 0.0008074641227722168, -0.01976950466632843, -0.08419770002365112, 0.08086065202951431, 0.030866794288158417, -5.0067901611328125e-06, -0.07921683043241501, -0.03333277255296707, 0.02178145945072174, -0.027212712913751602, 0.07819715887308121, -0.004310339689254761, -0.05992533266544342, 0.058620013296604156, -0.07452381402254105, -0.0032426193356513977, 0.024655751883983612, 0.08040300756692886, -0.08482089638710022, -0.016788676381111145, -0.009870573878288269, -0.009182848036289215, -0.047909464687108994, -0.0738929882645607, 0.01570189744234085, -0.016170933842658997, -0.042317744344472885, -0.0018396303057670593, -0.03279496729373932, -0.07872195541858673, 0.012357406318187714, -0.07020875811576843, 0.07750038057565689, 0.022394701838493347, 0.041487909853458405, -0.08489915728569031, -0.019210003316402435, -0.07892077416181564, 0.05973520129919052, -0.02444133535027504, -0.040762145072221756, -0.015059664845466614, 0.012144438922405243, 0.07705184072256088, -0.049811165779829025, 0.07928048819303513, -0.0037252232432365417, 0.07757755368947983, 0.017067350447177887, -0.0670788511633873, 0.026529021561145782, 0.04154064506292343, 0.08408529311418533, 0.02751639485359192, 0.03420570492744446, 0.05689474195241928, -0.030262622982263565, -0.008901253342628479, 0.08252345770597458, 0.030473709106445312, -0.0771770253777504, -0.035803213715553284, -0.0853695422410965, 0.08307359367609024, -0.038268011063337326, -0.010156363248825073, 0.05372225493192673, -0.04518846049904823, 0.07429205626249313, -0.001378864049911499, -0.012434236705303192, -0.0011036843061447144, 0.03813103586435318, -0.06981168687343597, -0.014006070792675018, -0.06403356045484543, -0.01668659597635269, -0.06595557928085327, -0.05772998929023743, -0.034762315452098846, -0.04255620762705803, 0.0022109374403953552, 0.05255074054002762, 0.04673036187887192, 0.031491994857788086, 0.056033603847026825, 0.06105756014585495, -0.01134595274925232, -0.0024771615862846375, -0.05560072511434555, 0.07105960696935654, 0.0252639502286911, 0.08017279952764511, 0.05950696021318436, 0.012841098010540009, -0.000473611056804657, 0.05585853010416031, 0.008377797901630402, 0.05273807793855667, -0.058137137442827225, 0.05402151495218277, 0.07033083587884903, -0.03711452707648277, 0.03979203850030899, 0.05776732414960861, -0.06993558257818222, -0.032820768654346466, -0.07535632699728012, 0.06153867393732071, 0.00735049694776535, -0.035775694996118546, 0.054431699216365814, 0.05304595082998276, -0.032402992248535156, -0.03551006317138672, 0.012300163507461548, 0.011204004287719727, -0.024552389979362488, -0.017779670655727386, 0.048524536192417145, -0.02873215079307556, -0.029355205595493317, -0.025528520345687866, -0.04988834261894226, 0.029232949018478394, 0.0031816959381103516, 0.04920005053281784, 0.07301046699285507, -0.05862998589873314, 0.032024137675762177, 0.024608753621578217, -0.03778844699263573, 0.05859426409006119, -0.05581553280353546, -0.08130168914794922, -0.03660084307193756, -0.0454128161072731, -0.022530414164066315, -0.05721690505743027, 0.081917904317379, 0.055095575749874115, 0.05409226566553116, -0.037736233323812485, 0.10982483625411987, 0.048640064895153046, 0.005343995988368988, 0.03570530563592911, -0.05180151388049126, -0.06308463960886002, 0.07614753395318985, -0.03454951196908951, -0.03692472353577614, 0.06731682270765305, 0.04461326450109482, 0.07018546015024185, -0.020822905004024506, -0.02136625163257122, -0.021728403866291046, 0.06014852970838547, 0.07971443235874176, -0.016657404601573944, 0.07673495262861252, 0.08398804813623428, -0.4170583486557007, 0.07495283335447311, 0.004993952810764313, 0.06665731221437454, -0.055631332099437714, -0.0724005401134491, -0.07275856286287308, -0.041393645107746124, -0.05777083709836006, 0.02715539187192917, -0.03315826132893562, 0.0382116474211216, 0.07103695720434189, -0.02463527023792267, -0.006896950304508209, -0.08926890045404434, 0.0487520769238472, 0.038826607167720795, -0.058603592216968536, -0.043923791497945786, -0.027102090418338776, 0.011141672730445862, -0.07027575373649597, 0.06042483448982239, 0.0677231028676033, 0.015548991039395332, -0.005958959460258484, 0.10914843529462814, 0.021418750286102295, -0.08035074919462204, -0.05311370640993118, -0.012769095599651337, -0.4012422561645508, -0.06123179942369461, -0.050012893974781036, 0.03745725005865097, 0.06144066900014877, 0.07505189627408981, -0.08336363732814789, -0.03828538581728935, 0.0073692407459020615, -0.03240464627742767, -0.0019905492663383484, -0.05172547698020935, 0.2019982933998108, -0.0630645602941513, -0.08374688029289246, -0.0205523744225502, 0.02802436798810959, -0.08112955093383789, 0.06460864096879959, -0.002301611006259918, -0.047993388026952744, -0.0806012749671936, -0.0011776462197303772, -0.05258442461490631, -0.07807978987693787, -0.056027743965387344, 0.07602974027395248, 0.015291616320610046, 0.16019846498966217, 0.04038224369287491, -0.05614835023880005, 0.009961284697055817, -0.16164302825927734, 0.03452695906162262, 0.0628400444984436, 0.03793738782405853, 0.11464471369981766, -0.04459253326058388, 0.06118900328874588, -0.016906045377254486, -0.06917236000299454, -0.003730267519131303, -0.05265982449054718, -0.19422103464603424, 0.01675090566277504, -0.08538493514060974, -0.06700242310762405, 0.05299343913793564, -0.016409389674663544, 0.051581405103206635, -0.047865815460681915, 0.028071247041225433, 0.021620213985443115, -0.029325101524591446, -0.05363055318593979, 0.026379290968179703, -0.028000526130199432, 0.039449311792850494, 0.000641405291389674, 0.0977063998579979, -0.07332553714513779, -0.04085070639848709, -0.07722321152687073, 0.016364075243473053, -0.167185440659523, 0.016150958836078644, -0.009246131405234337, -0.05742507055401802, 0.018813982605934143, -0.01860859990119934, 0.07857239991426468, -0.06998179852962494, -0.048801496624946594, 0.00983046181499958, 0.04018044471740723, -0.028158249333500862, 0.1534852385520935, 0.00525822164490819, 0.054433271288871765, -0.06906961649656296, -0.024606410413980484, 0.06216181069612503, 0.0815364271402359, -0.026401732116937637, 0.038111403584480286, 0.05590098723769188, 0.03465894237160683, -0.02841395139694214, 0.04679155349731445, -0.07015058398246765, -0.0345868356525898, 0.14316944777965546, -0.011278247460722923, -0.052286211401224136, 0.06687886267900467, 0.06154555082321167, -0.20660404860973358, -0.0046476395800709724, 0.08270591497421265, 0.01030622236430645, 0.016666889190673828, 0.01963508129119873, -0.02536889910697937, -0.05199974402785301, -0.0318736732006073, -0.015733622014522552, -0.04260815680027008, -0.08957364410161972, 0.20882996916770935, -0.04351764917373657, 0.11266748607158661, -0.0010149538284167647, 0.048223383724689484, 0.03752516955137253, 0.09317158907651901, -0.06877949833869934, 0.012779705226421356, 0.06462189555168152, 0.07717996835708618, 0.0010392596013844013, 0.02034958451986313, -0.05720802769064903, 0.04467261582612991, 0.10455480217933655, 0.019590428099036217, 0.0022623452823609114, -0.053698837757110596, 0.048990461975336075, -0.11879739910364151, 0.03248293697834015, -0.03817003592848778, -0.0384303480386734, 0.00537699181586504, 0.08515272289514542, -0.026163725182414055, -0.010769814252853394, -0.024889236316084862, 0.08208136260509491, 0.061676472425460815, 0.015572543255984783, 0.2135562002658844, 0.04658110439777374, -0.06001579761505127, 0.0013466781238093972, -0.06556763499975204, -0.05670115351676941, -0.022668100893497467, 0.17797893285751343, 0.06623119115829468, -0.06950390338897705, -0.06605930626392365, -0.015268323011696339, -0.04412725940346718, -0.07589870691299438, 0.024229327216744423, 0.08645129203796387, 0.13412536680698395, 0.06647927314043045, -0.032732393592596054, -0.075950026512146, -0.13273772597312927, -0.007353068329393864, -0.055224817246198654, -0.05623658373951912, 0.18843545019626617, 0.02066882699728012, -0.053951140493154526, -0.06748715788125992, -0.01927161030471325, 0.21337983012199402, -0.03203808143734932, -0.06580282747745514, 0.08401843905448914, 0.03176208958029747, -0.20331065356731415, 0.07858411967754364, 0.06161954626441002, -0.007270641624927521, -0.030870281159877777, -0.2954453229904175, -0.03475140780210495, 0.005677870474755764, 0.020106637850403786, 0.036399323493242264, -0.01537704560905695, -0.01527782715857029, -0.006863961461931467, 0.2738308310508728, 0.04393986612558365, 0.10468936711549759, -0.04217496141791344, -0.0393819622695446, -0.27131471037864685, 0.05238741636276245, -0.03753198683261871, 0.07134368270635605, 0.1659948229789734, -0.027195807546377182, 0.05359455570578575, -0.020215779542922974, 0.05618888884782791, 0.2027275115251541, 0.03300215303897858, -0.05234963819384575, 0.061755094677209854, -0.07701005786657333, -0.25361764430999756, 0.07418094575405121, 0.00131616264116019, -0.02230096608400345, 0.03600167855620384, 0.03300836682319641, -0.0748429074883461, -0.05607881397008896, 0.005047983955591917, 0.045402102172374725, 0.06954098492860794, 0.01739121787250042, 0.02969605289399624, 0.2765772044658661, -0.02564264088869095, 0.037299804389476776, -0.019241614267230034, 0.047220926731824875, -0.2661019265651703, -0.08569766581058502, -0.12687712907791138, 0.03178785741329193, 0.11152631789445877, -0.05330735445022583, 0.057062942534685135, -0.04672194644808769, 0.04330117627978325, 0.19977077841758728, 0.007078555412590504, -0.13082259893417358, 0.242020383477211, -0.038504909723997116, -0.2584206461906433, -0.05346817523241043, 0.044709011912345886, 0.04634656757116318, 0.022384200245141983, 0.07789960503578186, -0.06734419614076614, -0.036490391939878464, -0.0012351226760074496, -0.06870632618665695, 0.12100668996572495, -0.14463092386722565, 0.08481115847826004, 0.2758769690990448, 0.00839257799088955, 0.11367213726043701, -0.04423229396343231, -0.05101236328482628, -0.3244383633136749, -0.07077118009328842, -0.03193836286664009, -0.08183430880308151, -0.04373399168252945, -0.018145494163036346, 0.0304100438952446, -0.0011539802653715014, 0.0859505757689476, 0.1153927594423294, 0.04852600023150444, 0.0007270202040672302, -0.027832526713609695, -0.048001471906900406, -0.23840612173080444, -0.02641729824244976, -0.08085609972476959, 0.018932662904262543, -0.062269844114780426, -0.05852149799466133, -0.02729087695479393, -0.06297261267900467, -0.06725376099348068, -0.08352602273225784, 0.09989183396100998, -0.07623345404863358, 0.04119323566555977, 0.24566099047660828, -0.10417696088552475, 0.10391052812337875, -0.08472222089767456, 0.027773121371865273, -0.181132972240448, 0.029129469767212868, -0.2632140517234802, -0.012987415306270123, -0.006599797867238522, 0.04741140455007553, 0.04262052848935127, -0.11680442839860916, 0.019027110189199448, 0.16623221337795258, -0.020407864823937416, -0.048873160034418106, -0.07867325842380524, -0.06588035076856613, -0.10150822252035141, 0.007170386612415314, -0.08572728931903839, 0.05638609081506729, 0.08754126727581024, -0.10114583373069763, 0.03846840187907219, -0.004875367507338524, 0.0191099401563406, -0.01882593147456646, 0.0885801836848259, -0.1521998792886734, -0.06463658809661865, 0.25375011563301086, 0.04762614145874977, -0.1980869323015213, -0.07909131795167923, -0.08373246341943741, -0.06735445559024811, -0.07563777267932892, -0.2447250485420227, 0.055227722972631454, 0.08471906930208206, 0.045647166669368744, 0.05848916247487068, -0.09385420382022858, -0.05084287375211716, 0.05410494655370712, 0.03049769438803196, -0.10336554795503616, 0.18043343722820282, -0.08030752837657928, -0.11816567927598953, -0.02313951589167118, -0.016351165249943733, 0.011391684412956238, -0.022361397743225098, -0.00528515363112092, -0.008100459352135658, 0.002707195235416293, -0.036925312131643295, -0.01639348454773426, 0.00288667855784297, -0.11739131808280945, 0.005401283968240023, -0.046214114874601364, 0.04215274006128311, -0.28984910249710083, -0.006504853256046772, 0.07903894037008286, -0.19686251878738403, -0.10276272892951965, -0.17463411390781403, -0.04135102406144142, 5.23606468050275e-05, -0.058327287435531616, 0.028469331562519073, -0.06868977844715118, -0.04489296302199364, 0.18719543516635895, 0.0672387108206749, -0.048694778233766556, 0.07491910457611084, -0.08781570196151733, -0.18195688724517822, -0.005466336850076914, -0.08003859221935272, 0.017116926610469818, 0.16688309609889984, 0.1998513638973236, 0.035007309168577194, -0.06845688074827194, 0.0545811802148819, 0.05507528781890869, -0.13667847216129303, -0.11141994595527649, 0.009387762285768986, -0.010232090018689632, -0.13674841821193695, -0.3157532513141632, -0.06369192898273468, 0.048736389726400375, -0.07896295189857483, -0.10296209901571274, 0.04098837822675705, 0.026855939999222755, 0.10780449211597443, 0.038531593978405, 0.018481234088540077, -0.012968302704393864, -0.1068805605173111, 0.28093400597572327, 0.07669814676046371, 0.09122443199157715, 0.07383514195680618, 0.05424536019563675, -0.24375490844249725, -0.017874175682663918, -0.02298128791153431, 0.06487873941659927, 0.21003493666648865, 0.044516537338495255, 0.002257930813357234, -0.0018709879368543625, -0.0409151166677475, 0.02579006552696228, -0.0022997623309493065, -0.06843698769807816, -0.004446171689778566, 0.09075038135051727, -0.03181258216500282, -0.16041499376296997, 0.07187860459089279, -0.0193912535905838, 0.0681692585349083, 0.03685593232512474, -0.03469178080558777, -0.06531647592782974, -0.00344308209605515, 0.005942724645137787, 0.0831810012459755, 0.012730863876640797, -0.12844474613666534, -0.04064929857850075, 0.050206270068883896, 0.04272745922207832, 0.16661225259304047, -0.008655337616801262, -0.34827014803886414, -0.03020636923611164, 0.021230660378932953, -0.07679027318954468, -0.04208582267165184, -0.08956119418144226, 0.06588365882635117, 0.0019819012377411127, 0.002854076912626624, -0.05869019776582718, -0.010824290104210377, -0.14679618179798126, 0.013436046428978443, -0.031181953847408295, -0.09046316146850586, -0.28875234723091125, -0.008431480266153812, 0.020747706294059753, -0.03859803453087807, -0.0250534750521183, -0.08202063292264938, -0.04622262716293335, 0.050238970667123795, -0.08399922400712967, -0.011259790509939194, -0.07675440609455109, -0.20501036942005157, -0.07820472121238708, 0.04443187266588211, -0.17639294266700745, 0.1193281039595604, -0.03881902992725372, -0.44121769070625305, 0.09903368353843689, 0.05121944472193718, 0.07766007632017136, -0.08414501696825027, 0.11665751039981842, 0.07570121437311172, -0.006926905829459429, -0.05525199696421623, -0.0885695293545723, -0.0639231726527214, -0.12879666686058044, 0.06937646120786667, 0.053915154188871384, -0.15743346512317657, -0.2468474954366684, -0.06611061841249466, -0.06776411086320877, -0.4197227954864502, 0.07354997843503952, -0.22155916690826416, -0.00040255379281006753, -0.046989064663648605, -0.051302798092365265, 0.08664142340421677, -0.0717797726392746, -0.03248344361782074, -0.10430187731981277, -0.05122821778059006, -0.26964473724365234, 0.024107839912176132, -0.06375987082719803, -0.1007944718003273, 0.05908124893903732, 0.008899313397705555, -0.0536285825073719, 0.044409286230802536, 0.09132100641727448, 0.04741042107343674, 0.03759751841425896, -0.047828689217567444, -0.027470264583826065, -0.02841125801205635, -0.005989189259707928, -0.03789873421192169, 0.02652544155716896, 0.034248385578393936, -0.2585989534854889, -0.09184633195400238, 0.001432474935427308, -0.3312442898750305, 0.05427246540784836, -0.12805604934692383, 0.011992246843874454, 0.092374287545681, 0.0348530039191246, 0.03514261543750763, 0.007247172296047211, -0.09892008453607559, -0.19772182404994965, -0.046344585716724396, -0.04591181129217148, -0.02340690791606903, 0.0496671088039875, -0.08542990684509277, 0.15355391800403595, 0.016724377870559692, -0.06660299003124237, 0.038691889494657516, 0.16941405832767487, -0.07310418784618378, 0.010313521139323711, -0.07331418991088867, 0.026105934754014015, -0.042007412761449814, -0.010500269941985607, -0.035767167806625366, -0.0502476766705513, 0.03396695479750633, -0.05889591947197914, 0.0766693726181984, 0.05321135371923447, -0.18333952128887177, -0.04019240289926529, -0.15695331990718842, -0.08202517777681351, 0.10216288268566132, -0.03989261016249657, 0.08234535902738571, -0.057358887046575546, 0.02367069572210312, -0.09643121063709259, -0.07100196927785873, -0.3319510817527771, 0.2452467679977417, -0.011911476962268353, -0.13082686066627502, 0.1675756573677063, 0.02477339282631874, -0.05113580822944641, -0.08123872429132462, 0.07048490643501282, -0.08143813908100128, -0.022070692852139473, 0.005032919347286224, -0.06217316538095474, -0.0028885456267744303, -0.09375972300767899, 0.028155408799648285, -0.024417603388428688, -0.19140689074993134, -0.16967636346817017, -0.04724758118391037, -0.004037879407405853, -0.23697571456432343, -0.07928761094808578, -0.17378704249858856, -0.015141504816710949, 0.011493843048810959, 0.07733283191919327, 0.01920448988676071, 0.05471087247133255, 0.006290747784078121, -0.05507783964276314, -0.03519653156399727, -0.17101667821407318, 0.15759658813476562, 0.07595671713352203, -0.016297224909067154, 0.04378020018339157, 0.013852096162736416, -0.0808587446808815, -0.002314253943040967, 0.18162775039672852, -0.07084254920482635, -0.057067740708589554, -0.06436657905578613, 0.029100902378559113, -0.018032439053058624, -0.04702778533101082, -0.06142187863588333, -0.0741468220949173, 0.07645650953054428, 0.014253380708396435, 0.08011845499277115, 0.019313208758831024, -0.25672444701194763, -0.07725504040718079, -0.11953277885913849, -0.006919637322425842, -0.10865090042352676, 0.01899145543575287, -0.050069764256477356, -0.0604652464389801, -0.02789466083049774, -0.018364304676651955, -0.05184262618422508, -0.1242372915148735, 0.1418771743774414, -0.052294813096523285, -0.11239416897296906, 0.07613789290189743, -0.0046596950851380825, 0.024945244193077087, 0.07262630760669708, 0.2766244411468506, -0.023848596960306168, -0.04970027506351471, -0.024392597377300262, -0.010456159710884094, -0.060986485332250595, -0.0037633106112480164, 0.014480136334896088, 0.03995036333799362, 0.22973835468292236, 0.07425891607999802, -0.07377040386199951, -0.017803937196731567, -0.16350308060646057, -0.0003524795174598694, -0.23519833385944366, -0.08266250044107437, 0.12494608759880066, 0.043363042175769806, -0.0802435353398323, 0.08410120755434036, -0.02862236276268959, -0.044801920652389526, 0.07366808503866196, -0.02023487538099289, -0.09468082338571548, 0.012266859412193298, 0.02914366126060486, 0.11960875988006592, 0.02773263305425644, 0.05163387209177017, -0.05951542407274246, -0.07388758659362793, -0.004331596195697784, 0.07163579016923904, 0.051123686134815216, -0.0017430782318115234, -0.07963297516107559, 0.0476224347949028, -0.011240169405937195, 0.020832523703575134, 0.13596883416175842, 0.04246024042367935, 0.06381096690893173, 0.0200970396399498, -0.012428876012563705, 0.06048396974802017, -0.017827261239290237, 0.07942599803209305, 0.10694420337677002, 0.013578623533248901, -0.08567344397306442, 0.0556068941950798, -0.048435065895318985, -0.022021353244781494, -0.052036069333553314, -0.0067908987402915955, -0.15947242081165314, 0.08429170399904251, -0.04686564579606056, -0.04197997227311134, -0.0001484900712966919, -0.054234642535448074, -0.022898659110069275, -0.07791825383901596, -0.08085402101278305, 0.052953608334064484, -0.007567226886749268, 0.06864877790212631, -0.018568485975265503, -0.03969438374042511, -0.07521340250968933, -0.04015466570854187, 0.02176898717880249, -0.017159655690193176, 0.05111309140920639, -0.013151012361049652, 0.06824932247400284, 0.06006600707769394, -0.02996133640408516, -0.048006270080804825, 0.020249366760253906, -0.05068317428231239, -0.08547832071781158, -0.011085577309131622, -0.0799432322382927, -0.0654887780547142, -0.05639130249619484, -0.06967027485370636, -0.07626628130674362, 0.038515426218509674, 0.008197113871574402, -0.06540738791227341, -0.06119001284241676, 0.05225684493780136, -0.023189492523670197, -0.07681271433830261, -0.039657194167375565, -0.054563507437705994, -0.028000492602586746, -0.0480804406106472, 0.004701398313045502, -0.07779563218355179, 0.07616712898015976, 0.08459020406007767, 0.07418081909418106, -0.07522796094417572, 0.012062236666679382, 0.0227312371134758, -0.014861643314361572, 0.014532916247844696, -0.04390609636902809, 0.03127845376729965, -0.047213196754455566, 0.04375766962766647, 0.03076859563589096, -0.04136093333363533, -0.033609528094530106, -0.036683399230241776, 0.03759582340717316, -0.07360339909791946, -0.011888071894645691, 0.0669509693980217, 0.018956191837787628, 0.07114183157682419, -0.05379676818847656, -0.07773145288228989, 0.030146829783916473, 0.01347188651561737, -0.07081437855958939, 0.01237548142671585, 0.02451697736978531, 0.05411892384290695, -0.0630657896399498, -0.016078032553195953, 0.014638490974903107, -0.058211371302604675, -0.052667878568172455, -0.03235848248004913, -0.054067306220531464, 0.02577928453683853, 0.07736576348543167, 0.00742967426776886, 0.08308190852403641, -0.046515434980392456, -0.0396852046251297, -0.08090490847826004, -0.022885262966156006, -0.07911475002765656, -0.04488852247595787, 0.018662817776203156, -0.03154120594263077, 0.007814578711986542, 0.07900788635015488, 0.021001063287258148, 0.0759718045592308, 0.05335891991853714, -0.036425720900297165, -0.031322453171014786, 0.05404838174581528, 0.02387901395559311, 0.053486116230487823, -0.041078824549913406, -0.05153295770287514, -0.026468750089406967, -0.038852203637361526, -0.020730480551719666, 0.046139977872371674, -0.04609833285212517, 0.050543464720249176, -0.0017353668808937073, 0.04681246727705002, 0.005216367542743683, -0.008161254227161407, 0.031824007630348206, 0.011372998356819153, 0.07872869819402695, -0.0038859769701957703, 0.0005457550287246704, 0.0726347491145134, -0.03825797140598297, -0.007268577814102173, -0.033644650131464005, 0.051537685096263885, 0.07591525465250015, -0.029175665229558945, -0.022969558835029602, -0.05364764854311943, 0.06670557707548141, -0.03762777894735336, -0.053508833050727844, 0.03002428263425827, 0.009478412568569183, 0.007244877517223358, 0.04393824189901352, -0.05341378599405289, 0.06434767693281174, -0.01083993911743164, -0.04750305414199829, -0.05200078338384628, -0.04006011039018631, -0.015995420515537262, -0.093190498650074, -0.033925145864486694, -0.0060358718037605286, -0.056351304054260254, -0.07724472135305405, 0.0396723747253418, 0.0038799643516540527, -0.04105222970247269, -0.006617158651351929, -0.008962437510490417, -0.002780027687549591, -0.04968813434243202, 0.2096392959356308, -0.08268044888973236, -0.04035630449652672, -0.18264475464820862, 0.03387049585580826, 0.04639103263616562, 0.020980536937713623, -0.028787020593881607, -0.033144257962703705, 0.07347331196069717, 0.03695201873779297, 0.05149906128644943, -0.07341983169317245, -0.06695162504911423, -0.031061390414834023, 0.07759096473455429, 0.049033865332603455, -0.031211398541927338, -0.07546083629131317, -0.08736637234687805, -0.03601627051830292, -0.01664583384990692, 0.04182199388742447, -0.49141889810562134, 0.07026279717683792, -0.032269421964883804, 0.01994691789150238, -0.08507261425256729, 0.07320993393659592, -0.018368110060691833, -0.022024646401405334, -0.009517230093479156, 0.26832520961761475, -0.0663030743598938, 0.047788288444280624, 0.0473606251180172, 0.07240604609251022, -0.005008218344300985, -0.09591983258724213, -0.014016620814800262, -0.05458630248904228, -0.05727962404489517, -0.03414783999323845, -0.021367140114307404, -0.07820700854063034, 0.03089386224746704, -0.006711918395012617, 0.04115145280957222, 0.030648624524474144, -0.007180258631706238, 0.27838918566703796, 0.06302343308925629, 0.11410441994667053, -0.021518955007195473, -0.1134398952126503, -0.21041040122509003, 0.08254215866327286, -0.005147562827914953, 0.07170459628105164, -0.035402700304985046, -0.009549863636493683, -0.012547925114631653, 0.05477232486009598, 0.02013896405696869, 0.052643802016973495, 0.02287442982196808, -0.11979181319475174, 0.20950067043304443, -0.03520797938108444, 0.09158946573734283, -0.04429919645190239, 0.06779377907514572, -0.06804663687944412, -0.024324089288711548, -0.04498806968331337, -0.08191219717264175, 0.019967712461948395, -0.045191690325737, 0.05954980105161667, 0.013205079361796379, 0.022352930158376694, -0.06310363113880157, 0.196372389793396, -0.01576399616897106, 0.10772977769374847, 0.04482589662075043, -0.10968979448080063, -0.08289285749197006, -0.07457020878791809, 0.05519019439816475, -0.03937750682234764, -0.008429662324488163, -0.004768572747707367, -0.05979029834270477, 0.07846464961767197, 0.0019094247836619616, -0.1259598433971405, -0.04424998536705971, -0.038599900901317596, -0.09243898838758469, -0.07719127833843231, 0.06289984285831451, -0.007315268274396658, 0.06675533950328827, -0.008670446462929249, -0.02711794152855873, 0.197101429104805, -0.02420169673860073, -0.07421001046895981, 0.023804541677236557, 0.07070355117321014, 0.034472499042749405, -0.011297233402729034, -0.06411276757717133, 0.09597312659025192, 0.21782810986042023, 0.13392795622348785, 0.04201993718743324, -0.010600297711789608, -0.26904746890068054, -0.02273605391383171, -0.12748655676841736, 0.00261761830188334, -0.03918750584125519, -0.0738457664847374, -0.05950732156634331, 0.03579743579030037, 0.06426234543323517, -0.020051628351211548, -0.009835035540163517, -0.038161665201187134, -0.004444879014045, -0.016862407326698303, -0.020385874435305595, 0.05430702492594719, -0.05246908962726593, -0.04878402128815651, -0.046160127967596054, -0.02057902328670025, 0.06326586753129959, -0.07091565430164337, 0.03114997409284115, -0.06224964186549187, 0.012371228076517582, -0.059509143233299255, 0.053967710584402084, 0.16441546380519867, -0.03373083099722862, 0.1277877241373062, -0.046313777565956116, -0.06392445415258408, -0.23731482028961182, 0.050710279494524, -0.0007127755088731647, 0.0695447027683258, 0.06363354623317719, -0.08380629122257233, -0.005534924101084471, -0.051845792680978775, -0.029190734028816223, 0.05237870663404465, -0.0030841240659356117, -0.0157470740377903, 0.011605036444962025, 0.017312513664364815, -0.2558746039867401, -0.09738229960203171, -0.018012525513768196, -0.005173697602003813, -0.030645502731204033, -0.0639224573969841, 0.05599284544587135, 0.04562721401453018, -0.05024047568440437, 0.01377042941749096, -0.11272695660591125, -0.06573059409856796, -0.03201217204332352, 0.21119609475135803, -0.0656241923570633, 0.13597725331783295, -0.1253402829170227, 0.044464871287345886, -0.19227105379104614, 0.0542934387922287, -0.01660635508596897, 0.0413772314786911, 0.1329265683889389, -0.044509079307317734, -0.05677298828959465, 0.03537365794181824, -0.0293864905834198, -0.24575142562389374, 0.07103036344051361, -0.10802117735147476, -0.04039011150598526, 0.004751343745738268, -0.16629067063331604, 0.006267867516726255, 0.07303759455680847, 0.05921139568090439, -0.048866257071495056, -0.06526478379964828, 0.053984709084033966, 0.015077467076480389, -0.056686557829380035, 0.0381951704621315, -0.15423275530338287, -0.11008848994970322, 0.034108180552721024, 0.20558297634124756, 0.0955975130200386, -0.053134843707084656, -0.017277834936976433, -0.08206848800182343, -0.2209029346704483, 0.004882870241999626, -0.06636695563793182, -0.032397445291280746, 0.07693802565336227, 0.08022429794073105, -0.033283136785030365, 0.06848976016044617, -0.04168526083230972, -0.01600339636206627, 0.021788759157061577, -0.0020201350562274456, 0.08512412756681442, 0.05713603273034096, -0.17063437402248383, -0.0014311086852103472, -0.06056441366672516, 0.07100880891084671, -0.10955582559108734, -0.15568982064723969, -0.008663494139909744, -0.031614288687705994, -0.06122281774878502, 0.013551291078329086, 0.04380616918206215, -0.0714169442653656, -0.019615413621068, 0.03118252381682396, 0.05061517655849457, 0.195588618516922, -0.11497417092323303, -0.009861517697572708, -0.11440441757440567, -0.006179364398121834, -0.13476094603538513, -0.012312828563153744, 0.07863806933164597, 0.0233645960688591, 0.06567659974098206, -0.04303568974137306, 0.08380802720785141, -0.02697679214179516, 0.012734596617519855, -0.09187354892492294, -0.008309435099363327, 0.07305660843849182, -0.06010392680764198, 0.001078121131286025, -0.05911090970039368, 0.05474258214235306, 0.10726035386323929, -0.04904288053512573, 0.008218295872211456, 0.07458602637052536, 0.04114682227373123, -0.06473547965288162, -0.044075679033994675, 0.08392219245433807, -0.0659438893198967, 0.13287389278411865, 0.022522084414958954, 0.042294275015592575, -0.09837675839662552, -0.02485509216785431, 0.03764494135975838, -0.05604624003171921, -0.2865515351295471, -0.007323542144149542, 0.2734405994415283, -0.07740350812673569, 0.04679064452648163, -0.021635429933667183, 0.034740135073661804, -0.1313547044992447, -0.02352299354970455, -0.14261727035045624, -0.02118358388543129, 0.056005388498306274, -0.16245393455028534, 0.03576110303401947, -0.08810807764530182, 0.027668476104736328, 0.07253335416316986, -0.16547566652297974, -0.08116275072097778, 0.09708409011363983, -0.04070111736655235, -0.034583523869514465, -0.15178945660591125, 0.10833203792572021, 0.06668614596128464, 0.13311399519443512, 0.028906622901558876, 0.012243441306054592, -0.09091416746377945, 0.023409489542245865, -0.31828466057777405, 0.011759745888411999, -0.24078412353992462, 0.005932439584285021, 0.14537502825260162, -0.06255169957876205, -0.09052766114473343, -0.10452450066804886, -0.02240515872836113, -0.0581030510365963, -0.08544562011957169, -0.1303083747625351, -0.07514213025569916, -0.05072993040084839, -0.07772307097911835, 0.00043915206333622336, 0.0055687446147203445, 0.0295882411301136, -0.13292503356933594, 0.1098242998123169, -0.0013035755837336183, 0.017575742676854134, -0.002517828717827797, 0.034047938883304596, -0.14427071809768677, -0.2280406504869461, -0.02991572394967079, 0.14144952595233917, -0.02682427689433098, 0.04878884553909302, -0.2094288021326065, -0.042363304644823074, -0.5599057078361511, -0.050616972148418427, -0.004551262594759464, 0.012903212569653988, 0.03336957097053528, -0.045410770922899246, -0.028018377721309662, -0.06972659379243851, -0.04354022070765495, 0.07144810259342194, -0.008250607177615166, -0.13124364614486694, 0.01706354320049286, -0.023797085508704185, 0.06053262948989868, -0.11054876446723938, 0.04308958724141121, -0.02628168649971485, -0.10705659538507462, -0.10892781615257263, 0.053344208747148514, -0.0996188148856163, -0.044464536011219025, 0.03855874016880989, -0.0956035703420639, -0.05273847654461861, 0.0993892252445221, -0.03262916952371597, -0.030065225437283516, 0.10038457065820694, -0.15197061002254486, 0.011533543467521667, -0.17187495529651642, 0.03318115323781967, -0.10305990278720856, -0.07789424061775208, 0.013774460181593895, -0.05981217324733734, -0.02130335010588169, -0.09421490877866745, -0.09933336824178696, -0.011940302327275276, -0.00748347258195281, -0.2022240310907364, 0.02950582653284073, -0.011201604269444942, -0.0030531524680554867, -0.01780160702764988, -0.02605021744966507, -0.055683478713035583, -0.08636374026536942, 0.06670926511287689, 0.051332321017980576, -0.02415953017771244, 0.05916474387049675, 0.017253326252102852, -0.3145012855529785, -0.047572921961545944, 0.07276133447885513, -0.11148557811975479, -0.025241848081350327, 0.1083490177989006, -0.042900580912828445, 0.007788816001266241, -0.2363758236169815, 0.07364228367805481, -0.1027567982673645, -0.08300594240427017, 0.06049635261297226, -0.07093583792448044, -0.059372127056121826, 0.015977052971720695, -0.15745210647583008, -0.03546809032559395, -0.03996039554476738, -0.2242916077375412, 0.0474044531583786, -0.054828040301799774, 0.01911545917391777, -0.06994415819644928, -0.05076286569237709, -0.03731672465801239, -0.01824299246072769, 0.09001480042934418, 0.04551589488983154, -0.0946374163031578, -0.05147663503885269, 0.006845095660537481, -0.21467812359333038, -0.12360656261444092, 0.04746420308947563, -0.14899082481861115, 0.0676821619272232, -0.09999335557222366, 0.043443962931632996, 0.049926504492759705, -0.019777316600084305, -0.06718501448631287, -0.03520355746150017, -0.01983475685119629, 0.0459899865090847, -0.0348174124956131, -0.07836846262216568, -0.04123830795288086, -0.1980382651090622, -0.008152800612151623, 0.02960973046720028, -0.031177666038274765, -0.0547366663813591, 0.044936105608940125, -0.13943339884281158, 0.006230531260371208, -0.09876754879951477, 0.02484106831252575, 0.047969672828912735, 0.07037737220525742, 0.068891242146492, -0.07388164848089218, 0.014598933979868889, -0.06427191197872162, 0.06461306661367416, -0.05983572080731392, -0.037884652614593506, -0.10427062958478928, 0.0009595266892574728, 0.06687476485967636, 0.0031300492119044065, 0.06617163866758347, -0.09902317821979523, -0.12053939700126648, -0.07614067941904068, -0.03330092877149582, 0.1026812270283699, 0.011511102318763733, 0.02486691065132618, 0.08656562119722366, -0.24740755558013916, -0.03529338538646698, 0.032855283468961716, -0.09473337233066559, 0.007744444068521261, -0.028133327141404152, -0.14907437562942505, -0.019873693585395813, -0.035925641655921936, -0.044062718749046326, -0.046705782413482666, 0.10761702805757523, -0.06790469586849213, -0.12855204939842224, -0.057146403938531876, -0.10378121584653854, -0.04468251019716263, -0.03587215021252632, 0.009095852263271809, -0.14726845920085907, -0.02225600928068161, 0.07296787202358246, 0.032689858227968216, 0.022426793351769447, -0.10476456582546234, -0.07071875780820847, 0.12598368525505066, 0.03878162428736687, -0.08401879668235779, -0.0590047687292099, -0.006079636048525572, -0.029854126274585724, 0.010351810604333878, -0.3050477206707001, -0.02818240039050579, 0.2549310326576233, 0.08778177946805954, 0.009407371282577515, -0.004487111698836088, 0.06090422347187996, -0.061415646225214005, -0.0415952131152153, -0.15660999715328217, 0.03640405833721161, -0.08513505011796951, -0.030847562476992607, 0.08129415661096573, -0.0793490931391716, -0.10998068749904633, -0.056838665157556534, 0.005633060354739428, -0.02032853104174137, 0.017214981839060783, -0.06473899632692337, 0.029725564643740654, 0.05240213871002197, 0.007663600612431765, -0.04798344150185585, -0.13098491728305817, -0.0494234524667263, -0.03321216627955437, 0.03158223628997803, 0.020973918959498405, -0.0056456103920936584, 0.014210173860192299, -0.020487770438194275, -0.017443256452679634, 0.01583961956202984, 0.04232339933514595, 0.05724385753273964, 0.02702690102159977, 0.10451265424489975, 0.020755475386977196, 0.009423935785889626, -0.04229435697197914, 0.10121486335992813, -0.07389246672391891, -0.059808291494846344, 0.033091116696596146, -0.0881316140294075, -0.19395875930786133, -0.045621443539857864, 0.06732470542192459, -0.1021786779165268, -0.18610066175460815, 0.19561299681663513, -0.17319589853286743, -0.07116149365901947, -0.10767195373773575, -0.0480203852057457, 0.10600335150957108, -0.067782923579216, 0.06541645526885986, 0.047111548483371735, -0.028123905882239342, 0.008091151714324951, -0.07236725836992264, 0.13666673004627228, -0.08435891568660736, 0.06466679275035858, -0.11597305536270142, -0.043030060827732086, -0.09025056660175323, 0.11998161673545837, 0.06449830532073975, 0.021169442683458328, 0.11051905900239944, 0.10025980323553085, -0.06637164205312729, 0.0002402498503215611, 0.07408839464187622, -0.038776274770498276, 0.024215636774897575, -0.031882256269454956, -0.061492592096328735, -0.06275058537721634, -0.11826813966035843, -0.1464845836162567, -0.04325741529464722, 0.02648591250181198, 0.02016281522810459, -0.023691536858677864, 0.09065241366624832, -0.06891155242919922, 0.07251833379268646, 0.06439774483442307, 0.01930348202586174, 0.04146837443113327, -0.2779013216495514, 0.03192107006907463, -0.02350214309990406, -0.04766445979475975, 0.14627565443515778, 0.0027500935830175877, -0.014443252235651016, 0.01701163686811924, -0.04707527533173561, -0.02873450145125389, 0.07857320457696915, -0.1675744503736496, 0.06406483799219131, -0.08945455402135849, -0.03132689371705055, -0.08834877610206604, 0.11959249526262283, -0.14031007885932922, -0.06749044358730316, -0.14392492175102234, -0.0368165597319603, -0.04689258709549904, -0.06658542901277542, -0.029229041188955307, -0.08929745852947235, -0.06275499612092972, 0.10628171265125275, -0.011800307780504227, 0.0008576196269132197, -0.0620405338704586, 0.036471154540777206, -0.0008920431137084961, -0.14112547039985657, -0.05602710694074631, 0.05812256783246994, 0.035427723079919815, 0.050204891711473465, 0.037637580186128616, -0.11651656776666641, 0.1268739551305771, 0.053835898637771606, 0.05180700868368149, 0.08516214042901993, 0.0009857291588559747, 0.07279329746961594, 0.03691470995545387, 0.06603362411260605, 0.030494241043925285, -0.06744319200515747, -0.14863255620002747, 0.051495250314474106, -0.06782769411802292, -0.2149181365966797, -0.16283252835273743, -0.07849514484405518, 0.023885386064648628, -0.37184256315231323, -0.07481580227613449, 0.153634712100029, -0.029784588143229485, -0.05052005127072334, -0.018268488347530365, -0.022340642288327217, -0.04939302057027817, -0.04297717288136482, 0.0766046866774559, -0.05712747573852539, 0.008533898741006851, 0.14997951686382294, -0.05433350428938866, -0.10759253799915314, -0.0891537070274353, -0.0244376789778471, 0.0044996291399002075, 0.09276469051837921, 0.10156720876693726, 0.04494556039571762, 0.06976881623268127, 0.032229598611593246, 0.04097598418593407, -0.03226323053240776, -0.13985846936702728, -0.08895210176706314, 0.021385490894317627, -0.08524575084447861, 0.0015665916725993156, 0.013386040925979614, -0.07563062012195587, -0.32182827591896057, -0.07837648689746857, 0.03716324269771576, 0.07097053527832031, 0.080333411693573, 0.04210471361875534, 0.05946915224194527, -0.030594125390052795, -0.03717982396483421, -0.051853395998477936, -0.05018177628517151, 0.025501389056444168, 0.051714371889829636, -0.06585951894521713, -0.06941521167755127, -0.021586064249277115, -0.05746721476316452, -0.026011984795331955, -0.007367327809333801, 0.26691606640815735, 0.06940314918756485, -0.06909201294183731, 0.024462208151817322, 0.03848876804113388, 0.02576865255832672, 0.01959327422082424, 0.054196424782276154, 0.05945143848657608, 0.08324173837900162, -0.11237841844558716, -0.021766945719718933, -0.08094855397939682, -0.11074338108301163, -0.04853730648756027, -0.04972684755921364, -0.07952038943767548, 0.11999884247779846, -0.08362932503223419, -0.053374409675598145, -0.03361887112259865, -0.03166414052248001, 0.018596934154629707, -0.05946993827819824, 0.0496147945523262, -0.09454327076673508, 0.07687576860189438, -0.09447279572486877, -0.06929761171340942, 0.029802076518535614, -0.059529777616262436, 0.1538892537355423, -0.3446406126022339, -0.05878530070185661, 0.08274122327566147, -0.017968282103538513, -0.03778840973973274, 0.010239407420158386, 0.07352796941995621, -0.015619203448295593, 0.05454743653535843, 0.05013787001371384, -0.017052605748176575, -0.060763731598854065, -0.05454813316464424, -0.015650935471057892, -0.027661975473165512, -0.14143922924995422, -0.058019623160362244, -0.07374781370162964, 0.05266649276018143, -0.07962732762098312, -0.058733269572257996, 0.03478272259235382, 0.005845129489898682, 0.015580341219902039, -0.037069547921419144, 0.1661314070224762, 0.038531333208084106, -0.2868110239505768, 0.035596951842308044, 0.025391273200511932, -0.02461981400847435, 0.0002462714910507202, -0.057552844285964966, 0.03513180464506149, -0.06487338244915009, -0.0521022267639637, -0.054877571761608124, -0.07459355145692825, -0.016277998685836792, 0.052361033856868744, -0.03967287391424179, -0.0344727449119091, -0.0535944327712059, 0.07414134591817856, -0.007485531270503998, -0.08059869706630707, -0.0042104050517082214, -0.05327398702502251, -0.06825369596481323, -0.07570727169513702, -0.0015112608671188354, -0.032846588641405106, 0.022764191031455994, -0.03820493817329407, -0.06400305777788162, 0.024877719581127167, -0.06265214085578918, -0.013334497809410095, 0.03393573313951492, 0.05140572041273117, -0.019506201148033142, 0.01553722470998764, -0.012373782694339752, 0.04974197596311569, -0.0010186955332756042, -0.06308741867542267, -0.022590599954128265, 0.023033685982227325, 0.003709055483341217, 0.05164625495672226, -0.04236069694161415, 0.049418069422245026, 0.05502281337976456, 0.052610211074352264, -0.0460115447640419, -0.03606763854622841, -0.008160553872585297, 0.04928924888372421, -0.05933284014463425, 0.005230695009231567, 0.0019012093544006348, -0.019949205219745636, 0.048960767686367035, 0.023413151502609253, 0.04746636003255844, 0.07899519056081772, -0.011384695768356323, -0.03693050891160965, -0.07670643925666809, -0.0373699776828289, -0.021750450134277344, 0.0638599619269371, -0.0626528412103653, -0.08062627166509628, -0.043215103447437286, 0.03299971669912338, -0.057389289140701294, -0.055229946970939636, 0.07559063285589218, -0.05193871632218361, 0.07115458697080612, -0.05395829677581787, 0.06766306608915329, 0.06641242653131485, -0.029626768082380295, -0.14050301909446716, 0.020658882334828377, 0.018596842885017395, 0.07049121707677841, 0.004664041101932526, -0.07868141680955887, 0.07760920375585556, -0.06237741559743881, 0.08250488340854645, 0.06659006327390671, 0.06952681392431259, -0.06635028123855591, -0.04439244419336319, -0.0012623518705368042, -0.05705013871192932, -0.022794552147388458, 0.0037235692143440247, -0.006749846041202545, -0.057890355587005615, 0.0758574977517128, -0.024188421666622162, -0.0018095597624778748, -0.023342661559581757, 0.12221398949623108, -0.06879787892103195, -0.03530975058674812, -0.0400531180202961, 0.03148441016674042, 0.026622936129570007, 0.024662993848323822, -0.019822247326374054, -0.027166061103343964, 0.10781290382146835, 0.043948084115982056, -0.05086435005068779, -0.08278215676546097, -0.19868209958076477, -0.037347979843616486, 0.0809897631406784, -0.006446346640586853, 0.04501078277826309, -0.01655203104019165, -0.017483815550804138, -0.0010137036442756653, 0.04188714176416397, 0.2955729365348816, 0.06320581585168839, -0.008555270731449127, -0.16390585899353027, -0.053274355828762054, -0.11033472418785095, 0.08582624793052673, 0.07272431999444962, -0.08051694184541702, 0.02221352607011795, 0.09933409094810486, 0.024618424475193024, 0.0690721794962883, -0.012217551469802856, -0.004245691001415253, 0.12495218217372894, 0.03042892925441265, 0.06710893660783768, -0.14956793189048767, -0.03804941847920418, 0.03272442892193794, 0.21920424699783325, -0.03005903959274292, 0.01230646576732397, -0.043290093541145325, -0.09994815289974213, -0.05776409059762955, 0.19659638404846191, -0.02515547350049019, 0.0012480169534683228, 0.043301187455654144, -0.04098378121852875, 0.3028120994567871, -0.02566743642091751, 0.3024098873138428, -0.015665831044316292, -0.0036534667015075684, 0.04305030778050423, 0.010081249289214611, 0.06046774238348007, 0.03805645555257797, 0.04500133916735649, -0.07190584391355515, -0.0020839422941207886, 0.03895217925310135, 2.0198523998260498e-05, 0.06821291148662567, 0.1160978302359581, -0.0019409131491556764, 0.06782929599285126, 0.10661526769399643, -0.07980652153491974, 0.2725232243537903, -0.02969302237033844, -0.0445803664624691, 0.12624748051166534, -0.06444084644317627, -0.10325649380683899, -0.005747134797275066, -0.010574412532150745, -0.004623934626579285, -0.017339816316962242, -0.0077398656867444515, 0.09114247560501099, 0.01625635474920273, -0.05591229349374771, 0.11642871797084808, 0.06297573447227478, -0.03471989557147026, -0.4099624752998352, -0.05602332577109337, -0.019634634256362915, -0.010494492948055267, -0.02371831052005291, 0.14252687990665436, 0.017580915242433548, -0.049688901752233505, -0.04770771414041519, 0.07299323379993439, -0.015893207862973213, -0.035638824105262756, 0.05098550394177437, 0.0933622419834137, -0.023272734135389328, 0.270603209733963, -0.24774421751499176, 0.030371475964784622, 0.042161185294389725, 0.08809412270784378, -0.27182891964912415, 0.06448967009782791, -0.05119015648961067, 0.06685958057641983, 0.015960929915308952, -0.053171560168266296, 0.030616244301199913, -0.012550603598356247, 0.035576287657022476, 0.06065787374973297, -0.2601671516895294, 0.045307524502277374, -0.3117125332355499, 0.05210936814546585, 0.08616262674331665, 0.03018895536661148, -0.026108436286449432, 0.0905032604932785, -0.05720512941479683, 0.0006409406196326017, -0.03508538380265236, -0.01954309642314911, 0.026152634993195534, -0.10871246457099915, -0.043666258454322815, 0.13677576184272766, 0.1569051891565323, 0.03168220445513725, -0.22384317219257355, 0.011123686097562313, -0.1224689856171608, 0.06703095883131027, -0.0216444693505764, -0.07372869551181793, 0.09118781983852386, -0.05604303628206253, -0.09056306630373001, 0.005355573259294033, -0.00018152389384340495, -0.17275169491767883, 0.07865079492330551, 0.029046759009361267, -0.1442394107580185, -0.0012360191904008389, -0.15490508079528809, -0.04080495610833168, -0.003013125853613019, -0.04676564782857895, -0.05936674028635025, -0.10356754809617996, -0.012638179585337639, -0.03864903748035431, 0.04827786237001419, 0.011374624446034431, -0.07273654639720917, -0.020745670422911644, 0.06180329993367195, 0.06163026764988899, -0.11794442683458328, 0.0072476789355278015, -0.1862000823020935, 0.001879414077848196, 0.05306104198098183, 0.01656440831720829, -0.0824982076883316, -0.03758201375603676, -0.0233056228607893, -0.016515666618943214, -0.05620193853974342, 0.08775293827056885, 0.05317356437444687, -0.0730040892958641, -0.04449940100312233, -0.08156878501176834, -0.04470338299870491, -0.0442953035235405, 0.1470150351524353, 0.09453662484884262, -0.014576984569430351, 0.05590313300490379, -0.054375529289245605, 0.024936826899647713, -0.046489227563142776, -0.10948105156421661, -0.09571623057126999, -0.018565839156508446, -0.18073897063732147, -0.18172074854373932, -0.025724083185195923, 0.23967871069908142, -0.05432038754224777, 0.17553967237472534, -0.28014659881591797, -0.0849190279841423, -0.024462314322590828, -0.010767638683319092, -0.25219255685806274, -0.0673217922449112, 0.07033402472734451, 0.021018214523792267, 0.006589761469513178, -0.02340111695230007, -0.022186540067195892, 0.10410738736391068, -0.06899133324623108, -0.13418425619602203, -0.06371629983186722, -0.08650331199169159, -0.07511530816555023, 0.013512535020709038, 0.033698756247758865, -0.08130984753370285, 0.08858072012662888, -0.02199838124215603, -0.02084614709019661, -0.04697176814079285, 0.064222052693367, 0.008634008467197418, -0.14372947812080383, -0.10688570141792297, 0.021092748269438744, 0.10739368200302124, 0.015895117074251175, 0.14021077752113342, -0.2797384560108185, -0.12897011637687683, -0.06527577340602875, 0.0401790589094162, 0.06084970384836197, 0.018188955262303352, 0.17863520979881287, 0.03920607268810272, -0.007370214909315109, -0.011012977920472622, -0.011219916865229607, -0.04560855031013489, -0.109885573387146, -0.18752045929431915, 0.015595613047480583, -0.031964026391506195, 0.011595359072089195, 0.04533170908689499, 0.07872916013002396, 0.04509609192609787, -0.06271415203809738, 0.05551845207810402, -0.04950665682554245, -0.06195703148841858, -0.015429925173521042, -0.007305089849978685, -0.12930485606193542, -0.12723809480667114, -0.06472357362508774, 0.09509514272212982, 0.018979690968990326, 0.07421820610761642, -0.26775845885276794, -0.13689447939395905, -0.07827993482351303, 0.022366024553775787, 0.09796857088804245, 0.048290420323610306, 0.19997580349445343, -0.03582942113280296, -0.03569744899868965, -0.032102443277835846, -0.0432962104678154, 0.060628585517406464, 0.0077030169777572155, -0.17504549026489258, 0.06731334328651428, 0.005319812800735235, -0.06021222099661827, -0.0874461904168129, 0.002473850967362523, -0.014379888772964478, -0.07353835552930832, 0.04408019408583641, 0.03623741492629051, -0.06635782867670059, 0.006956956814974546, 0.05192767456173897, -0.29116421937942505, -0.07752291113138199, -6.292934813245665e-06, 0.11144852638244629, 0.04334133490920067, -0.03540059179067612, -0.23842918872833252, -0.013447592034935951, -0.09909989684820175, -0.052123792469501495, -0.037146538496017456, 0.006230596452951431, 0.07331772148609161, -0.01875528134405613, 0.02694094553589821, -0.1331842690706253, -0.14739757776260376, 0.043654728680849075, 0.028145641088485718, -0.2113959640264511, -0.15821295976638794, -0.08504952490329742, 0.007588631939142942, 0.017914559692144394, 0.04022112861275673, 0.07472646236419678, -0.075825035572052, 0.11274576187133789, -0.09178808331489563, 0.04754823073744774, -0.07819145172834396, 0.015582539141178131, -0.0560007207095623, -0.06841465830802917, 0.013364051468670368, -0.014090847223997116, 0.0169009268283844, 0.03763823211193085, -0.2614367604255676, -0.14318455755710602, 0.07627008110284805, -0.0273720845580101, -0.0024551725946366787, 0.04434291645884514, 0.06533799320459366, -0.08055755496025085, -0.09970995038747787, -0.1612471342086792, -0.0957576110959053, -0.062350884079933167, -0.06516001373529434, -0.23624126613140106, -0.08348903059959412, 0.04010077938437462, -0.0880788117647171, 0.017043519765138626, 0.03843051567673683, 0.048133596777915955, -0.04591803252696991, -0.044719398021698, -0.026846155524253845, 0.0012040239525958896, -0.0725778341293335, 0.024876432493329048, 0.017534490674734116, -0.01586698740720749, 0.04845958948135376, -0.03961901366710663, 0.017560511827468872, 0.11266534775495529, -0.2205614298582077, -0.07573211938142776, 0.14215800166130066, 0.011745307594537735, -0.054514117538928986, -0.09635306149721146, -0.046142298728227615, 0.022935811430215836, 0.036534711718559265, -0.13591209053993225, -0.18100902438163757, 0.026673858985304832, 0.03719780221581459, -0.23401789367198944, -0.08069102466106415, 0.0015079734148457646, -0.04512437433004379, -0.12490084022283554, 0.06097398325800896, -0.050816163420677185, 0.03415583074092865, -0.021546587347984314, 0.023816287517547607, -0.21291287243366241, 0.05641912668943405, -0.10738305002450943, -0.18720631301403046, -0.09995514899492264, -0.09949655830860138, -0.02261897176504135, 0.023850636556744576, -0.00518334424123168, -0.1741025596857071, -0.03454944118857384, -0.04968732222914696, 0.002471527084708214, 0.016750406473875046, -0.054335687309503555, 0.001120570464991033, 0.006791145075112581, 0.048160016536712646, -0.0343346893787384, -0.18667945265769958, -0.03490476682782173, 0.035935115069150925, -0.2946029007434845, -0.008860900066792965, -0.018253903836011887, -0.02228865958750248, -0.013189620338380337, -0.02366636134684086, -0.034016720950603485, -0.024101590737700462, -0.03134854882955551, -0.03623705357313156, -0.1976395845413208, -0.046610645949840546, 0.015483753755688667, -0.2776646316051483, -0.05372101813554764, -0.006645606365054846, -0.006394183728843927, -0.009321781806647778, 0.08485645800828934, -0.025327090173959732, -0.11728271842002869, -0.15992750227451324, -0.06909903138875961, 0.009875337593257427, -0.029851162806153297, -0.15135878324508667, 0.07400362938642502, 0.021629465743899345, -0.15515775978565216, -0.008522369898855686, -0.011502586305141449, 0.03315325826406479, -0.19216151535511017, -0.09508416056632996, 0.06301965564489365, 0.05367310345172882, 0.010427582077682018, 0.051259271800518036, 0.03181247040629387, -0.08789026737213135, 0.10850182920694351, 0.00386575679294765, -0.23401011526584625, 0.03599634766578674, 0.012431717477738857, -0.05855977162718773, -0.005428009200841188, -0.03391275554895401, -0.11854804307222366, 0.06324639916419983, 0.08684410899877548, -0.06280604004859924, -0.09386887401342392, 0.052595119923353195, -0.06857692450284958, 0.0515076145529747, -0.0994505062699318, 0.02936980314552784, -0.007845904678106308, 0.012736236676573753, -0.08079951256513596, 0.07768041640520096, -0.02119826152920723, -0.09792447835206985, -0.1238345056772232, 0.04959886893630028, -0.02479107677936554, -0.06472775340080261, -0.05821780115365982, -0.07088512927293777, 0.03868301957845688, -0.0014910948229953647, 0.045510224997997284, -0.02297380566596985, -0.14568383991718292, 0.019449621438980103, 0.010355506092309952, -0.2706177234649658, -0.0026108119636774063, 0.037890225648880005, -0.13279354572296143, -0.05377144366502762, 0.035930849611759186, -0.10119231045246124, -0.010264810174703598, -0.14352892339229584, -0.07615473866462708, -0.002223773393779993, 0.03423260897397995, 0.052044905722141266, -0.08923463523387909, -0.09408427774906158, -0.09198159724473953, -0.02050388604402542, 0.007029861677438021, -0.05498092621564865, -0.16199767589569092, 0.0168609619140625, 0.046537455171346664, 0.014789536595344543, 0.013246722519397736, -0.016053520143032074, -0.09170063585042953, 0.05696669965982437, -0.1257714480161667, -0.09084796160459518, -0.06222815066576004, 0.07458297163248062, -0.051877982914447784, -0.18825583159923553, -0.04085039719939232, -0.12379245460033417, -0.15874595940113068, -0.004945771303027868, 0.15591292083263397, 0.03492610901594162, -0.09976135194301605, -0.021986570209264755, 0.07270792871713638, 0.05145340785384178, 0.016141138970851898, 0.12649653851985931, -0.020582865923643112, -0.011648807674646378, 0.033978212624788284, -0.00711090536788106, -0.07046543806791306, 0.0436280183494091, -0.09343522042036057, -0.006030162330716848, -0.05101284384727478, 0.01923152431845665, 0.06667479127645493, 0.04600287973880768, 0.033214788883924484, -0.038945503532886505, 0.04938724637031555, 0.07699140906333923, -0.0336579792201519, -0.03845159336924553, -0.006150990258902311, 0.04011566564440727, -0.04551464319229126, 0.055931445211172104, 0.0702790692448616, 0.029271477833390236, -0.020338352769613266, -0.09667056798934937, -0.15235953032970428, 0.0465083010494709, -0.0650525763630867, 0.04207706078886986, 0.06455075740814209, 0.007629256695508957, -0.0377056747674942, 0.05250487104058266, 0.004245559219270945, 0.09946127980947495, -0.010658619925379753, -0.07265645265579224, -0.26860639452934265, 0.06912794709205627, 0.05333809554576874, -0.014990933239459991, 0.1312241554260254, 0.007013172842562199, -0.08938305824995041, 0.08431831747293472, 0.0597163587808609, 0.004345410969108343, -0.20664678514003754, -0.07050906121730804, 0.005198895465582609, 0.04593227058649063, -0.05104690045118332, 0.07046371698379517, 0.03488273546099663, 0.06827635318040848, 0.019696129485964775, -0.04499419406056404, -0.08057048916816711, 0.041949059814214706, 0.0360872782766819, -0.04179693013429642, 0.005479026585817337, 0.01852533034980297, 0.04881978780031204, -0.08550239354372025, 0.04041624814271927, 0.07089083641767502, -0.15474775433540344, 0.0419623889029026, -0.18272143602371216, 0.044957131147384644, -0.08541128039360046, -0.014284511096775532, 0.13707466423511505, 0.08306876569986343, -0.05782194435596466, 0.03754518926143646, -0.02113915979862213, 0.056108441203832626, -0.07792077958583832, -0.009584078565239906, -0.023122962564229965, 0.029638420790433884, -0.1609450876712799, 0.041135262697935104, 0.01730244792997837, -0.08691823482513428, -0.0034702832344919443, -0.15382303297519684, -0.043465856462717056, 0.23416657745838165, -0.039887987077236176, -0.08776093274354935, -0.037119459360837936, -0.008253289386630058, 0.054469041526317596, 0.03856680914759636, 0.012421130202710629, 0.013704831711947918, -0.15543870627880096, -0.09309566766023636, 0.019948823377490044, 0.016187522560358047, -0.08636946231126785, -0.01230279915034771, 0.00022043180069886148, -0.02852896973490715, -0.03473110496997833, 0.10170555114746094, 0.043089188635349274, 0.005004679784178734, -0.1445261538028717, 0.044352054595947266, -0.013102054595947266, -0.04567607864737511, -0.22731810808181763, -0.035812925547361374, -0.0755588635802269, -0.05308876931667328, -0.006626863032579422, -0.03825386241078377, 0.008989728055894375, 0.1978704184293747, -0.024822354316711426, 0.012056289240717888, -0.04962414503097534, -0.14934131503105164, 0.027866825461387634, 0.004697050433605909, 0.0572444424033165, 0.054298289120197296, -0.10817182809114456, -0.011129979975521564, 0.11096304655075073, -0.04968513548374176, 0.009947490878403187, 0.16774846613407135, -0.007909008301794529, 0.07521944493055344, -0.06813929229974747, 0.12826381623744965, 0.12129031121730804, 0.04479050263762474, 0.18172219395637512, 0.0092955706641078, -0.056996844708919525, -0.005898770410567522, -0.006952387746423483, -0.04930802807211876, -0.09646741300821304, -0.15944211184978485, -0.0788005143404007, -0.08831644058227539, 0.05251743271946907, -0.01175878755748272, -0.026820145547389984, 0.0408712662756443, 0.016815975308418274, -0.04320783540606499, 0.026088811457157135, 0.020123539492487907, -0.06753593683242798, -0.14210845530033112, -0.20254717767238617, 0.037279099225997925, 0.1646260768175125, 0.15336182713508606, 0.036613624542951584, 0.07909853011369705, -0.08637140691280365, -0.04199952632188797, -0.05675085633993149, 0.07661690562963486, -0.0026039951480925083, -0.07423138618469238, 0.09394484013319016, -0.0028075489681214094, 0.012107999064028263, -0.0955674797296524, -0.07352373749017715, -0.017603212967514992, -0.07331739366054535, -0.3508792817592621, -0.14305217564105988, 0.036866895854473114, 0.03351287916302681, 0.1336209774017334, -0.021286793053150177, 0.14777535200119019, -0.09627871960401535, -0.03444181755185127, -0.02576383203268051, -0.012702780775725842, 0.06831850856542587, -0.22728723287582397, -0.07093646377325058, -0.024123096838593483, 0.04412050545215607, 0.022267507389187813, -0.04633957892656326, -0.2122134119272232, -0.0065058013424277306, 0.06954534351825714, 0.0298951156437397, 0.060923200100660324, 0.16781283915042877, -0.019297875463962555, -0.025576844811439514, -0.08443909883499146, -0.05148851498961449, -0.025887254625558853, 0.1634531319141388, -0.03454039245843887, -0.07921512424945831, -0.0009422837756574154, 0.05592343956232071, -0.014490638859570026, 0.010127967223525047, -0.23685617744922638, 0.015396647155284882, 0.06664086878299713, 0.03254283592104912, -0.08676572889089584, 0.014930255711078644, -0.060651350766420364, 0.07578010112047195, -0.32557588815689087, -0.0092769805341959, -0.06647145003080368, 0.06447170674800873, -0.008931414224207401, -0.07606708258390427, -0.3173416256904602, 0.0051124244928359985, 0.009472005069255829, -0.018767349421977997, 0.2081330120563507, -0.014287818223237991, -0.06880567222833633, -0.08906575292348862, -0.01402629166841507, -0.026812028139829636, -0.08276540040969849, 0.21065601706504822, -0.032895371317863464, -0.04492931067943573, -0.08850046247243881, 0.02447579987347126, -0.01686348021030426, 0.06977785378694534, -0.25462326407432556, 0.08207964152097702, 0.03129202127456665, -0.03154880926012993, 0.05148521810770035, -0.05928933247923851, 0.02072911709547043, 0.009866319596767426, -0.188607856631279, -0.02509283274412155, -0.03605661913752556, -0.06826286762952805, 0.033797625452280045, 0.010282337665557861, -0.0005535632371902466, -0.014481112360954285, -0.012578003108501434, -0.07998757809400558, 0.02421310357749462, 0.23414571583271027, 0.004993177950382233, 0.08135893195867538, -0.05660633742809296, 0.04504799097776413, -0.04288984090089798, -0.026997342705726624, 0.0413835272192955, 0.01821465790271759, -0.1409674733877182, 0.0011634007096290588, 0.02533499151468277, -0.07225356996059418, -0.14470136165618896, 0.04783054441213608, -0.08350300043821335, 0.014119520783424377, 0.0354013592004776, 0.03270325809717178, -0.021947018802165985, -0.045235298573970795, -0.1824035793542862, -0.037051763385534286, -0.08111759275197983, -0.016851522028446198, -0.010748915374279022, 0.03168787062168121, 0.05213702470064163, -0.044755104929208755, 0.06075301021337509, 0.045821599662303925, 0.08114365488290787, -0.060543790459632874, 0.015759184956550598, -0.06606156378984451, -0.08500829339027405, -0.005050890147686005, -0.04179932177066803, 0.04961911588907242, 0.03943362087011337, 0.04059877246618271, 0.022710509598255157, 0.056067563593387604, 0.021088890731334686, -0.08558204025030136, -0.07162484526634216, -0.032371241599321365, 0.02411862462759018, -0.048450663685798645, -0.06717731058597565, -0.0486699678003788, 0.009189128875732422, -0.05146044120192528, -0.061164744198322296, -0.04799283668398857, 0.0439341738820076, 0.07108718901872635, 0.0005187317728996277, -0.01796640455722809, 0.057502470910549164, -0.000940270721912384, -0.023588135838508606, -0.04971074312925339, -0.005494281649589539, -0.03724845498800278, 0.03957799822092056, 0.045413099229335785, 0.0747046247124672, 0.02176680415868759, 0.04336509853601456, 0.03489869832992554, 0.00899437814950943, -0.022942163050174713, -0.05332135781645775, -0.02473166584968567, 0.03886710852384567, -0.002507910132408142, -0.01716938614845276, 0.051474831998348236, -0.026513051241636276, 0.07735105603933334, -0.08550134301185608, 0.016320668160915375, -0.015732809901237488, -0.02835928648710251, -0.056197285652160645, -0.003646373748779297, 0.07938746362924576, -0.0576571486890316, -0.03444046154618263, -0.021794460713863373, -0.03550638258457184, -0.011698409914970398, 0.014986805617809296, 0.0003489181399345398, 0.05098625272512436, 0.08205655962228775, -0.03998640924692154, -0.0488402284681797, -0.005580045282840729, 0.03797680139541626, 0.022435186430811882, 0.036593832075595856, -0.07608917355537415, 0.0027000680565834045, 0.07174859941005707, -0.03555650636553764, -0.010809660889208317, -0.001556582748889923, -0.21340420842170715, -0.009703829884529114, -0.016576895490288734, 0.017408952116966248, 0.07068000733852386, 0.07153967767953873, -0.03350043669342995, -0.014966212213039398, 0.03808628022670746, 0.3591054081916809, 0.014202132821083069, -0.020649872720241547, -0.05332919955253601, 0.019372478127479553, -0.03884998708963394, 