
#ifndef _WEIGHTS_ 
#define _WEIGHTS_
#define NUM_OF_INPUTS 784
#define NUM_OF_OUTPUTS 10 
#define NUM_OF_HIDDEN_LAYERS 2

int input_layer_neurons = 784;
double layer_1_weights[] = {0.018382690846920013, 0.06751439720392227, 0.06635191291570663, -0.0771038606762886, 0.03572802245616913, 0.06615074723958969, 0.02428790181875229, -0.034110184758901596, -0.0010109245777130127, 0.05248156934976578, 0.04196303337812424, -0.044215213507413864, -0.03017747402191162, -0.014566794037818909, 0.053242214024066925, -0.002392403781414032, 0.07040420919656754, -0.03895338252186775, 0.0486498698592186, 0.061138369143009186, -0.021505936980247498, -0.06476812064647675, -0.06934341788291931, -0.07908874750137329, 0.013858161866664886, 0.04109973460435867, -0.0026737600564956665, -0.07529447972774506, 0.0288611501455307, -0.013183869421482086, -0.06891625374555588, 0.01925899088382721, -0.03584332391619682, 0.06212838739156723, 0.005673147737979889, -0.08513007313013077, 0.013220995664596558, 0.07167712599039078, -0.060455821454524994, 0.03085198998451233, 0.07432780414819717, 0.03488334268331528, -0.032444410026073456, -0.068783238530159, 0.055362798273563385, 0.05638756603002548, 0.08183685690164566, -0.0022297054529190063, -0.048956044018268585, -0.011704154312610626, 0.01867952197790146, 0.04962768405675888, -0.061687275767326355, 0.05102815479040146, -0.05478346720337868, -0.005793936550617218, 0.07332315295934677, 0.027411147952079773, 0.011272206902503967, -0.03938015550374985, -0.04526318609714508, 0.036928094923496246, -0.025075353682041168, -0.004393711686134338, 0.00945475697517395, -0.07857762277126312, -0.014634281396865845, -0.07404069602489471, -0.03626187890768051, -0.038036804646253586, 0.06412071734666824, -0.07806839793920517, 0.0012296363711357117, -0.017405539751052856, -0.004256300628185272, -0.02002129703760147, 0.00042609870433807373, 0.03848958760499954, -0.03385796397924423, 0.051652051508426666, 0.0222938135266304, 0.07269123941659927, 0.07755079120397568, 0.047310225665569305, -0.08127634227275848, -0.016281060874462128, 0.0378279909491539, 0.012016929686069489, 0.027767673134803772, -0.02272571623325348, 0.07459188252687454, 0.01927325874567032, 0.0357690304517746, 0.0838465616106987, -0.053832750767469406, -0.07325727492570877, -0.077039435505867, 0.0184532031416893, 0.004574969410896301, -0.010751023888587952, -0.014137201011180878, 0.024969004094600677, 0.017668962478637695, 0.0752033069729805, -0.06574928015470505, -0.029840122908353806, -0.051781151443719864, 0.012386687099933624, -0.05417473986744881, 0.00481676310300827, -0.042830709367990494, 0.013419590890407562, 0.008107729256153107, 0.08183596283197403, -0.08380769938230515, 0.044836901128292084, -0.0050045400857925415, 0.018105529248714447, 0.07288490980863571, -0.06906566023826599, -0.0011558383703231812, -0.07367558777332306, -0.07872720807790756, -0.07451455295085907, -0.04200803488492966, -0.06655766069889069, -0.08054386079311371, 0.08446929603815079, -0.060808196663856506, 0.05302516371011734, -0.02159709483385086, 0.04870443791151047, 0.07026243954896927, -0.049215830862522125, 0.022944532334804535, -0.022250063717365265, 0.0694999173283577, 0.03353787213563919, 0.04777543991804123, -0.08058522641658783, 0.07721393555402756, -0.07680357247591019, 0.07689029723405838, -0.004941105842590332, 0.024243146181106567, 0.049373336136341095, 0.027908124029636383, 0.06991293281316757, 0.0751841589808464, 0.017958469688892365, 0.03767905384302139, -0.016492336988449097, -0.040488068014383316, -0.0776628851890564, -0.06041854992508888, -0.0204102024435997, 0.057375647127628326, 0.008081600069999695, -0.013865821063518524, 0.03919071704149246, 0.018246181309223175, 0.01921284943819046, 0.0628565177321434, 0.036445386707782745, 0.00939890742301941, -0.07886163145303726, -0.01244916021823883, 0.04748433083295822, -0.04625706002116203, -0.04753674566745758, 0.03369927406311035, 0.0008824169635772705, -0.03584463149309158, 0.03001653403043747, 0.08370072394609451, 0.006973154842853546, -0.016857512295246124, 0.03805164992809296, -0.0185420960187912, 0.04239345341920853, 0.07297778874635696, -0.01812823861837387, 0.06998380273580551, -0.0037554800510406494, -0.04406511411070824, 0.003967694938182831, -0.08201944828033447, -0.013186812400817871, 0.08487599343061447, 0.08403473347425461, -0.026417452841997147, -0.030083902180194855, -0.06444825232028961, -0.031162988394498825, 0.03341232240200043, 0.06491272896528244, 0.05925712734460831, 0.051413826644420624, -0.054787904024124146, -0.04272996261715889, -0.01854289323091507, -0.04864063113927841, 0.03756352514028549, 0.03730780631303787, 0.06226537376642227, 0.031970106065273285, -0.015117034316062927, -0.050850510597229004, -0.005656510591506958, -0.060985591262578964, 0.07756916433572769, 0.04154350608587265, 0.07010229676961899, -0.05882389843463898, 0.01095319539308548, -0.006825670599937439, -0.058552153408527374, 0.01580800861120224, 0.02199951559305191, -0.001813545823097229, 0.052165620028972626, 0.05586715787649155, 0.07978180795907974, -0.010487683117389679, -0.08559416234493256, -0.04095170274376869, -0.05787219852209091, -0.04825131222605705, -0.012754067778587341, 0.07535683363676071, -0.005414798855781555, 0.022239267826080322, 0.07040394097566605, 0.07301171869039536, 0.051532573997974396, -0.05711905658245087, -0.04283490031957626, -0.07990890741348267, 0.06290025264024734, 0.015247814357280731, 0.055880509316921234, -0.0710444375872612, 0.04064876586198807, 0.03447779268026352, 0.04551521688699722, -0.0024576783180236816, 0.003984637558460236, -0.027855541557073593, 0.027762316167354584, -0.055294573307037354, 0.014857716858386993, 0.015156716108322144, -0.05333752930164337, -0.04183613881468773, 0.040226735174655914, 0.07960578054189682, -0.020472072064876556, -0.03882983699440956, 0.007772140204906464, -0.06072903424501419, 0.0702645555138588, -0.03719141706824303, -0.06668724119663239, -0.06393315643072128, -0.027065597474575043, 0.033420808613300323, -0.04315381124615669, 0.0800330862402916, -0.059532105922698975, -0.060112640261650085, -0.03383410722017288, -0.008425779640674591, 0.02766956388950348, 0.05917812138795853, 0.053108446300029755, 0.001991085708141327, 0.06253961473703384, 0.029013991355895996, -0.008962363004684448, 0.002811223268508911, 0.08092784136533737, 0.08275575190782547, -0.04363623261451721, 0.06676977127790451, 0.05582783371210098, 0.013669520616531372, 0.05776827782392502, -0.030090931802988052, -0.02016301453113556, 0.036160990595817566, 0.07875994592905045, -0.052537281066179276, 0.07004164904356003, -0.054829467087984085, -0.009407676756381989, 0.07211685925722122, -0.07904961705207825, 0.06649341434240341, 0.04254873842000961, 0.010252468287944794, -0.013944491744041443, -0.038510825484991074, -0.05163505673408508, -0.026912491768598557, -0.011286541819572449, -0.07123323529958725, -0.050974585115909576, -0.07067690789699554, -0.04732038453221321, -0.03226654604077339, -0.01330622285604477, -0.05584080144762993, 0.042506299912929535, -0.010462574660778046, -0.004290260374546051, -0.04930269718170166, 0.06991454213857651, 0.0003031492233276367, -0.005661472678184509, 0.07359849661588669, 0.07159151881933212, -0.022818781435489655, 0.07167663425207138, 0.00595836341381073, -0.03202933073043823, -0.05960305035114288, -0.08166132867336273, -0.05605262517929077, -0.01842619478702545, 0.049772851169109344, 0.007579781115055084, -0.026676688343286514, 0.029620572924613953, -0.03702399879693985, -0.01949283480644226, 0.0071297213435173035, 0.07542877644300461, 0.04010150581598282, -0.015742480754852295, 0.01732257753610611, -0.06471997499465942, 0.025368623435497284, -0.04851261153817177, 0.07950576394796371, 0.05565973371267319, -0.05444908142089844, 0.04822184890508652, -0.04379749670624733, -0.011165142059326172, 0.04216039925813675, 0.058553121984004974, -0.010440371930599213, 0.0855475440621376, -0.0061795711517333984, -0.0054994747042655945, 0.06414324790239334, 0.07576001435518265, -0.041262414306402206, -0.01592060923576355, -0.03262622281908989, -0.05589193105697632, 0.03467606008052826, -0.0007061213254928589, 0.009075537323951721, 0.06780392676591873, -0.017947740852832794, -0.027644455432891846, -0.07644125819206238, -0.061924003064632416, 0.04907047003507614, -0.025626424700021744, -0.009859636425971985, -0.07059701532125473, -0.01907617598772049, -0.004749521613121033, 0.04794207960367203, 0.044523246586322784, -0.010729499161243439, 0.08518748730421066, -0.05109960213303566, -0.02850893884897232, 0.007033020257949829, -0.0011478438973426819, -0.06661739945411682, 0.07015880197286606, 0.08009793609380722, 0.003520868020132184, 0.034437306225299835, -0.018818825483322144, 0.14511212706565857, 0.08604008704423904, 0.11697416007518768, 0.014362766407430172, -0.01671554148197174, 0.08344181627035141, 0.019448459148406982, 0.07413613051176071, -0.019681526347994804, -0.051019418984651566, 0.010449431836605072, 0.03425504267215729, 0.006859946064651012, -0.061387039721012115, 0.0486702099442482, 0.048755206167697906, 0.003880098694935441, 0.010762840509414673, -0.05625856667757034, -0.03075641393661499, 0.03741122782230377, -0.018932372331619263, 0.08356805145740509, -0.04057550057768822, -0.07901252806186676, -0.05829664319753647, -0.07426070421934128, -0.0007583840051665902, -0.011569894850254059, -0.028322260826826096, 0.10841083526611328, -0.048424843698740005, 0.06282806396484375, -0.02110343798995018, 0.04635325446724892, 0.11814817041158676, -0.03821690008044243, -0.028713196516036987, 0.021688291803002357, 0.07852981239557266, -0.015640107914805412, 0.06872602552175522, 0.0749402865767479, -0.03798728436231613, -0.11984160542488098, -0.051107559353113174, -0.05770024657249451, -0.07470372319221497, 0.038999494165182114, -0.05140203237533569, -0.044951144605875015, -0.03461914509534836, 0.047141071408987045, 0.02505582571029663, 0.0013674768852069974, -0.028123581781983376, 0.010171979665756226, -0.0389033742249012, -0.04126555472612381, -0.02124672569334507, 0.008016668260097504, 0.017992541193962097, 0.05974254012107849, 0.02653040736913681, -0.08744075894355774, 0.07402288168668747, -0.02340235747396946, -0.00326334685087204, -0.017855271697044373, -0.049738384783267975, 0.13296133279800415, 0.037884749472141266, -0.06262881308794022, -0.02657170593738556, 0.06556644290685654, 0.067656971514225, 0.06944136321544647, 0.030854346230626106, -0.062297187745571136, -0.08094117790460587, 0.00365622341632843, 0.028241202235221863, 0.008744120597839355, -0.0840817391872406, -0.08904330432415009, 0.03377285599708557, 0.01904265396296978, 0.06557971239089966, -0.0429176390171051, 0.022091761231422424, 0.018571199849247932, 0.021158749237656593, 0.002913244068622589, 0.01935436762869358, 0.008177965879440308, -0.030461259186267853, 0.024654975160956383, -0.01746976189315319, -0.002558605745434761, 0.07577263563871384, 0.03670240938663483, 0.03156541287899017, 0.1141524463891983, -0.0677826851606369, 0.07999230176210403, 0.035583458840847015, -0.014850929379463196, -0.008522622287273407, 0.09952438622713089, 0.01222278457134962, -0.042861927300691605, -0.08476923406124115, 0.05331168323755264, 0.04733742028474808, -0.04541762173175812, -0.060083940625190735, 0.040173374116420746, -0.07752905786037445, -0.002239472698420286, -0.06703703105449677, 0.07151655107736588, 0.07689797133207321, -0.029742272570729256, 0.04572049528360367, -0.08114633709192276, -0.06497164070606232, -0.03247164189815521, 0.024459630250930786, -0.01531965285539627, -0.04766801744699478, 0.02927316725254059, 0.012381717562675476, 0.021705590188503265, -0.037540603429079056, 0.039630480110645294, -0.06842967867851257, 0.07203575223684311, 0.012943074107170105, 0.07560617476701736, 0.03782714903354645, 0.02136906236410141, -0.07934164255857468, -0.051720961928367615, -0.08322690427303314, 0.013574719429016113, -0.050864677876234055, -0.053055908530950546, 0.031779155135154724, 0.027338750660419464, -0.007052786648273468, 0.03524068742990494, -0.057981353253126144, -0.06339588016271591, -0.03088361769914627, -0.06870400160551071, 0.059851206839084625, -0.08518584817647934, 0.01634339988231659, 0.0036434680223464966, 0.008311718702316284, 0.01743127405643463, -0.024025868624448776, 0.04712445288896561, -0.03263292834162712, 0.0055713951587677, 0.028050601482391357, 0.06963703781366348, -0.06922320276498795, 0.04098240286111832, 0.015083707869052887, -0.0065603479743003845, -0.05132990702986717, 0.025029495358467102, 0.07434237748384476, 0.06584764271974564, 0.06924336403608322, -0.00015249103307724, 0.034705109894275665, 0.003483779728412628, 0.08431536704301834, -0.0021158531308174133, 0.06354842334985733, 0.07483769208192825, 0.004305720329284668, 0.008105255663394928, 0.045214034616947174, 0.05222771316766739, -0.050367046147584915, 0.05380591005086899, -0.001369476318359375, 0.03904910385608673, 0.009744368493556976, 0.0013467222452163696, -0.03479567915201187, -0.04130677878856659, -0.05259159952402115, 0.04915306717157364, -0.054922692477703094, -0.051731307059526443, -0.07733571529388428, 0.06288563460111618, -0.0793662965297699, -0.009570248425006866, -0.0723903626203537, 0.041126228868961334, 0.008748166263103485, -0.04678824171423912, -0.08038163930177689, 0.0658249482512474, 0.08019284158945084, 0.05658774822950363, -0.06757194548845291, 0.009957827627658844, -0.07412096112966537, -0.026241857558488846, 0.025345049798488617, -0.017562732100486755, -0.022106297314167023, 0.000544227659702301, 0.02469077706336975, -0.07813476026058197, -0.01702437549829483, -0.04195054620504379, 0.04861941188573837, 0.03705139458179474, -0.045290231704711914, 0.009634792804718018, 0.04027099162340164, 0.013495683670043945, -0.06318265199661255, 0.024085111916065216, 0.004911929368972778, 0.06679794937372208, 0.006032273173332214, -0.05123872682452202, 0.04440820962190628, -0.03265942260622978, -0.021549560129642487, -0.030287545174360275, -0.004441261291503906, -0.02945004776120186, 0.0462186262011528, -0.05457080900669098, -0.06176431104540825, 0.021553464233875275, 0.058583490550518036, -0.07291509956121445, -0.07304490357637405, -0.058306291699409485, 0.07513969391584396, -0.019270583987236023, 0.015603825449943542, 0.010593600571155548, -0.07728779315948486, 0.023694589734077454, 0.08066246658563614, -0.06314709782600403, 0.07440414279699326, -0.02298353612422943, -0.06040973961353302, 0.03360828012228012, -0.008074566721916199, 0.06047879904508591, 0.03225485235452652, -0.023328270763158798, 0.06679036468267441, -0.07057640701532364, -0.03208808973431587, -0.011551827192306519, -0.018904365599155426, 0.033721089363098145, 0.03403010964393616, -0.031388405710458755, -0.05772751569747925, 0.0029513463377952576, -0.04846258461475372, -0.034091439098119736, 0.022801116108894348, -0.07413268089294434, -0.03658140078186989, 0.021120987832546234, -0.05084098130464554, 0.06815969198942184, 0.012600310146808624, -0.027057766914367676, 0.046713657677173615, 0.07215798646211624, 0.08520650118589401, -0.04432046040892601, -0.07231692224740982, 0.07272662967443466, 0.006733305752277374, -0.03002994880080223, -0.012603983283042908, 0.07184617966413498, -0.007615759968757629, -0.07600992918014526, -0.023032113909721375, -0.03667812421917915, 0.01753554493188858, -0.0489983856678009, -0.00017430633306503296, 0.06396766752004623, 0.016771048307418823, -0.06157366931438446, 0.06862751394510269, -0.011388860642910004, 0.07431771606206894, 0.07013990730047226, -0.04568151384592056, -0.020067699253559113, -0.03919531777501106, 0.06629074364900589, 0.05204106122255325, 0.021722353994846344, 0.014519184827804565, 0.07904782146215439, -0.01950540393590927, -0.07889450341463089, -0.07559139281511307, 0.0522976890206337, 0.05404629558324814, -0.04693499207496643, -0.022686444222927094, 0.01589072495698929, 0.007213480770587921, -0.030191559344530106, -0.060163017362356186, -0.056926943361759186, 0.013274885714054108, -0.002225928008556366, 0.021876953542232513, -0.0328141450881958, -0.04917526990175247, -0.06734392791986465, 0.06786298006772995, -0.061018750071525574, -0.025013774633407593, 0.05024344474077225, 0.04669269174337387, 0.08118366450071335, -0.04596472904086113, 0.05646320432424545, 0.028909996151924133, 0.05583760887384415, -0.06213204190135002, -0.025350183248519897, -0.022668227553367615, -0.07944893091917038, -0.05915006995201111, 0.05757426470518112, 0.0692312940955162, 0.05715671926736832, -0.0849539116024971, 0.016384780406951904, -0.02425462007522583, 0.023685716092586517, -0.010032959282398224, 0.020601928234100342, -0.02655596286058426, 0.07516749948263168, -0.07670241594314575, 0.0064593106508255005, -0.011623300611972809, -0.04026085138320923, -0.03762258589267731, -0.041945699602365494, -0.028448935598134995, 0.06253964453935623, -0.05450955778360367, 0.058931075036525726, 0.026007220149040222, 0.0774950161576271, 0.007492624223232269, -0.013746939599514008, -0.07717132568359375, 0.08248790353536606, -0.04054655879735947, 0.02868764102458954, 0.010422155261039734, 0.05981826037168503, 0.04745373874902725, -0.03424305468797684, 0.03496238589286804, -0.08053106814622879, -0.022968880832195282, 0.06510397046804428, 0.007155090570449829, 0.06671331077814102, 0.004771806299686432, 0.06898846477270126, -0.008660174906253815, 0.03120538592338562, -0.07321822643280029, -0.0006419047713279724, 0.03311667591333389, 0.045322515070438385, 0.0239427387714386, 0.012637577950954437, 0.03378661721944809, -0.012940004467964172, -0.06743820011615753, -0.06641817092895508, -0.06296506524085999, -0.06655701249837875, 0.02258528769016266, -0.050439804792404175, -0.07526040077209473, 0.06932961195707321, -0.02457733079791069, 0.03243696689605713, 0.021288692951202393, 0.030821241438388824, -0.08497903496026993, 0.0006579384207725525, -0.08261539787054062, 0.07051309198141098, 0.0667516216635704, -0.05491948127746582, -0.08317918330430984, -0.01596076786518097, -0.06440715491771698, -0.04118642210960388, 0.0734613761305809, 0.04454436153173447, 0.003064163029193878, -0.03221236914396286, 0.030848249793052673, -0.041054170578718185, 0.03833905607461929, -0.020194806158542633, 0.053141288459300995, -0.025141406804323196, 0.017583772540092468, 0.06580132991075516, -0.06800523400306702, -0.07050268352031708, -0.05207916721701622, 0.058940060436725616, -0.05534881353378296, -0.026969876140356064, 0.046522386372089386, -0.02917615696787834, 0.06170258671045303, 0.06652199476957321, -0.051522981375455856, 0.07516903430223465, -0.08267734199762344, 0.07098370045423508, 0.0723426416516304, -0.04911508038640022, 0.024172067642211914, -0.04387684166431427, -0.06767728924751282, 0.06850706785917282, 0.05272570997476578, -0.013376720249652863, -0.03640443831682205, 0.03829658776521683, 0.05999746173620224, -0.024421710520982742, -0.07694163173437119, -0.051965825259685516, -0.012152045965194702, -0.038800764828920364, 0.04740964621305466, -0.055451296269893646, 0.02242632955312729, 0.05588669329881668, -0.06867983937263489, 0.08559044450521469, -0.0049075111746788025, 0.07271290570497513, 0.005497552454471588, 0.04396385699510574, 0.0732387974858284, 0.044897519052028656, -0.012079879641532898, -0.042858678847551346, -0.07525806874036789, 0.055262304842472076, -0.05670587718486786, 0.07155398279428482, 0.046875737607479095, 0.03824811428785324, 0.018831953406333923, -0.05577384680509567, 0.043283574283123016, -0.03613146394491196, -0.08296415209770203, 0.05068186670541763, -0.06333655118942261, 0.05219367891550064, -0.02625017985701561, -0.05252190679311752, -0.021366670727729797, -0.0079093798995018, 0.05155809968709946, 0.0693354383111, 0.03129787743091583, -0.03223913162946701, -0.06480665504932404, -0.01288546621799469, 0.016212619841098785, -0.0253942608833313, -0.02925731986761093, 0.004176221787929535, -0.005042284727096558, -0.032417893409729004, -0.026457931846380234, 0.08088216930627823, -0.06228187680244446, 0.02216072380542755, -0.04121868312358856, -0.08277872204780579, 0.04104805737733841, 0.08537101000547409, 0.0022695735096931458, -0.04588738828897476, 0.016585543751716614, 0.04196853190660477, 0.0441630557179451, 0.022705212235450745, 0.02672801911830902, 0.034481413662433624, 0.03997831791639328, 0.009791374206542969, 0.005448691546916962, 0.015352688729763031, 0.05201540142297745, 0.004656113684177399, -0.004169844090938568, 0.058867402374744415, 0.05264831334352493, 0.01423531025648117, 0.006491385400295258, -0.027269959449768066, 0.002100341022014618, -0.021368831396102905, -0.05553080514073372, -0.08138759434223175, -0.0742102861404419, 0.05775190144777298, -0.06455924361944199, -0.0442318357527256, -0.0008858293294906616, -0.026040952652692795, 0.015017896890640259, 0.07930506020784378, -0.07606766372919083, -0.0242917463183403, 0.054937638342380524, 0.053542010486125946, 0.009896375238895416, 0.016240976750850677, -0.05753476917743683, 0.0827934667468071, 0.012108579277992249, -0.0369759127497673, 0.008867517113685608, 0.062393344938755035, -0.037535082548856735, 0.04402812570333481, 0.07386159151792526, -0.0483100488781929, 0.015113390982151031, 0.08102812618017197, -0.0773439109325409, 0.028982020914554596, -0.07528507709503174, -0.02005419135093689, -0.0017747804522514343, 0.03799095004796982, 0.08387621492147446, -0.037404078990221024, -0.024753190577030182, -0.0350513756275177, 0.041821666061878204, 0.029656000435352325, 0.05186343938112259, -0.07832711935043335, -0.022865064442157745, 0.02447676658630371, 0.03791530430316925, -0.07300008833408356, -0.008592970669269562, -0.027676288038492203, -0.07340431213378906, 0.014117799699306488, 0.007340744137763977, -0.014391832053661346, 0.05081158131361008, 0.03726383298635483, 0.015971459448337555, -0.05566038191318512, -0.0840560793876648, -0.04032960534095764, -0.05273520201444626, 0.06105581670999527, 0.07788103073835373, 0.05822398513555527, -0.04833104461431503, -0.028874173760414124, -0.022190548479557037, -0.028460752218961716, 0.0638207271695137, -0.00029502809047698975, -0.07505712658166885, 0.08264399319887161, -0.04144976660609245, -0.04121214151382446, -0.001061461865901947, -0.006005309522151947, 0.040904782712459564, 0.006561733782291412, 0.03274322301149368, -0.029213692992925644, -0.04759644344449043, -0.07403072714805603, -0.04899820312857628, 0.014219492673873901, -0.03217160329222679, 0.0793442651629448, -0.06955470144748688, -0.06920809298753738, -0.07465419173240662, 0.0844619944691658, 0.0308578759431839, 0.02682870626449585, 0.06062411516904831, -0.07607758045196533, 0.004352554678916931, -0.058111581951379776, 0.0272333025932312, -0.024008531123399734, -0.029455529525876045, 0.012977361679077148, -0.0004613926284946501, -0.012013065628707409, 0.02799135446548462, 0.08340226113796234, -0.07403857260942459, 0.07614130526781082, 0.016375554725527763, -0.05351974815130234, 0.04019971936941147, 0.08126510679721832, 0.08004351705312729, -0.06790173053741455, -0.08158594369888306, 0.0038987770676612854, -0.05909210070967674, 0.005690838675945997, 0.01772434264421463, -0.035283930599689484, -0.019893474876880646, -0.026151534169912338, 0.015142098069190979, 0.03183511272072792, 0.06812908500432968, -0.008401605300605297, 0.003075386630371213, 0.06411237269639969, 0.0753573551774025, -0.07776813209056854, 0.06767509132623672, 0.06992491334676743, -0.024159830063581467, 0.08406565338373184, 0.043386854231357574, -0.01935666613280773, -0.03324778750538826, 0.09813161939382553, 0.046019282191991806, 0.05895890295505524, -0.007939983159303665, -0.012417249381542206, -0.017692923545837402, -0.10550682246685028, -0.05357574671506882, -0.015805184841156006, 0.029041118919849396, 0.0013061612844467163, -0.0413462370634079, -0.010966669768095016, 0.06772814691066742, 0.0721142366528511, 0.007764652371406555, -0.07660643756389618, -0.0006748437881469727, -0.027788333594799042, 0.026457302272319794, 0.07095376402139664, -0.002664214698597789, -0.02752295322716236, -0.1049528643488884, -0.029675301164388657, 0.00686529278755188, -0.029711078852415085, -0.058885496109724045, 0.07462967932224274, -0.02179132215678692, 0.020195428282022476, -0.07708653807640076, -0.009505202062427998, 0.04535897821187973, 0.07660073041915894, -0.04796502739191055, -0.06312847137451172, -0.03895162418484688, 0.015542030334472656, 0.017635077238082886, -0.00880344957113266, -0.011218704283237457, 0.008056353777647018, 0.08280328661203384, -0.2357858270406723, 0.022009188309311867, -0.08024037629365921, 0.04587363451719284, -0.01148552168160677, -0.01357007771730423, 0.06162518262863159, 0.0493173822760582, 0.09595560282468796, 0.03452706336975098, -0.060418277978897095, -0.10222833603620529, 0.002659626305103302, -0.01668657176196575, -0.10256379842758179, -0.020747730508446693, 0.02896355837583542, -0.011216476559638977, 0.1670074462890625, 0.08450169116258621, 0.006665664725005627, 0.03468209132552147, 0.037193626165390015, 0.012340486980974674, 0.06519480794668198, 0.043861351907253265, -0.10195717960596085, -0.017471006140112877, -0.07353214919567108, -0.06991520524024963, -0.035126589238643646, 0.0018375226063653827, -0.1009608581662178, -0.04295704886317253, -0.045685023069381714, -0.0424402616918087, 0.09440332651138306, -0.017516285181045532, 0.2142075002193451, -0.0014998912811279297, -0.026312995702028275, -0.04326261579990387, 0.03556719049811363, -0.010354077443480492, 0.06975937634706497, 0.016119157895445824, -0.09255059063434601, 0.08144094049930573, 0.07291623204946518, -0.010545257478952408, 0.13851383328437805, 0.07182469964027405, -0.041541844606399536, 0.014920930378139019, 0.07750028371810913, 0.0317026786506176, 0.028409719467163086, 0.06610948592424393, -0.1561686247587204, -0.0286189503967762, -0.036787111312150955, -0.07656122744083405, 0.10951031744480133, 0.03068195842206478, -0.0552353598177433, 0.05972505360841751, 0.019178010523319244, 0.0637751892209053, 0.02767167240381241, -0.010700955986976624, 0.13091015815734863, -0.020410411059856415, -0.02470095083117485, 0.023968834429979324, -0.03428598493337631, 0.007686848286539316, -0.07911434024572372, -0.016903992742300034, -0.053552109748125076, 0.0006097615114413202, -0.012728631496429443, -0.11886287480592728, 0.10261955112218857, 0.05256488174200058, -0.08660358190536499, 0.0668041855096817, 0.009518718346953392, 0.057469308376312256, -0.05213543027639389, -0.08101138472557068, -0.1952497512102127, 0.07567797601222992, -0.002386227250099182, -0.06614108383655548, 0.09562164545059204, 0.009253391996026039, -0.22496384382247925, -0.1237272322177887, 0.07013393193483353, 0.05522551015019417, 0.1427464783191681, 0.06874214857816696, 0.06693394482135773, 0.06246523931622505, 0.038557447493076324, -0.05773235484957695, -0.04217904061079025, -0.009012969210743904, -0.03499868884682655, -0.025379113852977753, 0.014709953218698502, 0.0006916289567016065, 0.024615153670310974, 0.05293162539601326, 0.06861459463834763, 0.0024139350280165672, 0.06029075011610985, 0.1257678121328354, 0.08914344757795334, -0.06580564379692078, 0.0675368532538414, -0.0071394117549061775, -0.026946628466248512, 0.1543837934732437, 0.03557560592889786, -0.02924732118844986, -0.07490380108356476, -0.020528685301542282, -0.09405909478664398, -0.1361406147480011, -0.22707946598529816, 0.0030871459748595953, 0.3044164180755615, -0.01661037653684616, 0.07553410530090332, -0.01095713023096323, 0.04524494707584381, 0.0008963940781541169, 0.0028039440512657166, -0.25713077187538147, 0.20652763545513153, 0.056556858122348785, -0.11140469461679459, 0.07302756607532501, -0.08355920016765594, 0.10989933460950851, 0.002623697044327855, 0.016799814999103546, 0.09677939116954803, 0.1541394144296646, 0.02198784612119198, 0.11209900677204132, 0.04355531185865402, 0.02889949455857277, -0.022282799705863, 0.05363326892256737, -0.057693395763635635, -0.04912516847252846, -0.058291539549827576, 0.06432163715362549, 0.004082903265953064, 0.038057126104831696, -0.29157334566116333, -0.09088354557752609, 0.4278988242149353, 0.0557279959321022, 0.14772504568099976, -0.07453226298093796, 0.24707967042922974, -0.023682208731770515, 0.0517459474503994, -0.1814698874950409, 0.1798832267522812, 0.025603465735912323, -0.06568228453397751, -0.04586783051490784, 0.13106119632720947, 0.03259642422199249, 0.1715109944343567, 0.07980259507894516, 0.023151829838752747, 0.0968937799334526, -0.06045621261000633, 0.2846372723579407, -0.05168547108769417, 0.08813996613025665, -0.2582928240299225, 0.07442761212587357, 0.014008238911628723, -0.07783075422048569, -0.08684580028057098, -0.05654582753777504, -0.1343965381383896, -0.008774694986641407, -0.1989937573671341, -0.0806766152381897, 0.1735624223947525, -0.018970094621181488, 0.3046465516090393, 0.05707520246505737, 0.16050612926483154, 0.010857239365577698, 0.02112250216305256, 0.018052009865641594, 0.08997845649719238, -0.020186707377433777, -0.0807248055934906, 0.01836290769279003, 0.10660048574209213, 0.05610005557537079, 0.05596065893769264, 0.049085039645433426, 0.0036674817092716694, 0.03990058973431587, 0.018735097721219063, 0.28556540608406067, 0.07914312928915024, 0.041582684963941574, -0.17833617329597473, 0.0876941829919815, 0.012928012758493423, -0.07666115462779999, 0.02438679337501526, -0.14349490404129028, -0.09133054316043854, 0.07784229516983032, -0.2167268842458725, -0.01139264740049839, 0.09844732284545898, 0.0024778619408607483, 0.3572268486022949, 0.049928221851587296, -0.03508247062563896, -0.22142420709133148, 0.0033596938010305166, 0.09563986957073212, 0.0238341037184, 0.07877881079912186, -0.08679398894309998, 0.022097745910286903, 0.08717567473649979, 0.0689799040555954, 0.012437352910637856, -0.012283891439437866, 0.004810262005776167, -0.10910903662443161, 0.024414755403995514, 0.32620343565940857, 0.06103005260229111, -0.06453812122344971, 0.03725407272577286, -0.0786166861653328, -0.04210512340068817, -0.01942351646721363, -0.008923139423131943, 0.045142874121665955, -0.12570978701114655, 0.059682365506887436, -0.29651686549186707, -0.0661352127790451, 0.05702756717801094, -0.05016227439045906, 0.358563095331192, 0.03617193549871445, 0.011722083203494549, 0.012482941150665283, -0.03285586088895798, -0.021398156881332397, -0.08435648679733276, 0.010456941090524197, 0.07648895680904388, 0.021816138178110123, 0.08676329255104065, -0.13663449883460999, -0.019698407500982285, -0.03327655792236328, -0.12174539268016815, 0.194191575050354, -0.1323121190071106, 0.2645631730556488, -0.030931804329156876, 0.05097541958093643, -0.3218325078487396, 0.05866299569606781, -0.07305371016263962, -0.18156157433986664, 0.05001187324523926, -0.10698394477367401, -0.26067912578582764, -0.06267625838518143, -0.3295760452747345, -0.16338224709033966, -0.037717703729867935, 0.06253250688314438, 0.3981039524078369, -0.01282554678618908, 0.18091872334480286, 0.21005597710609436, -0.04684895649552345, -0.1466529816389084, 0.17433953285217285, -0.08926653861999512, 0.21621310710906982, -0.06093425303697586, 0.03749760612845421, 0.060578830540180206, -0.046764761209487915, 0.05211943760514259, -0.24776798486709595, 0.12240004539489746, -0.20484481751918793, 0.16361548006534576, 0.07435178011655807, -0.07138971984386444, -0.2866596579551697, -0.07374142110347748, 0.03584117814898491, -0.16588754951953888, -0.10639327764511108, -0.04607989639043808, -0.0966898649930954, -0.2838496267795563, -0.20949360728263855, -0.1360202580690384, -0.03729315474629402, -0.022918425500392914, 0.3244829773902893, 0.024103783071041107, 0.27348944544792175, 0.20721137523651123, 0.049210090190172195, 0.028955690562725067, 0.1715821921825409, -0.07875221222639084, 0.09853993356227875, -0.00032037237542681396, 0.004625679925084114, 0.2041003406047821, 0.05869593843817711, 0.08449012786149979, -0.18392395973205566, 0.11871858686208725, -0.13686534762382507, 0.03191915899515152, 0.03813939541578293, 0.034920431673526764, -0.3573908805847168, -0.045657407492399216, 0.05581409111618996, -0.07835190743207932, -0.254987508058548, 0.023631736636161804, 0.04065737873315811, -0.039496101438999176, -0.2041030079126358, 0.02275639772415161, -0.1040637418627739, -0.004615716636180878, 0.3429379165172577, -0.038780976086854935, 0.23569907248020172, -0.0026813240256160498, -0.06223968788981438, 0.20934897661209106, 0.22895151376724243, -0.0722947046160698, 0.07003116607666016, 0.051356058567762375, 0.11525598168373108, -0.007001918274909258, 0.13221903145313263, -0.07639718055725098, 0.12295603007078171, -0.010770762339234352, -0.03538200259208679, -0.04635053128004074, 0.04597517102956772, 0.003874771296977997, -0.11325433850288391, 0.016765616834163666, 0.042419202625751495, -0.03456461802124977, -0.0637347400188446, 0.014431096613407135, -0.03893054649233818, -0.038975007832050323, -0.086347296833992, -0.01152754295617342, 0.05206448212265968, 0.028623633086681366, 0.25153228640556335, -0.022796906530857086, 0.08009932935237885, 0.011729077436029911, -0.06365610659122467, 0.013308241963386536, 0.10237150639295578, -0.04731318727135658, -0.06695403158664703, 0.04774664714932442, 0.09180216491222382, 0.021415172144770622, 0.16150805354118347, -0.033521126955747604, 0.0852794498205185, 0.09449166804552078, -0.07492197304964066, 0.03037925250828266, -0.06427580118179321, -0.08457013219594955, -0.13465426862239838, 0.09340569376945496, 0.06816167384386063, 0.03283882141113281, -0.048436038196086884, 0.019091060385107994, -0.1530931293964386, 0.04448166489601135, -0.12402531504631042, 0.006919096689671278, -0.06638981401920319, 0.03391055017709732, 0.29605400562286377, 0.0053488463163375854, -0.0307012889534235, 0.04149731248617172, 0.024162981659173965, -0.09435262531042099, 0.057586364448070526, -0.07425767928361893, -0.02974053844809532, 0.06653805822134018, -0.01788264513015747, -0.04675864428281784, 0.1720544695854187, 0.001046501100063324, 0.21394336223602295, 0.14458775520324707, 0.0632428303360939, -0.009573189541697502, -0.028278592973947525, 0.07530220597982407, -0.10308072715997696, -0.007203362416476011, -0.0511045902967453, -0.06072234734892845, -0.02741880528628826, -0.07340874522924423, -0.07714484632015228, -0.08403760194778442, -0.034072257578372955, 0.0576808862388134, -0.043935686349868774, -0.019863441586494446, 0.2782069146633148, -0.014797858893871307, 0.08230995386838913, -0.05285639688372612, -0.01364037673920393, -0.0766415223479271, 0.038536034524440765, 0.004557313397526741, -0.13323847949504852, -0.07240888476371765, 0.028051503002643585, -0.07014152407646179, 0.048935528844594955, -0.020786277949810028, 0.1381915658712387, 0.03610039874911308, 0.04850831255316734, 0.047901637852191925, -0.07869046926498413, 0.021396882832050323, 0.034566231071949005, 0.042062610387802124, 0.014879181981086731, -0.01842554099857807, -0.010804528370499611, -0.013232571072876453, -0.05136261135339737, -0.11041270941495895, -0.0352260023355484, -0.09119708091020584, -0.036795370280742645, -0.06274209916591644, 0.08860941231250763, 0.08551286906003952, -0.07680749148130417, 0.07790844887495041, 0.05696406215429306, -0.07655366510152817, 0.044174931943416595, 0.03704613074660301, -0.030085330829024315, -0.015459327027201653, -0.08165691047906876, -0.1063179299235344, 0.13997966051101685, 0.08185645192861557, 0.16813668608665466, 0.062089595943689346, 0.004071940667927265, -0.014945276081562042, -0.06394824385643005, -0.08322522789239883, -0.0014620973961427808, 0.026300953701138496, 0.04133278876543045, 0.046614695340394974, 0.056628450751304626, -0.009943753480911255, -0.01909586973488331, -0.21454155445098877, -0.05530952289700508, 0.04295084625482559, 0.07331068068742752, 0.07535720616579056, 0.19848860800266266, -0.04577063024044037, 0.03143253177404404, 0.02713964879512787, -0.0357833206653595, -0.019246919080615044, 0.03445011377334595, 0.05882953852415085, -0.15204395353794098, -0.09453693777322769, -0.04656396806240082, -0.07076338678598404, 0.005635483656078577, 0.08059246093034744, 0.055231668055057526, 0.09159015119075775, -0.10340254008769989, 0.014949776232242584, 0.010324656963348389, 0.008410491049289703, -0.021565010771155357, 0.057396892458200455, 0.005825400352478027, 0.009292326867580414, -0.027060873806476593, -0.034229498356580734, -0.045903369784355164, -0.06806525588035583, 0.07711590081453323, 0.054893724620342255, 0.018000528216362, -0.06366069614887238, 0.07102485001087189, -0.0029289796948432922, -0.07298687845468521, 0.017585791647434235, 0.06251025944948196, 0.04542727395892143, -0.01687856763601303, 0.040746621787548065, -0.05319807678461075, -0.03763577342033386, -0.0629778802394867, 0.01829071342945099, -0.04463963583111763, -0.06764012575149536, 0.07455617934465408, -0.06212124601006508, 0.006131775677204132, 0.03158336132764816, -0.016906455159187317, -0.022574856877326965, 0.06591113656759262, 0.0012133866548538208, 0.019911587238311768, 0.025968335568904877, -0.022913724184036255, 0.03128526359796524, -0.04843224585056305, -0.023268941789865494, -0.07391821593046188, -0.06201573461294174, 0.07594367116689682, -0.06745074689388275, -0.08304198831319809, -0.02195192128419876, 0.025230050086975098, -0.08407529443502426, -0.0016490891575813293, -0.07294552028179169, 0.0022434666752815247, 0.08371331542730331, 0.03972294181585312, 0.033928848803043365, 0.027145206928253174, 0.07240479439496994, -0.034628406167030334, -0.0038638338446617126, -0.057805657386779785, 0.07979325205087662, 0.046996958553791046, -0.07801170647144318, -0.07679175585508347, -0.06706283986568451, 0.08247048407793045, 0.0623052641749382, -0.04075692966580391, 0.03460342437028885, 0.056038327515125275, 0.06582676619291306, 0.04754068702459335, 0.017204634845256805, -0.007062867283821106, -0.04087243974208832, -0.0033385232090950012, -0.0569414347410202, -0.06591921299695969, 0.04399339109659195, 0.07889846712350845, 0.07790248841047287, -0.08220749348402023, 0.05057644098997116, -0.0800265446305275, -0.06533945351839066, 0.06361600011587143, -0.02321024239063263, 0.054115764796733856, 0.0652255192399025, -0.04715971276164055, 0.03068426251411438, -0.04299363121390343, -0.01695171743631363, 0.05572202056646347, -0.05640637129545212, -0.05169209465384483, 0.024461328983306885, -0.05223460495471954, 0.06041393429040909, -0.004687897861003876, -0.025834854692220688, 0.0814284011721611, 0.04454263299703598, -0.0559442900121212, -0.0610615611076355, 0.042150549590587616, -0.056102387607097626, 0.06243029981851578, 0.02083037793636322, 0.03999593108892441, 0.02185681462287903, -0.06227412819862366, 0.01591254025697708, 0.010327853262424469, -0.04139280691742897, 0.06934171169996262, 0.007900036871433258, 0.0032922178506851196, 0.02274143695831299, 0.08375736325979233, 0.03072640299797058, 0.08229615539312363, 0.048117928206920624, 0.03395366668701172, 0.025529108941555023, -0.06941977143287659, -0.031066223978996277, 0.004850760102272034, 0.026667796075344086, -0.08387402445077896, -0.049771301448345184, 0.0284397155046463, 0.006119325757026672, 0.06977962702512741, -0.08561691641807556, 0.010641790926456451, 0.08546993881464005, 0.06204184144735336, -0.06229829415678978, 0.024804748594760895, 0.06826549023389816, -0.050955142825841904, -0.003933854401111603, 0.042374350130558014, -0.07162538170814514, -0.0734395757317543, 0.060847289860248566, -0.040456563234329224, -0.06986210495233536, 0.08442632108926773, 0.01517476886510849, 0.029872260987758636, -0.006446391344070435, 0.034897126257419586, 0.0620860829949379, 0.04618323594331741, 0.06288064271211624, -0.051574889570474625, 0.061574019491672516, 0.0051763951778411865, -0.07613839954137802, -0.016643762588500977, -0.029229678213596344, -0.06665094941854477, -0.08553437888622284, 0.06793045252561569, 0.06995504349470139, 0.03691317141056061, 0.06380579620599747, -0.02148379385471344, 0.06472320109605789, 0.021456480026245117, -0.06062202900648117, 0.048828743398189545, 0.08314868062734604, -0.054197680205106735, -0.06219574809074402, -0.05566015839576721, 0.005662746727466583, 0.009349368512630463, -0.025967251509428024, 0.023587949573993683, -0.06301973015069962, 0.02513860911130905, -0.07187667489051819, 0.02950068563222885, -0.011043988168239594, -0.014187797904014587, -0.039345480501651764, 0.047108493745326996, -0.04405934736132622, 0.03286341577768326, 0.003346189856529236, 0.0025437697768211365, -0.047506242990493774, 0.0366206169128418, 0.06405169516801834, 0.0835280641913414, 0.025472216308116913, 0.08085159212350845, -0.048014894127845764, -0.06032996624708176, -0.03593963757157326, 0.04935824126005173, 0.060221605002880096, 0.025449112057685852, 0.05781521648168564, 0.010885119438171387, -0.02129482477903366, -0.04056514427065849, -0.054872848093509674, -0.011008374392986298, -0.04638845473527908, 0.001419462263584137, 0.061182014644145966, -0.01666664332151413, 0.05037360638380051, 0.009365009143948555, 0.03313019126653671, -0.027306418865919113, 0.0689765214920044, 0.1107102632522583, 0.07124064117670059, 0.06427522748708725, 0.03257950395345688, 0.06106126680970192, 0.0037730878684669733, 0.079322449862957, -0.07002228498458862, -0.02038583904504776, 0.015781592577695847, 0.006401981692761183, 0.07940620929002762, 0.019183509051799774, 0.08532983809709549, 0.08390749245882034, -0.011762276291847229, 0.07855803519487381, -0.06192729249596596, 0.018469631671905518, 0.01786142587661743, 0.013380356132984161, -0.018716104328632355, 0.04873206466436386, 0.01081831008195877, -0.0742047131061554, -0.019560299813747406, -0.031097451224923134, 0.034765563905239105, 0.08192040771245956, 0.0018226206302642822, 0.07226485759019852, 0.43034178018569946, -0.36105877161026, -0.012445829808712006, 0.0039057657122612, 0.04873240739107132, -0.4288601577281952, -0.01844923570752144, -0.06627385318279266, 0.0226580873131752, 0.002882838249206543, -0.21987903118133545, -0.16104719042778015, -0.031011689454317093, -0.05292318016290665, -0.12657275795936584, 0.008781813085079193, 0.06336376816034317, 0.03879452124238014, -0.07522936910390854, 0.4394136667251587, -0.06728163361549377, 0.3006886839866638, 0.009022007696330547, 0.03898560255765915, -0.06866979598999023, -0.11976507306098938, -0.005229807458817959, 0.08222928643226624, -0.14619114995002747, 0.13576693832874298, -0.04802415519952774, 0.03437454253435135, 0.39933812618255615, -0.3433740735054016, -0.03494726121425629, 0.030495278537273407, -0.0760638490319252, -0.2541784346103668, 0.0731053277850151, -0.06168864667415619, 0.059764813631772995, 0.017332613468170166, -0.16120895743370056, -0.1664031445980072, 0.0057732462882995605, -0.058033134788274765, -0.05053794011473656, 0.07636226713657379, 0.05543101578950882, 0.04163062572479248, -0.02101106196641922, 0.3745916485786438, 0.041338320821523666, 0.19145865738391876, -0.08939318358898163, 0.061314161866903305, -0.07537464797496796, -0.04330126568675041, -0.030735047534108162, -0.06509211659431458, -0.020129937678575516, 0.10291050374507904, 0.06968121975660324, 0.1141112893819809, 0.04169119894504547, 0.0800173208117485, -0.05866929516196251, 0.034289948642253876, 0.03359265625476837, -0.11004222184419632, 0.0252862349152565, -0.03573980927467346, -0.0352914072573185, -0.051100242882966995, 0.02006562612950802, -0.09643832594156265, -0.0033713795710355043, -0.08338267356157303, -0.2051720917224884, 0.13706046342849731, -0.01591286063194275, -0.00469964137300849, 0.020658276975154877, 0.06044458597898483, 0.019537119194865227, -0.0895593911409378, -0.13820527493953705, -0.07569240033626556, 0.033829160034656525, -0.00797480158507824, -0.010382642038166523, -0.06715047359466553, -0.09602424502372742, 0.17743797600269318, 0.07967919856309891, 0.037021562457084656, 0.12602703273296356, -0.007004486862570047, 0.05498800054192543, 0.06375221163034439, 0.00015228986740112305, -0.12344518303871155, 0.047631002962589264, 0.029895659536123276, 0.05389142781496048, 0.08114005625247955, 0.08190909773111343, -0.16817812621593475, -0.07196784764528275, -0.09469235688447952, -0.19269995391368866, 0.3052431643009186, 0.005907334387302399, 0.2500341534614563, 0.027886122465133667, -0.018310153856873512, 0.14836940169334412, -0.035523176193237305, -0.14509715139865875, 0.10289818048477173, -0.043264973908662796, -0.10240082442760468, -0.19203253090381622, -0.07307083904743195, -0.02247689664363861, 0.20233222842216492, 0.09064780920743942, 0.005168871022760868, 0.08214002847671509, -0.019542619585990906, -0.06352730095386505, -0.0379052609205246, 0.05307357758283615, -0.15042369067668915, -0.03256373852491379, 0.02017003297805786, 0.05490061268210411, 0.11738230288028717, 0.00995651725679636, -0.17057302594184875, -0.05888277664780617, 0.028321485966444016, 0.09901921451091766, 0.25017720460891724, -0.03364816680550575, 0.34759581089019775, -0.10401367396116257, 0.11085189133882523, 0.06503047794103622, 0.056263167411088943, -0.0223369337618351, 0.1396891176700592, -0.0008039188105612993, -0.07367264479398727, -0.10606424510478973, -0.036238789558410645, -0.0014493208145722747, 0.043725673109292984, -0.004002516623586416, 0.13580837845802307, 0.17063835263252258, 0.09032228589057922, 0.004077310673892498, -0.11309558898210526, -0.0820520892739296, -0.1861027628183365, -0.07584622502326965, 0.032896704971790314, 0.08359985053539276, 0.08814752101898193, -0.13377144932746887, -0.3022078573703766, 0.04528289660811424, 0.023410070687532425, -0.08559522777795792, 0.25651344656944275, -0.07696880400180817, 0.05971485748887062, 0.007702103350311518, 0.039297811686992645, -0.0017349662957713008, -0.02222457341849804, -0.1128038689494133, 0.15746283531188965, 0.07461670786142349, -0.05399155244231224, -0.13424678146839142, -0.065803661942482, 0.21897418797016144, -0.0893377736210823, 0.06213691830635071, -0.2045302391052246, 0.31694746017456055, 0.05440844967961311, -0.03500485420227051, 0.053960829973220825, -0.1817668378353119, -0.17909154295921326, 0.07995280623435974, 0.08275282382965088, -0.0027327865827828646, 0.047218769788742065, -0.17699286341667175, -0.18616388738155365, -0.026417629793286324, -0.08212906867265701, -0.30186519026756287, 0.17656318843364716, -0.04592909291386604, -0.0033198317978531122, -0.010518441908061504, 0.021466098725795746, -0.16522538661956787, 0.03698804974555969, -0.28938204050064087, -0.045098669826984406, 0.08817797154188156, -0.018130984157323837, 0.15254850685596466, 0.08038884401321411, 0.18188366293907166, 0.0209302119910717, -0.02966892346739769, -0.17555253207683563, 0.18456223607063293, 0.027445562183856964, -0.08160284906625748, 0.06358174234628677, -0.10615326464176178, -0.060604602098464966, 0.04017440974712372, -0.04179595410823822, -0.02789481170475483, 0.050145603716373444, -0.17732128500938416, -0.19255331158638, -0.038702595978975296, -0.09976360201835632, 0.030758077278733253, 0.140239879488945, -0.038767337799072266, -0.042878102511167526, 0.06978590041399002, 0.0020694632548838854, -0.1938086748123169, 0.06467568129301071, -0.20297366380691528, 0.09735982120037079, 0.10161057114601135, 0.05530267208814621, 0.11056725680828094, -0.07967805862426758, 0.1746712625026703, 0.18025606870651245, 0.0438191182911396, -0.051684122532606125, 0.14954543113708496, -0.0019512681756168604, -0.03608561307191849, 0.020480386912822723, -0.016572436317801476, -0.14572113752365112, -0.02656593918800354, -0.12008390575647354, 0.01393648236989975, -0.05249623954296112, -0.09630198776721954, -0.21248696744441986, -0.04843207076191902, -0.1616196483373642, 0.08033406734466553, 0.14925450086593628, -0.023285213857889175, 0.0975186675786972, -0.07135192304849625, 0.057143330574035645, -0.2526598274707794, -0.08190841227769852, -0.16372908651828766, 0.22142097353935242, -0.015746310353279114, -0.09649775922298431, 0.04532477632164955, 0.17529089748859406, -0.03258207440376282, 0.07551726698875427, 0.05897471681237221, -0.13998933136463165, 0.18793708086013794, -0.040040649473667145, 0.1074591800570488, -0.10234338790178299, -0.15364807844161987, -0.055062659084796906, -0.02820059284567833, -0.3248230814933777, -0.059175919741392136, -0.058503832668066025, 0.1659570336341858, -0.027425652369856834, -0.028362903743982315, -0.10244772583246231, -0.07481256127357483, 0.12953418493270874, -0.02317391335964203, 0.026741789653897285, 0.07354502379894257, -0.05933644622564316, -0.04509349539875984, -0.13844840228557587, 0.059080854058265686, 0.27086108922958374, 0.08104507625102997, -0.23542235791683197, -0.04802378639578819, 0.22787976264953613, -0.10275327414274216, 0.21176324784755707, -0.07273305207490921, -0.07685918360948563, 0.02331809140741825, 0.04292323812842369, 0.1069861501455307, -0.19327616691589355, -0.19552654027938843, 0.10725367814302444, 0.11088749766349792, 0.015523925423622131, -0.1885794997215271, -0.023676611483097076, 0.10549847781658173, -0.025694714859128, -0.044019438326358795, 0.04223329946398735, -0.04911921173334122, 0.058973949402570724, -0.06965449452400208, 0.09499803930521011, 0.00790966022759676, 0.057716771960258484, 0.06599865853786469, 0.032443568110466, -0.04290977865457535, 0.34179702401161194, 0.08829277008771896, -0.44148239493370056, -0.1036902591586113, 0.30571576952934265, 0.0748836100101471, 0.13738691806793213, -0.008932122960686684, 0.008452028967440128, -0.11576452851295471, 0.06857088953256607, 0.05434899404644966, -0.21880671381950378, -0.18963505327701569, 0.16289587318897247, -0.0648827850818634, 0.20499944686889648, -0.045292336493730545, -0.017883388325572014, 0.03833756968379021, 0.026590460911393166, -0.02662961184978485, -0.0564701072871685, 0.1884317398071289, 0.09857136756181717, -0.0038086771965026855, 0.11527719348669052, -0.059828564524650574, -0.17919066548347473, 0.11181266605854034, 0.06489548832178116, -0.1251102089881897, 0.24887897074222565, -0.008532010950148106, -0.4528614282608032, 0.06595860421657562, 0.10075309872627258, -0.04013502225279808, 0.037999123334884644, 0.04156172275543213, 0.08932837843894958, 0.01847386173903942, -0.017964184284210205, 0.06946368515491486, -0.07840050011873245, -0.1870422512292862, 0.07275006920099258, -0.07104218751192093, 0.09500341862440109, 0.015526642091572285, -0.10763546824455261, -0.06225096806883812, -0.07129254192113876, 0.0398939773440361, -0.035772696137428284, 0.24148701131343842, -0.011918631382286549, 0.03905169665813446, -0.021308455616235733, 0.02272803708910942, -0.0062099117785692215, 0.244273841381073, 0.03195657581090927, -0.17672057449817657, 0.25530490279197693, 0.05842059478163719, -0.342593252658844, -0.08457312732934952, 0.011971307918429375, -0.12192823737859726, 0.07357130199670792, -0.02240009978413582, 0.03591637313365936, 0.07859653979539871, 0.05647149309515953, 0.06495121866464615, -0.004094718489795923, 0.019153401255607605, 0.15335571765899658, -0.07191044837236404, -0.014025992713868618, -0.14547111093997955, -0.21341677010059357, 0.008395318873226643, -0.3072388768196106, 0.047440819442272186, -0.0825062021613121, 0.1340482532978058, -0.048003051429986954, -0.011842295527458191, 0.031571321189403534, 0.0044341194443404675, -0.11977957934141159, 0.27576860785484314, -0.049978602677583694, -0.13224440813064575, 0.34115898609161377, 0.04833316057920456, -0.2584463059902191, -0.07034725695848465, 0.09405820816755295, -0.06173983961343765, 0.23002402484416962, 0.012174212373793125, 0.06271925568580627, 0.2420048713684082, 0.16778266429901123, 0.0665472149848938, -0.1543491780757904, 0.014310743659734726, 0.2251531481742859, 0.011569846421480179, 0.10515841096639633, -0.1026894748210907, -0.0786333978176117, 0.09372808784246445, -0.09503266215324402, 0.07182499021291733, -0.10487277805805206, 0.03618030995130539, 0.04595097899436951, -0.08025754243135452, 0.045526713132858276, 0.04907459020614624, -0.24677501618862152, -0.1823442280292511, -0.2268431931734085, 0.002884122310206294, 0.1590200513601303, 0.04435037076473236, -0.13726285099983215, -0.1042490229010582, 0.09794629365205765, -0.2301890254020691, 0.13067243993282318, 0.032245978713035583, 0.026938173919916153, 0.2207060158252716, 0.03137858211994171, 0.0951828882098198, 0.022319460287690163, 0.0036145898047834635, 0.1257995218038559, 0.0374138280749321, 0.07916247844696045, -0.04817719757556915, -0.04094116389751434, 0.00891262199729681, -0.017163332551717758, 0.029825620353221893, -0.10364825278520584, 0.10973469167947769, -0.0156051404774189, 0.06335427612066269, 0.19868573546409607, 0.031799234449863434, -0.24024468660354614, 0.024785110726952553, -0.12708956003189087, -0.01821739226579666, -0.06043833866715431, 0.03058474138379097, -0.04862508177757263, 0.0039773061871528625, -0.02090100571513176, -0.2663968801498413, 0.03337406739592552, 0.05649464204907417, 0.18680600821971893, 0.11985726654529572, 0.2956462800502777, 0.03466128557920456, -0.02883949875831604, -0.07496078312397003, 0.07580056041479111, 0.055891603231430054, -0.07851318269968033, 0.019865732640028, 0.13922686874866486, 0.06541626155376434, -0.1485389620065689, -0.10245378315448761, -0.16695807874202728, -0.04061570018529892, 0.052789799869060516, 0.026113897562026978, 0.29917895793914795, -0.03734349459409714, 0.05237383395433426, 0.040577005594968796, -0.08112319558858871, -0.1037401333451271, -0.26904556155204773, 0.2421344667673111, -0.2309902310371399, -0.049655888229608536, 0.11622609943151474, -0.17408719658851624, -0.1021447479724884, 0.04770796746015549, 0.11280179023742676, 0.1146843433380127, 0.25075095891952515, -0.07626199722290039, -0.05392002686858177, -0.007301195990294218, -9.217588376486674e-05, -0.08404897898435593, 0.04972628876566887, -0.014825447462499142, 0.05651586130261421, -0.030229872092604637, -0.03810106962919235, 0.003390948986634612, -0.10271133482456207, 0.0296370480209589, -0.08802934736013412, -0.0615897998213768, 0.1865353137254715, -0.06701099872589111, 0.010212050750851631, -0.01189446821808815, 0.012418314814567566, -0.18537811934947968, -0.3081923723220825, 0.2620411217212677, -0.20851479470729828, -0.23984549939632416, 0.01826777495443821, -0.12685886025428772, -0.07219723612070084, 0.033039938658475876, 0.22465880215168, 0.1975203901529312, 0.017710525542497635, -0.017871497198939323, -0.04649599269032478, -0.00614145677536726, -0.05895666033029556, 0.04192280396819115, 0.06869412213563919, -0.180914968252182, 0.11866581439971924, 0.008817741647362709, -0.0221337229013443, 0.021688347682356834, -0.045995987951755524, -0.08039862662553787, 0.15987174212932587, -0.025975961238145828, 0.1925610899925232, 0.0031260624527931213, -0.014465517364442348, -0.08955616503953934, 0.005497740115970373, -0.18170353770256042, -0.006491912994533777, 0.05159670487046242, -0.10749869793653488, -0.13123032450675964, 0.09577398747205734, -0.12272868305444717, -0.018722064793109894, 0.015859026461839676, 0.2604236900806427, 0.07746542990207672, 0.028414489701390266, -0.08336780220270157, -0.041146617382764816, 0.015216841362416744, -0.04911231994628906, 0.08186361938714981, 0.07988875359296799, -0.04064318910241127, 0.3309032917022705, -0.025107312947511673, -0.177391916513443, 0.00240125204436481, 0.09401014447212219, 0.08652622997760773, 0.03108268231153488, 0.005341522395610809, 0.19887688755989075, 0.03123243898153305, -0.025298893451690674, -0.08784893155097961, -0.0075193848460912704, -0.05114423856139183, 0.11270417273044586, 0.09653272479772568, -0.0746985673904419, -0.10773277282714844, 0.026725895702838898, -0.06816300004720688, 0.028628552332520485, -0.06544825434684753, 0.04925845190882683, 0.0742369145154953, 0.134807288646698, 0.02801964432001114, 0.03352460265159607, 0.0017911215545609593, -0.139536514878273, 0.007364094257354736, 0.06730087846517563, -0.08607489615678787, 0.14097459614276886, 0.006713066250085831, -0.12272311747074127, -0.12117046862840652, 0.11561176180839539, 0.0018762486288323998, 0.01398042868822813, 0.034033194184303284, 0.1451946347951889, -0.04078001156449318, 0.031496744602918625, -0.006854323670268059, -0.05155233293771744, -0.02331916242837906, 0.24312132596969604, 0.1353904753923416, -0.0852413922548294, 0.05244997888803482, -0.06068088859319687, 0.1786704659461975, -0.11538323760032654, 0.04238901287317276, 0.38776159286499023, 0.16565078496932983, 0.06239078566431999, 0.018873676657676697, -0.0736747682094574, 0.0397837795317173, -0.12976035475730896, 0.11069253832101822, -0.017666466534137726, 0.020001279190182686, 0.07208911329507828, -7.632627239217982e-05, -0.10576969385147095, 0.05646407604217529, -0.10967997461557388, -0.1799623966217041, -0.0723554790019989, 0.0009494125843048096, 0.18829962611198425, -0.05734620988368988, -0.07218912988901138, -0.031218919903039932, 0.10544037073850632, -0.1732492595911026, 0.125590980052948, -0.022717654705047607, -0.11034365743398666, 0.040862418711185455, 0.026202499866485596, 0.14795176684856415, -0.07704293727874756, 0.08364858478307724, 0.1871890425682068, 0.09637068212032318, -0.006970024202018976, -0.044329702854156494, 0.0686739906668663, -0.08819153159856796, -0.07673032581806183, 0.02818167954683304, -0.0730576366186142, -0.06697757542133331, 0.0014698287704959512, -0.01960756443440914, 0.10247604548931122, 0.0052717640064656734, 0.012312062084674835, 0.004725009202957153, -0.08198342472314835, -0.019053936004638672, 0.08387836813926697, 0.05755067616701126, -0.08045659959316254, -0.07453785836696625, -0.008569687604904175, -0.06769812852144241, -0.017891354858875275, -0.04607577994465828, 0.017411652952432632, 0.03240213543176651, -0.04573237895965576, 0.019270211458206177, 0.005006276071071625, 0.041895680129528046, 0.013734206557273865, -0.07923087477684021, -0.045693863183259964, 0.0030694380402565002, 0.054752759635448456, -0.045980554074048996, -0.02339794486761093, 0.02501031756401062, -0.01999766379594803, 0.058873869478702545, 0.03308793157339096, -0.016421273350715637, -0.01705363392829895, -0.04679470136761665, -0.03470282256603241, 0.014493174850940704, -0.0397641584277153, 0.07388480752706528, -0.046760763972997665, -0.053799405694007874, 0.08197765797376633, 0.026573628187179565, -0.07795053720474243, -0.0027159973978996277, -8.513033390045166e-05, -0.01997040957212448, 0.04919614642858505, 0.07230345159769058, 0.07721296697854996, 0.04061497002840042, -0.013815529644489288, -0.04924314469099045, -0.0205705463886261, -0.08567646890878677, -0.0046174898743629456, 0.07944787293672562, 0.030755266547203064, -0.020884916186332703, -0.06955911964178085, -0.033266332000494, -0.044085677713155746, -0.021970346570014954, -0.02108331024646759, 0.05105862766504288, -0.01754482090473175, 0.07324983924627304, 0.02381778508424759, -0.03974778205156326, -0.06570875644683838, -0.0430394671857357, 0.05838445574045181, 0.008487090468406677, -0.032360199838876724, -0.07275897264480591, 0.04045363515615463, 0.07540924102067947, 0.0006674006581306458, 0.04058993607759476, -0.0733623206615448, -0.08559037744998932, 0.06556104868650436, -0.011792272329330444, 0.06937270611524582, 0.0030746683478355408, -0.009110413491725922, -0.0014716535806655884, 0.0296194925904274, -0.009528584778308868, -0.06914666295051575, -0.08194290101528168, -0.022912636399269104, -0.017102740705013275, -0.052418194711208344, 0.051433317363262177, 0.039340145885944366, 0.06060927361249924, 0.037443555891513824, -0.03764421492815018, 0.035163864493370056, -0.055552925914525986, 0.054288752377033234, 0.08142361789941788, 0.0481717512011528, 0.0072950273752212524, 0.07125703245401382, -0.07094307243824005, 0.053040631115436554, 0.05619174987077713, 0.03474436700344086, 0.010522641241550446, -0.02773316204547882, 0.07777481526136398, 0.04176168888807297, -0.012692064046859741, 0.008366718888282776, -0.0034437477588653564, -0.004480145871639252, 0.0024001896381378174, -0.04769136756658554, -0.04889184981584549, -0.08348482847213745, 0.001270979642868042, -0.029339566826820374, 0.0007645338773727417, -0.0773770734667778, -0.08045691251754761, 0.05877191573381424, 0.0591304674744606, 0.07038409262895584, 0.03667585551738739, 0.07052063196897507, 0.048487938940525055, -0.08009744435548782, -0.08427828550338745, -0.012793280184268951, -0.07847911864519119, -0.05092781037092209, -0.008500486612319946, 0.04112962633371353, -0.0387871079146862, 0.06353842467069626, 0.039394013583660126, 0.06499090045690536, -0.062279097735881805, 0.02582702785730362, 0.19272758066654205, 0.12480531632900238, 0.07324429601430893, -0.2024364471435547, -0.27467870712280273, -0.06153073534369469, 0.03377299755811691, -0.008619487285614014, -0.015056207776069641, 0.06243818998336792, -0.0019189940067008138, -0.042797837406396866, 0.05854938551783562, -0.05735277384519577, -0.06513092666864395, 0.08318928629159927, 0.11640176922082901, -0.012239554896950722, 0.15608803927898407, -0.13306066393852234, 0.07305381447076797, -0.02396959625184536, -0.036967407912015915, -0.07394691556692123, 0.26094311475753784, -0.04678785428404808, 0.06266999244689941, -0.06876344978809357, 0.12805543839931488, 0.25891798734664917, -0.00604875385761261, 0.038545116782188416, 0.18229630589485168, 0.19740311801433563, -0.07876910269260406, -0.14001987874507904, 0.3678208589553833, -0.46320804953575134, 0.03301999717950821, -0.010567210614681244, -0.0360490158200264, -0.3422665596008301, -0.08109646290540695, -0.02993868663907051, 0.0973188653588295, 0.03321094065904617, -0.23384736478328705, -0.12698917090892792, -0.046464987099170685, 0.09474730491638184, 0.20598919689655304, -0.24112360179424286, 0.08032826334238052, 0.04998737946152687, 0.023879632353782654, 0.3129390478134155, 0.2006123811006546, 0.20409466326236725, 0.0917915627360344, 0.07312246412038803, 0.19360297918319702, 0.0007800040184520185, 0.12348182499408722, 0.01922946609556675, -0.0683840960264206, 0.17479443550109863, -0.015112347900867462, 0.005307680461555719, 0.3321051299571991, -0.17622235417366028, 0.0820528045296669, -0.04322608560323715, -0.019734088331460953, -0.27083247900009155, 0.07890242338180542, -0.019131695851683617, 0.032718151807785034, 0.05108410865068436, -0.20309221744537354, -0.11127456277608871, 0.004964797291904688, -0.00914000440388918, -0.06572709232568741, 0.0026993060018867254, 0.04300905019044876, 0.08326604217290878, 0.06918265670537949, 0.2796156704425812, 0.11172398179769516, -0.08300624787807465, -0.015034387819468975, -0.01335256639868021, 0.10969812422990799, -0.11134794354438782, -0.08988124877214432, 0.06918223947286606, 0.0766448900103569, 0.037585675716400146, -0.003084704279899597, 0.015800243243575096, 0.007254069671034813, -0.1002637967467308, 0.03836505860090256, 0.024984780699014664, 0.03632236272096634, -0.03140096738934517, -0.04000575840473175, 0.13644196093082428, -0.2420189529657364, 0.016291320323944092, 0.02835959568619728, -0.01826706901192665, 0.05910777300596237, -0.12664839625358582, 0.17729274928569794, 0.20840831100940704, -0.07318809628486633, 0.06355048716068268, -0.06683143228292465, -0.12999467551708221, -0.03973661735653877, 0.06719545274972916, 0.033339522778987885, -0.09472282975912094, -0.0977504774928093, -0.1573001891374588, -0.02858169749379158, -0.057200364768505096, -0.022808153182268143, -0.001763976993970573, 0.021770330145955086, 0.11419451236724854, 0.20174053311347961, -4.7190915211103857e-05, -0.028028851374983788, -0.11603768169879913, -0.006789942737668753, -0.09859807044267654, -0.06478754431009293, 0.05454644560813904, -0.25664880871772766, 0.04210871458053589, 0.09782152622938156, 0.048047617077827454, -0.026961401104927063, -0.17417694628238678, 0.10016828775405884, 0.221827894449234, -0.06025931239128113, -0.016307825222611427, -0.04689411446452141, -0.08184909075498581, 0.05537114664912224, -0.08860231190919876, -0.07476110756397247, -0.07332879304885864, -0.03196001797914505, -0.3290257751941681, -0.1285339742898941, -0.10827330499887466, 0.100234754383564, 0.017817409709095955, 0.010425545275211334, 0.09243503212928772, 0.019726978614926338, -0.12119399011135101, -0.06673086434602737, -0.23011691868305206, -0.09314047545194626, 0.02444424293935299, 0.029485972598195076, -0.11203732341527939, -0.041909608989953995, 0.12004654854536057, 0.14838868379592896, 0.10867513716220856, -0.08451284468173981, 0.02913833037018776, 0.32058826088905334, 0.2589155435562134, 0.035814233124256134, -0.014911131002008915, 0.05421728268265724, -0.10928720235824585, -0.0122193219140172, -0.08575069159269333, -0.013490863144397736, -0.012257900089025497, -0.09745033085346222, -0.14970797300338745, -0.18525910377502441, -0.03342823311686516, 0.06386051326990128, 0.09247131645679474, -0.05874642729759216, -0.0963394045829773, -0.006483671721071005, -0.05532023683190346, -0.1071116253733635, -0.03648841008543968, -0.06572281569242477, -0.08210413157939911, -0.02640836499631405, -0.13249893486499786, -0.16891084611415863, 0.07636697590351105, -0.020153917372226715, 0.054356593638658524, -0.32563140988349915, -0.11279512196779251, 0.2679695785045624, 0.2218509167432785, 0.005552858114242554, -0.1770990788936615, 0.05858951807022095, 0.055206261575222015, -0.25483930110931396, 0.03349830210208893, 0.06526422500610352, -0.02044219709932804, -0.08907514065504074, -0.14540931582450867, -0.2442416250705719, 0.011290036141872406, 0.21226251125335693, 0.1202259436249733, -0.020088249817490578, 0.045498088002204895, 0.31062090396881104, -0.03622298315167427, -0.021923433989286423, -0.176683247089386, 0.171121284365654, -0.12910176813602448, -0.14326435327529907, -0.05438812077045441, 0.02013973332941532, 0.0796000063419342, -0.24760006368160248, 0.0015479483408853412, -0.14794683456420898, 0.013467824086546898, -0.06813134998083115, 0.14447732269763947, 0.0016931518912315369, -0.09668656438589096, 0.05799237638711929, 0.0872495174407959, -0.22342288494110107, 0.03742203488945961, -0.1772555112838745, 0.10868623852729797, -0.011564560234546661, -0.1884000450372696, -0.005984200630337, -0.12547245621681213, 0.15828140079975128, 0.10219940543174744, 0.02411099337041378, -0.2808170020580292, 0.21046949923038483, -0.0810270830988884, -0.05583636462688446, -0.05336141958832741, 0.10217727720737457, 0.1358189880847931, -0.04856815189123154, -0.18254031240940094, -0.049654558300971985, 0.04850827530026436, -0.10079415887594223, 0.028896810486912727, -0.0022448876406997442, 0.15009590983390808, 0.12506309151649475, 0.08698711544275284, 0.0621095672249794, -0.10527371615171432, -0.016861960291862488, -0.09515783935785294, -0.11522294580936432, -0.029680103063583374, -0.004236722365021706, 0.028682662174105644, -0.10324961692094803, 0.048706986010074615, -0.11153236776590347, -0.18387313187122345, 0.16698569059371948, 0.11989155411720276, 0.07160987704992294, 0.00970055814832449, 0.09435530751943588, -0.1217321828007698, -0.03061380237340927, -0.05498452112078667, 0.010055383667349815, 0.07306206226348877, -0.06216038390994072, -0.09499135613441467, -0.04160090163350105, -0.045725949108600616, 0.18568101525306702, -0.0901058241724968, -0.12117403000593185, 0.04154617711901665, -0.0021172554697841406, -0.11628217995166779, 0.009464144706726074, -0.12975025177001953, 0.006704914849251509, 0.22196443378925323, -0.22541281580924988, -0.08359894156455994, -0.05471121519804001, 0.1319057047367096, -0.12972326576709747, -0.1819046586751938, -0.00238883588463068, 0.046553440392017365, 0.190322607755661, -0.019220693036913872, 0.08486313372850418, -0.1495470106601715, 0.09860032051801682, -0.16606338322162628, 0.09546974301338196, -0.05656173825263977, 0.011776790022850037, -0.11087480187416077, 0.14499914646148682, 0.0020657728891819715, 0.10736675560474396, -0.03692738711833954, 0.0227598138153553, -0.0872219130396843, -0.010609385557472706, 0.12373994290828705, 0.1119718924164772, -0.11299768835306168, 0.005370408296585083, -0.1105186864733696, 0.007799074053764343, 0.13627895712852478, -0.05596870929002762, -0.1101563572883606, 0.07511594146490097, 0.012015778571367264, 0.06965381652116776, -0.3404117822647095, 0.08824747055768967, 0.13010172545909882, 0.04123588651418686, 0.17644035816192627, 0.07164368033409119, -0.14392556250095367, 0.08474745601415634, -0.06500360369682312, 0.06079501658678055, -0.10358388721942902, 0.06537463515996933, -0.2032766193151474, -0.30734577775001526, -0.0021051543299108744, -0.15055519342422485, -0.2053358256816864, -0.19489416480064392, -0.08330326527357101, -0.24850350618362427, -0.03679296374320984, 0.0826149582862854, -0.2382437139749527, -0.05434463173151016, 0.08535142242908478, -0.07138174027204514, 0.18082807958126068, 0.06733905524015427, 0.08494777232408524, 0.10478382557630539, 0.13236601650714874, 0.01950952224433422, -0.1990351378917694, 0.09937187284231186, -0.1550682932138443, -0.04753764346241951, 0.1356421858072281, -0.04495836794376373, 0.07979856431484222, 0.006236856337636709, 0.11110100150108337, -0.020018253475427628, -0.10544820874929428, -0.25938788056373596, 0.10609406977891922, -0.31746646761894226, 0.051334165036678314, -0.3049485683441162, -0.2239605039358139, -0.16430261731147766, -0.002699862001463771, -0.1352563202381134, 0.006230139639228582, 0.09466739743947983, -0.04614836350083351, 0.07482076436281204, 0.04160623997449875, -0.06974536180496216, 0.06883593648672104, -0.11581192910671234, 0.07136183977127075, 0.04996580258011818, -0.022574344649910927, 0.048133485019207, -0.1214168593287468, -0.15298625826835632, -0.043739430606365204, -0.11822622269392014, 0.11476382613182068, -0.012849882245063782, 0.021656299009919167, 0.07835692167282104, 0.031358473002910614, -0.10331973433494568, -0.2176990956068039, -0.3242717683315277, -0.09820007532835007, -0.14447635412216187, -0.30698448419570923, -0.21637633442878723, -0.2511132061481476, -0.18376857042312622, 0.14369596540927887, -0.25476863980293274, 0.154217928647995, 0.23904451727867126, -0.04948470741510391, 0.04343334585428238, -0.0015085128834471107, -0.039122480899095535, -0.021079184487462044, -0.16395322978496552, 0.10041375458240509, 0.03160969913005829, 0.05194225534796715, 0.05527321994304657, 0.01843463070690632, -0.03248995542526245, 0.01640436425805092, -0.09036577492952347, 0.020008180290460587, -0.05579612776637077, -0.019015872851014137, 0.1394769251346588, 0.0991097167134285, -0.0632493644952774, -0.08442661911249161, -0.20123907923698425, -0.04314245656132698, -0.061620090156793594, -0.16100509464740753, -0.08247768878936768, -0.4114442467689514, -0.022494740784168243, -0.033212337642908096, -0.06496790796518326, 0.13845546543598175, 0.11359727382659912, -0.06423448771238327, -0.022319719195365906, -0.042720645666122437, -0.022769181057810783, -0.08171147853136063, 0.033710263669490814, 0.053819749504327774, 0.017815425992012024, 0.09664145112037659, 0.04654949903488159, -0.10990496724843979, -0.17439374327659607, 0.01106224674731493, -0.1323583722114563, -0.02540755085647106, -0.05623099207878113, 0.01587996631860733, 0.0898117795586586, 0.00042508362093940377, 0.06912145018577576, -0.05741500109434128, -0.14676690101623535, -0.08869901299476624, -0.01977192424237728, -0.007652436848729849, -0.12750418484210968, -0.28249168395996094, -0.07194355130195618, -0.09273737668991089, -0.0648496225476265, 0.07743287831544876, -0.057850033044815063, -0.02771315723657608, -0.05919383838772774, -0.08590427041053772, 0.005577190779149532, -0.04020928591489792, 0.114338718354702, 0.07842081040143967, 0.12735114991664886, 0.07292115688323975, 0.21285410225391388, -0.05155910924077034, -0.24009445309638977, 0.05426426976919174, -0.24176904559135437, -0.20969927310943604, 0.032169159501791, -0.01722298376262188, 0.10998833924531937, 0.11698228120803833, -0.08714290708303452, 0.030100766569375992, -0.043504707515239716, -0.2645539939403534, -0.04785354807972908, 0.12903708219528198, -0.08463415503501892, -0.006320847198367119, -0.08759967237710953, -0.05101118981838226, -0.1271212249994278, 0.11207786947488785, -0.052528902888298035, -0.26293185353279114, -0.04008214920759201, 0.25935986638069153, -0.09034205228090286, -0.12661191821098328, 0.09631312638521194, -0.0948561578989029, -0.0018917517736554146, 0.07637105137109756, 0.25328439474105835, 0.1327998787164688, -0.05520901083946228, -0.028930367901921272, -0.2747102975845337, -0.3978857100009918, 0.027459923177957535, 0.12004964798688889, 0.13949909806251526, 0.11043806374073029, 0.036081403493881226, -0.11389665305614471, -0.053772393614053726, -0.28466713428497314, -0.09004337340593338, 0.18580879271030426, -0.07384943217039108, 0.0020055673085153103, -0.15431606769561768, 0.0959700420498848, -0.05458119139075279, 0.15890942513942719, 0.015671225264668465, -0.036494180560112, 0.04660526663064957, 0.376531720161438, 0.0010771590750664473, -0.09049423038959503, 0.29950278997421265, -0.004671590868383646, -0.1262783259153366, -0.010633585043251514, -0.009606830775737762, -0.009988697245717049, -0.19013260304927826, -0.042453646659851074, -0.1500403732061386, -0.15945042669773102, 0.03587530553340912, 0.10623801499605179, -0.08981338143348694, -0.09201595932245255, 0.02079395018517971, -0.0642908439040184, 0.01020536944270134, 0.10408449918031693, -0.06117749959230423, 0.18217095732688904, -0.12983514368534088, -0.13000038266181946, -0.013472797349095345, 0.09887972474098206, -0.07805071026086807, 0.17533525824546814, 0.07746472209692001, -0.09873286634683609, 0.00769573450088501, -0.036217477172613144, 0.06851979345083237, 0.02061080001294613, 0.17616157233715057, 0.09923755377531052, 0.11344143748283386, -0.028881564736366272, 0.02791455201804638, 0.04425933584570885, -0.165339857339859, -0.04479335620999336, -0.20723210275173187, -0.08384089916944504, 0.06796873360872269, 0.24808868765830994, 0.1110321581363678, 0.06672151386737823, 0.026103906333446503, -0.058972157537937164, -0.043111395090818405, 0.13831143081188202, 0.029213298112154007, 0.23447497189044952, -0.010222838260233402, -0.16078752279281616, 0.10701523721218109, 0.09468767046928406, -0.06614316999912262, 0.0338127575814724, 0.030504871159791946, -0.045316021889448166, 0.007695101201534271, 0.06691839545965195, -0.03529662266373634, -0.18568171560764313, -0.19369442760944366, 0.01589646004140377, -0.0071092285215854645, 0.051528964191675186, 0.02064782753586769, 0.08417094498872757, -0.04826653003692627, -0.0067814989015460014, -0.04063694179058075, -0.04158277437090874, -0.08213604986667633, -0.06506422162055969, 0.16970369219779968, 0.04164169728755951, 0.07678518444299698, -0.005756446626037359, -0.041643176227808, -0.15655171871185303, 0.0645815059542656, 0.2945196330547333, 0.26295679807662964, 0.250119149684906, 0.08588214963674545, 0.09661649912595749, 0.006857109721750021, -0.04934176802635193, -0.051460493355989456, -0.14190927147865295, 0.049420349299907684, -0.023702578619122505, -0.023962900042533875, -0.12132434546947479, -0.06925386190414429, -0.02761385776102543, 0.05752739682793617, 0.11184396594762802, -0.04738882556557655, 0.1466602385044098, -0.1079099252820015, -0.08025369048118591, -0.17670026421546936, -0.10474508255720139, -0.01362439151853323, 0.079816535115242, 0.2789088487625122, -0.0885382816195488, -0.0053383284248411655, -0.08264970034360886, -0.07966212928295135, -0.19690771400928497, -0.24399961531162262, 0.14387385547161102, 0.05642589554190636, 0.2481376677751541, 0.1108529195189476, -0.22505687177181244, 0.0578642413020134, 0.03261440992355347, -0.10958962887525558, -0.054637350142002106, -0.0650259405374527, 0.029072172939777374, -0.03308059275150299, -0.031770970672369, -0.0885748416185379, 0.0026958894450217485, -0.04258217662572861, -0.12364239990711212, -0.09723430871963501, 0.144198477268219, -0.10624635219573975, -0.21682024002075195, -0.15627099573612213, -0.049965567886829376, -0.0715382844209671, -0.009260451421141624, 0.14247579872608185, 0.015303770080208778, -0.015286294743418694, -0.0714416652917862, -0.08115111291408539, -0.15346811711788177, -0.18000482022762299, 0.06958765536546707, -0.049919337034225464, 0.23057962954044342, 0.07108024507761002, -0.19110432267189026, 0.057921119034290314, 0.19044296443462372, 0.11033431440591812, -0.011490537784993649, -0.08237875252962112, 0.3413074314594269, -0.030613794922828674, -0.035620179027318954, -0.10241676867008209, 0.05314122512936592, -0.1366567313671112, -0.35447201132774353, -0.003306433791294694, -0.03811075538396835, -0.021884478628635406, -0.08210580796003342, 0.017215309664607048, 0.07849378883838654, -0.004508383572101593, -0.11204622685909271, -0.3100847899913788, -0.03813496604561806, -0.024063406512141228, 0.031145326793193817, -0.08568155765533447, -0.21311695873737335, 0.15753225982189178, -0.06156531721353531, -0.1385727822780609, 0.1173597127199173, 0.059418223798274994, -0.2835138142108917, 0.05609054118394852, 0.15561775863170624, -0.30879199504852295, 0.050575681030750275, 0.05754748731851578, -0.06983048468828201, 0.0233992338180542, -0.07351589947938919, -0.03644956648349762, 0.05905655026435852, 0.1221766546368599, -0.0879514291882515, -0.30208590626716614, -0.09098688513040543, 0.07474463433027267, -0.026583664119243622, 0.09401638805866241, 0.0011173784732818604, -0.004395671188831329, -0.2996552586555481, -0.0018535612616688013, 0.15137143433094025, -0.010769933462142944, 0.0638977512717247, 0.0026240572333335876, -0.017507903277873993, 0.2655034065246582, -0.04359503090381622, -0.3436692953109741, 0.23630288243293762, 0.08110667020082474, -0.07304698973894119, 0.0789092481136322, 0.11972761154174805, -0.0896105021238327, 0.0854843333363533, -0.08280019462108612, -0.057675156742334366, -0.04657398536801338, -0.02159755490720272, -0.025189759209752083, 0.022027548402547836, -0.09882480651140213, -0.06833524256944656, 0.018087049946188927, -0.3253183364868164, -0.015259712934494019, 0.06689267605543137, -0.08324369043111801, -0.03166996315121651, -0.024698462337255478, 0.07011622935533524, -0.06404940038919449, -0.060155678540468216, 0.03298509865999222, -0.0698787048459053, 0.015061385929584503, -0.043306510895490646, -0.08270300179719925, 0.07814110070466995, -0.04338417574763298, -0.013830743730068207, 0.019714832305908203, -0.010948985815048218, -0.06814059615135193, 0.0832066610455513, -0.016446031630039215, -0.010259732604026794, -0.008576534688472748, 0.010388977825641632, 0.03961291164159775, 0.040777646005153656, 0.02421567589044571, 0.06767723709344864, 0.022756218910217285, 0.08219198137521744, -0.04854227602481842, -0.0051881298422813416, -0.08472411334514618, 0.07073727995157242, 0.03932657092809677, -0.08289805799722672, 0.04484260827302933, -0.06869105994701385, 0.0278983935713768, -0.018367581069469452, -0.03422684222459793, -0.01155787706375122, -0.023910541087388992, 0.07198408991098404, 0.015884853899478912, 0.06785918027162552, 0.07246331125497818, 0.01501251757144928, -0.030000019818544388, -0.0016466379165649414, 0.06133050471544266, -0.0013449043035507202, -0.06087067350745201, -0.08045928925275803, -0.055025652050971985, -0.01120852679014206, -0.07573661208152771, 0.03706500679254532, 0.0812901183962822, 0.07230939716100693, -0.033305950462818146, 0.01137203723192215, 0.01652829349040985, -0.08175195753574371, 0.05837244540452957, 0.06733793765306473, -0.06707741320133209, -0.004196889698505402, -0.03769046068191528, -0.03379346430301666, -0.009111404418945312, -0.046525850892066956, 0.040194325149059296, 0.08044207841157913, -0.06407154351472855, 0.014867152087390423, -0.08499984443187714, -0.021445510908961296, 0.06019004434347153, -0.01374644786119461, -0.05343204364180565, 0.031659580767154694, -0.057315096259117126, -0.05140103027224541, 0.006104611326009035, 0.04475363343954086, -0.04294123128056526, 0.030034173280000687, 0.03738032281398773, -0.0029850220307707787, -0.06434379518032074, 0.03791056573390961, -0.06462457031011581, 0.06625635176897049, 0.053839653730392456, -0.0530933253467083, 0.06914158910512924, -0.018463917076587677, 0.26373744010925293, 0.020212098956108093, -0.07478190213441849, -0.2136840969324112, -0.27273982763290405, -0.07229866832494736, -0.054025884717702866, 0.017473451793193817, 0.013117752969264984, 0.09124354273080826, -0.16312472522258759, -0.04715139418840408, 0.0731668546795845, -0.08082526177167892, 0.06981886178255081, -0.06023532897233963, 0.05384042486548424, 0.05474355071783066, 0.10972438007593155, -0.19768750667572021, -0.017588965594768524, 0.07662852108478546, -0.010416314005851746, -0.10934226959943771, 0.19424158334732056, -0.050888791680336, 0.13276086747646332, -0.01697015017271042, 0.3085916340351105, 0.14863252639770508, -0.03321639075875282, -0.11931686103343964, 0.08339688181877136, 0.05268947780132294, 0.060027189552783966, -0.14980864524841309, -0.3850241005420685, -0.08266890794038773, -0.055519990622997284, -0.01798967272043228, -0.07408210635185242, -0.06390318274497986, -0.17669139802455902, 0.1663568764925003, 0.14833709597587585, 0.13719020783901215, 0.08949747681617737, -0.07932984828948975, 0.05155279487371445, 0.10023132711648941, 0.10817454010248184, -0.2865189015865326, 0.006204552948474884, -0.03450191766023636, -0.019503280520439148, 0.009296168573200703, 0.19020989537239075, -0.06156524270772934, 0.2254967987537384, 0.19331412017345428, 0.16010333597660065, 0.047135110944509506, -0.030483394861221313, 0.04728645086288452, -0.10437233746051788, 0.40307578444480896, 0.07257836312055588, -0.1504889875650406, -0.083375945687294, -0.040848251432180405, -0.01106347143650055, -0.09120851755142212, 0.0324828065931797, 0.11984314024448395, -0.12253366410732269, 0.040712129324674606, 0.14724114537239075, 0.06605462729930878, -0.048082832247018814, 0.3177838623523712, 0.032459769397974014, 0.21368932723999023, 0.2061494141817093, -0.045709896832704544, -0.05069037154316902, -0.08023908734321594, 0.066641665995121, 0.03851345181465149, -0.10265260189771652, 0.19212910532951355, 0.29558274149894714, 0.03261994197964668, -0.08000003546476364, 0.13718794286251068, -0.09561357647180557, 0.08067616075277328, 0.07208529859781265, -0.05634994059801102, 0.032749492675065994, 0.010266230441629887, -0.010873310267925262, 0.0059028915129601955, -0.0015206182142719626, -0.08470697700977325, 0.07425003498792648, -0.042379654943943024, -0.06454268097877502, 0.046192895621061325, -0.007908765226602554, 0.1419946402311325, -0.0055291070602834225, -0.1242213323712349, 0.166717529296875, -0.10248127579689026, 0.15619120001792908, 0.21675680577754974, -0.06033456325531006, -0.36341992020606995, -0.06052279844880104, 0.06292663514614105, -0.12059402465820312, -0.05076872557401657, -0.15015900135040283, -0.009355377405881882, 0.03404137119650841, 0.0335034541785717, -0.051273833960294724, -0.0784694254398346, 0.047945138067007065, 0.05952267721295357, 0.005903452634811401, -0.0305071659386158, 0.07025046646595001, 0.05067005380988121, 0.05280393362045288, -0.10278937965631485, 0.06505700200796127, -0.03556891903281212, -0.19199098646640778, -0.01880233734846115, -0.01713324710726738, 0.0990036278963089, -0.0013910620473325253, -0.07581543177366257, 0.0439608059823513, -0.021538840606808662, 0.07930778712034225, 0.020283175632357597, -0.015806861221790314, -0.0995045006275177, -0.02140812575817108, -0.10805036127567291, -0.017264997586607933, -0.02066201902925968, -0.014445312321186066, -0.0370694100856781, 0.012653246521949768, 0.01662924699485302, 0.039938125759363174, -0.13258132338523865, 0.05363528057932854, 0.030523711815476418, 0.023141080513596535, 0.06292359530925751, 0.018001379445195198, -0.015055786818265915, 0.029095962643623352, -0.1224064975976944, 0.12225044518709183, 0.03792676329612732, -0.21869951486587524, -0.058771077543497086, -0.05308586731553078, 0.22852899134159088, 0.003583566751331091, 0.016298994421958923, 0.0004901507054455578, 0.038023848086595535, 0.14432008564472198, 0.05292594060301781, -0.0012137740850448608, -0.0040484522469341755, 0.040639735758304596, 0.04655129835009575, -0.05498315021395683, 0.008747351355850697, 0.04452765733003616, 0.016416233032941818, 0.028299476951360703, 0.15956230461597443, 0.08860524743795395, -0.012685658410191536, -0.02900811657309532, -0.11292892694473267, 0.014874720014631748, -0.005401439964771271, -0.05731324851512909, -0.1440298706293106, -0.0515282042324543, -0.18874488770961761, 0.1558467298746109, 0.1434876173734665, -0.34252727031707764, -0.1236950010061264, -0.11148035526275635, 0.037492502480745316, -0.003718726336956024, -0.0366797000169754, -0.11983544379472733, 0.03058166243135929, 0.14880497753620148, 0.022513199597597122, 0.07917582243680954, -0.20355623960494995, -0.06507531553506851, 0.1388082355260849, 0.021575694903731346, -0.03671382740139961, 0.070921391248703, -0.06361646950244904, 0.025921721011400223, -0.15397700667381287, 0.020452169701457024, 0.06018130108714104, -0.030550168827176094, 0.010369529016315937, -0.06199590861797333, -0.13034749031066895, 0.18617375195026398, -0.19265210628509521, 0.021872906014323235, -0.062183234840631485, 0.06630772352218628, -0.015931347385048866, -0.22591575980186462, 0.0155783174559474, -0.24191726744174957, 0.07087792456150055, 0.1918414831161499, 0.02108372375369072, -0.0028133513405919075, 0.022902805358171463, 0.15257281064987183, 0.15609554946422577, -0.01775609701871872, -0.0669500008225441, -0.024239344522356987, 0.0749438926577568, -0.1434088498353958, 0.06009098142385483, 0.0013012706767767668, 0.020399879664182663, 0.08264688402414322, -0.0700172409415245, -0.03109031729400158, -0.25435149669647217, 0.0368482731282711, -0.010787337087094784, -0.030027853325009346, -0.2288651168346405, 0.11647021770477295, -0.17489396035671234, -0.030669838190078735, 0.07920707762241364, 0.07252556830644608, 0.18685267865657806, -0.048475779592990875, -0.07120794802904129, -0.3263360857963562, 0.023077240213751793, 0.012775617651641369, 0.06443463265895844, -0.12808869779109955, 0.022869816049933434, 0.1047397255897522, 0.09530168771743774, 0.057758428156375885, -0.0037832569796591997, 0.016831830143928528, 0.041023146361112595, 0.010857337154448032, 0.03161739930510521, -0.031186029314994812, -0.02058463729918003, -0.019662169739603996, -0.007077109534293413, 0.07467509806156158, -0.04954923316836357, 0.07931828498840332, 0.029343990609049797, 0.019039293751120567, -0.18564294278621674, -0.0024374795611947775, -0.16281229257583618, -0.09860239923000336, -0.15782178938388824, 0.17976461350917816, -0.08511260151863098, -0.08280768245458603, 0.010676011443138123, -0.3362058401107788, -0.18839506804943085, -0.0734967291355133, 0.03712141513824463, -0.025135518983006477, -0.0052474928088486195, 0.16242384910583496, -0.09078998863697052, 0.003883989993482828, -0.04010727256536484, 0.03956956788897514, 0.09708955138921738, 0.04544316604733467, 0.28825289011001587, 0.08546392619609833, 0.009032786823809147, 0.014258302748203278, -0.023619260638952255, -0.022870581597089767, -0.073492132127285, 0.06246766448020935, 0.0457644946873188, 0.001827526604756713, -0.0840279757976532, 0.1399259865283966, -0.07615814357995987, -0.02893216721713543, 0.05880388990044594, 0.021848339587450027, 0.10331442952156067, -0.13489998877048492, -0.05420370399951935, -0.3184835612773895, -0.08647118508815765, -0.06378140300512314, 0.06319528818130493, -0.027475260198116302, 0.012193230912089348, 0.07537855207920074, 0.044755443930625916, -0.08395083248615265, -0.046282242983579636, -0.06226058676838875, 0.04546433687210083, -0.015170195139944553, 0.05954479053616524, 0.15049420297145844, 0.05271963030099869, 0.09257853031158447, -0.12763655185699463, 0.0174444317817688, -0.09942089766263962, 0.014003369957208633, 0.1515766680240631, -0.022225402295589447, -0.06375345587730408, 0.009564530104398727, -0.045051757246255875, 0.08440715074539185, 0.09296946972608566, 0.12139980494976044, 0.19725088775157928, -0.10253337770700455, 0.038284894078969955, -0.07234233617782593, -0.1967446208000183, -0.013937979936599731, 0.11819992959499359, -0.10649583488702774, 0.039259281009435654, 0.10171665996313095, -0.14150087535381317, -0.07584408670663834, -0.06432167440652847, -0.06429249793291092, 0.12228168547153473, 0.11055741459131241, 0.010101191699504852, 0.01880025677382946, 0.041128743439912796, 0.05161761865019798, 0.0012649798300117254, 0.06408728659152985, -0.15882237255573273, -0.08112569153308868, 0.16901850700378418, 0.024203617125749588, -0.01902643032371998, 0.12134047597646713, -0.0975237712264061, 0.05766815319657326, 0.14535383880138397, 0.10273373126983643, -0.10059544444084167, -0.04644821584224701, -0.004901157226413488, -0.08231997489929199, -0.2335401326417923, -0.10866975039243698, 0.12561734020709991, -0.15429849922657013, 0.09217427670955658, -0.06053082272410393, -0.005335757974535227, 0.03999267891049385, 0.009165986441075802, -0.07965382933616638, 0.04640442132949829, -0.010151869617402554, 0.036365121603012085, 0.09903091937303543, -0.00750931678339839, 0.0389409139752388, -0.08620747923851013, 0.02493763528764248, -0.16358086466789246, -0.10779931396245956, -0.08082983642816544, 0.012678506784141064, -0.15080271661281586, 0.0429341197013855, -0.13809534907341003, -0.10329344123601913, 0.02561451680958271, -0.08023763447999954, 0.06452346593141556, 0.050727277994155884, 0.106358103454113, -0.09837716817855835, -0.125127911567688, -0.17561499774456024, 0.03255600482225418, 0.00037337845424190164, 0.0023425407707691193, 0.1971563845872879, -0.02615192160010338, 0.05564224720001221, 0.07277572900056839, 0.0262710340321064, -0.027187833562493324, 0.08275218307971954, 0.04473664239048958, 0.06997930258512497, 0.016918713226914406, -0.040546707808971405, -0.019639162346720695, -0.013359501026570797, -0.07176165282726288, 0.02698884718120098, -0.021906372159719467, -0.09886597096920013, -0.1107313260436058, 0.03479863330721855, -0.0835222527384758, -0.051719941198825836, -0.031275469809770584, -0.3619615137577057, 0.051177654415369034, -0.02074919082224369, 0.0023804211523383856, 0.10094734281301498, 0.0699058249592781, -0.0653885006904602, -0.027988966554403305, 0.05140364170074463, 0.04387428238987923, 0.11107401549816132, 0.030906978994607925, 0.0076772416941821575, 0.04122915863990784, 0.03845767304301262, -0.023969750851392746, -0.0733790248632431, -0.03593740612268448, 0.05172592028975487, 0.0021513740066438913, -0.040757182985544205, 0.03704679384827614, 0.12189038842916489, -0.057203508913517, -0.03629259392619133, -0.03654018044471741, 0.05782031640410423, -0.12095996737480164, 0.14363381266593933, -0.0360490120947361, -0.05530238151550293, -0.15781284868717194, -0.27973219752311707, 0.05731227248907089, 0.04708685353398323, 0.029878536239266396, -0.006046943366527557, 0.03650106489658356, -0.16637831926345825, 0.04895760864019394, -0.13740870356559753, -0.003441605484113097, -0.0038772348780184984, 0.14967679977416992, 0.016139810904860497, -0.04278195649385452, -0.03113563172519207, 0.004050379153341055, -0.005478709936141968, -0.03072875179350376, 0.0337163582444191, 0.10339991748332977, -0.04042011871933937, -0.01736040599644184, 0.039000559598207474, 0.10785003006458282, 0.007467056158930063, -0.09182590991258621, 0.04732441529631615, -0.07917167991399765, 0.07980311661958694, -0.03821857273578644, -0.16663339734077454, -0.17214785516262054, -0.10046856850385666, 0.09880571067333221, 0.014244978316128254, 0.004161829594522715, -0.0648336410522461, -0.02842451073229313, -0.18966709077358246, -0.054168473929166794, -0.19066105782985687, 0.07435087859630585, 0.10793604701757431, 0.013154977932572365, 0.011864013969898224, 0.11876844614744186, 0.07199609279632568, -0.10838159918785095, 0.012744711712002754, 0.16584403812885284, 0.05304412916302681, 0.07562875002622604, -0.05903729051351547, 0.030116520822048187, 0.07376889884471893, 0.23618783056735992, -0.06438750773668289, -0.07826128602027893, 0.01835492253303528, 0.03178761526942253, 0.038590431213378906, 0.05465035140514374, -0.08152241259813309, -0.15774713456630707, 0.03832564130425453, 0.1473800092935562, -0.11816582828760147, -0.009251472540199757, -0.051438529044389725, 0.06214970350265503, -0.19111517071723938, -0.044144585728645325, -0.18669159710407257, -0.04515308886766434, 0.061578862369060516, -0.019659576937556267, 0.01347627304494381, 0.05008440837264061, -0.05116625130176544, -0.12199223041534424, -0.27082574367523193, 0.050230368971824646, 0.023354267701506615, 0.09399355947971344, -0.04699339717626572, 0.021080462262034416, 0.07017911225557327, 0.1073974072933197, 0.074785515666008, -0.19220036268234253, -0.05648781359195709, -0.050374895334243774, 0.09046146273612976, 0.006740306504070759, -0.0013832070399075747, -0.0675920695066452, -0.06346515566110611, 0.11196713894605637, -0.09240412712097168, -0.043206457048654556, 0.11963346600532532, 0.055597010999917984, -0.03953998535871506, 0.011011806316673756, -0.1043894812464714, -0.020670372992753983, 0.07693932205438614, -0.18345437943935394, -0.018586568534374237, -0.032420288771390915, -0.026653185486793518, -0.18218229711055756, -0.22208984196186066, 0.04825109615921974, 0.10546395927667618, -0.029069118201732635, -0.015299766324460506, -0.10193581879138947, -0.0897865891456604, 0.11355447769165039, -0.2586304247379303, 0.0961804986000061, 0.07640432566404343, -0.015035849995911121, -0.026993678882718086, 0.015624569728970528, 0.07537338137626648, -0.08124344795942307, -0.09007761627435684, 0.07035227864980698, -0.06722744554281235, 0.04407284036278725, 0.12166661024093628, -0.0861741304397583, 0.14097550511360168, -0.06378072500228882, -0.059308554977178574, -0.026060080155730247, 0.06405343860387802, -0.13163240253925323, -0.04467418044805527, 0.16140806674957275, 0.04956762120127678, -0.16617003083229065, -0.16428321599960327, -0.09047502279281616, 0.1770581156015396, -0.05238224193453789, -0.043790437281131744, 0.0017695697024464607, 0.134638711810112, -0.09119738638401031, -0.057118937373161316, -0.07179370522499084, 0.04268952086567879, -0.03556157648563385, -0.08580677211284637, 0.046117693185806274, 0.06853533536195755, 0.029717382043600082, -0.08832181990146637, -0.0015230620047077537, 0.09617646783590317, 0.16556689143180847, 0.3407437205314636, -0.03244134411215782, 0.16428452730178833, -0.00993572361767292, -0.12093555182218552, -0.11269129067659378, 0.09957847744226456, -0.18378588557243347, -0.010955899953842163, 0.0875241756439209, -0.010862154886126518, -0.16823725402355194, -0.15765291452407837, 0.07359005510807037, 0.06523967534303665, -0.2251497060060501, -0.06666968017816544, 0.03719252347946167, 0.18310393393039703, 0.000656978168990463, -0.22873204946517944, -0.21186399459838867, 0.0695791095495224, 0.07353184372186661, 0.11530829221010208, -0.023318255320191383, 0.028650103136897087, 0.07516636699438095, -0.07529900223016739, 0.015573384240269661, 0.15149690210819244, 0.2429056167602539, 0.05629291757941246, 0.029577914625406265, 0.24009110033512115, 0.018479088321328163, -0.05511258915066719, 0.17123854160308838, -0.11264117062091827, -0.12857340276241302, -0.07303766906261444, 0.05514811351895332, 0.015053220093250275, -0.3045491576194763, -0.1401665210723877, 0.0469764806330204, 0.003564324928447604, -0.04052647575736046, -0.05787648633122444, 0.01984761469066143, 0.16586671769618988, -0.0845254436135292, -0.039281632751226425, -0.11751587688922882, -0.06640194356441498, -0.1688261479139328, -0.07842178642749786, 0.055748626589775085, 0.0047288620844483376, 0.04786133021116257, 0.009729990735650063, 0.24184711277484894, 0.24619612097740173, 0.21666201949119568, -0.24950222671031952, -0.1377984881401062, 0.16877171397209167, 0.08572898805141449, -0.0850755125284195, 0.25023308396339417, 0.025662390515208244, -0.0009106749785132706, -0.053617410361766815, 0.20033836364746094, 0.0655454620718956, -0.194380521774292, -0.030019046738743782, -0.033121827989816666, 0.12528076767921448, -0.15474985539913177, 0.18298344314098358, 0.2701422870159149, -0.05880368500947952, 0.04840999096632004, 0.1228058710694313, 0.07747586071491241, -0.03856002539396286, -0.3094322979450226, 0.02500006929039955, -0.07655207812786102, -0.0074709332548081875, 0.06669646501541138, -0.11294791847467422, 0.015992917120456696, 0.1544988453388214, 0.18452787399291992, -0.02054496668279171, -0.03373165801167488, 0.13161994516849518, 0.11722385883331299, -0.06787234544754028, 0.14553610980510712, -0.2118634283542633, -0.0015997665468603373, 0.07098790258169174, 0.2813258469104767, -0.03252718597650528, -0.1143701896071434, -0.1299511343240738, -0.1692894995212555, -0.07613148540258408, -0.18132014572620392, 0.15953202545642853, 0.02674045041203499, 0.02871098183095455, -0.13576620817184448, -0.19661207497119904, 0.046812158077955246, -0.058306582272052765, -0.23870767652988434, -0.12034141272306442, -0.17978955805301666, 0.04868263006210327, 0.019821330904960632, 0.04355770722031593, 0.014656377956271172, 0.23854181170463562, -0.1667044460773468, -0.12288299947977066, -0.07190898060798645, 0.0025763597805052996, -0.04184218496084213, -0.06247643008828163, 0.26403242349624634, 0.07452627271413803, 0.01833627186715603, -0.033353812992572784, -0.08306709676980972, 0.04326727241277695, -0.2673341929912567, 0.03389372304081917, -0.1310245245695114, 0.25256186723709106, -0.0425884909927845, 0.07946540415287018, 0.11686195433139801, 0.029734469950199127, -0.0057557448744773865, -0.0968511700630188, -0.03420623391866684, -0.01594255119562149, 0.02894452214241028, 0.15326377749443054, 0.13656069338321686, 0.005839690566062927, 0.05908266454935074, 0.0005351677536964417, -0.08004122227430344, 0.08906376361846924, 0.1294066458940506, -0.12620653212070465, 0.15180768072605133, 0.06573240458965302, -0.2571569085121155, 0.06743863970041275, -0.03863545507192612, -0.020036160945892334, 0.06358642131090164, -0.07326941937208176, -0.025521282106637955, -0.05529927462339401, 0.05907655879855156, 0.06472562998533249, 0.04478491097688675, -0.04394456371665001, -0.003683745861053467, 0.060818322002887726, -0.11264137178659439, -0.009876705706119537, -0.019013330340385437, 0.01732417196035385, -0.07385126501321793, -0.03503356873989105, -0.06425651907920837, -0.00756777822971344, -0.07386445254087448, 0.036338403820991516, -0.00046643614768981934, -0.03363187238574028, 0.011346526443958282, 0.06489451974630356, -0.041667576879262924, -0.012690141797065735, -0.040040358901023865, -0.04065031558275223, -0.05056983232498169, 0.06578461080789566, 0.029236041009426117, -0.037329886108636856, 0.06632054597139359, -0.018757551908493042, 0.08371803909540176, 0.0677173063158989, 0.021494098007678986, 0.08177731186151505, 0.004752650856971741, 0.011669524013996124, -0.08444257825613022, -0.0768565833568573, 0.08290541917085648, 0.05036657303571701, 0.0794893130660057, 0.057826898992061615, 0.06536198407411575, 0.07249871641397476, 0.05946945399045944, -0.04432673752307892, 0.05699565261602402, 0.04657059162855148, -0.0770721286535263, 0.05671814829111099, 0.07658287137746811, 0.04138978570699692, -0.04864455759525299, 0.02522643655538559, 0.06650184839963913, -0.06686773896217346, 0.025087371468544006, 0.0658796951174736, 0.06543374806642532, 0.01679450273513794, -0.004837267100811005, 0.058018915355205536, -0.04832783713936806, 0.033823028206825256, 0.016452431678771973, 0.0008087530732154846, 0.08074337989091873, 0.07668393105268478, -0.061662398278713226, -0.05897948145866394, 0.030675716698169708, -0.05943330377340317, -0.07108756899833679, 0.2093789130449295, -0.0980258360505104, 0.06813854724168777, -0.03672881796956062, -0.17932197451591492, -0.08302091807126999, -0.0041925981640815735, -0.02842419594526291, 0.07904420047998428, 0.008165575563907623, -0.07392178475856781, 0.006113645154982805, -0.03931543231010437, 0.02719673328101635, 0.02296461910009384, -0.18405859172344208, -0.04676393046975136, -0.06033840402960777, 0.1939193159341812, -0.24155156314373016, 0.07521166652441025, 0.1722860336303711, -0.04033058509230614, -0.11666847765445709, 0.2516770660877228, -0.07172340154647827, -0.06250093877315521, 0.14713743329048157, 0.1408272236585617, 0.0029596949461847544, -0.06663390249013901, -0.0016136809717863798, 0.1620033085346222, 0.01615721546113491, 0.06718180328607559, -0.1859608292579651, -0.01712734065949917, -0.05377773940563202, 0.015173234045505524, -0.13500046730041504, 0.14120115339756012, 0.16382743418216705, -0.19566503167152405, 0.14902471005916595, -0.04115251451730728, 0.1953573226928711, -0.0464324876666069, -0.06472197920084, 0.11857570707798004, 0.04430614411830902, 0.07159531861543655, 0.0568695142865181, 